{"fc_layers": [{"bias": [[0.299103855165813, 0.30191183909504543, 0.5411067399190582, 0.6884494486981736, 0.3100267986882133, 0.3811607166600628, 0.5819647535231627, 0.46535273223199325, 0.07758158134833709, 0.42524475627513475, 0.0510869323891485, 0.19570526323171486, 0.5792861147788477, 0.8151397968865648, 0.16872222859821057, 0.21119198739086797, 0.7476522850188686, 0.8124960639116591, 0.8958703765561885, 0.8057550084746634, 0.482604622564976, 0.8924841641355495, 0.8510092040692216, 0.5862196131707874, 0.45268167280926563, 0.37354698359389077, 0.4849232209211679, 0.9067787694535141, 0.48882261014670075, 0.19405572255916617, 0.025775962402165828, 0.03656765714695238, 0.3485514440648913, 0.9661024434660584, 0.07508210227760127, 0.6484910922157451, 0.5465507038916586, 0.8915038513934187, 0.25599727213973267, 0.24932590854478978, 0.780377344623757, 0.4039234372282824, 0.10700907084428476, 0.659404427095992, 0.49624265396684847, 0.5528869653172892, 0.8559857050677191, 0.672652568706616, 0.18485813654432515, 0.25930098966644644]], "weight": [[0.050421928033153894, -0.036263092606473465, -0.007061300931895317, -0.016352367544936967, -0.010626530019605883, -0.024728073614370384, -0.04512704724379391, 0.04486615168851606, -0.06585945057164268, -0.020564572234622897, 0.02774568998814796, -0.018439230700243024, 0.040129034922049237, -0.04933987217132358, -0.01180961418475407, -0.005858924711166379, 0.03460016236666761, 0.06981428016833463, -0.006689317305513754, -0.018702811786972865, -0.03237731525093515, -0.004568513662110969, -0.03257091831769399, 0.03394776340864835, 0.016036788061037012, 0.057775828899202644, 0.05253339303240153, 0.06853548379708925, -0.058436540333742466, -0.021260450292112074, -0.006822820542084753, -0.0723907974468735, 0.01755538742436348, 0.007680974041440739, -0.005268299132941865, -0.013685625717517408, 0.05385796279891671, -0.030643147433639207, 0.03251721721726272, -0.007548524891589523, 0.061353995009664465, 0.044197385523397324, -0.015456105827690076, 0.025667836377507764, 0.027158308495739112, -0.03537186876016592, 0.003370058463202053, -0.010872409176192152, 0.011476039700863928, 0.004061468042422541], [0.016761178734466975, 0.024988444551164217, -0.0378610409934806, -0.030452655507852085, -0.015381207744208595, -0.044870960808387095, 0.04182635989309518, 0.023250993496978106, 0.02756160191917049, -0.02425105731884406, 0.0326350431344511, -0.01659040923597622, 0.022813251364277354, 0.027745058499073418, -0.005151974847956653, 0.043446072970629086, 0.009993373617751693, 0.026110571175638843, 0.03592515747319946, 0.014302389892549458, -0.05751171453729299, 0.07608631976817462, -0.006277122544243654, 0.01618786695499261, -0.006148737523821424, -0.05613924865504662, -0.014765977457815983, -0.04802478643438944, -0.0159089989575042, 0.026812314097078606, -0.027211119901181687, -0.020760823023399783, 0.03145165017577112, -0.04858147562921567, 0.05795255370463193, -0.05186736944236458, -0.0684665135065384, -0.009860601355639138, -0.04371934901227676, -0.008247419559699097, -0.014917454616020962, -0.04946942423258721, 0.02287841533723971, 0.03187484723584393, -0.03400699410707174, 0.018675278024688238, -0.0019297048425710936, 0.06789187200314706, -0.05684761154124007, -0.02306474039251826], [-0.023546689596235616, 0.04768081144328451, -0.004818243738599701, -0.04034665985905254, 0.021693970650436212, 0.02902509393550561, -0.0325724450475153, -0.0340528394593365, -0.006177207150328642, 0.033695458808632485, -0.005193816172720538, 0.012238767934608505, 0.040316129278659074, 0.0068396691195071555, -0.014673147394192506, -0.00327174741666999, -0.02706736955139146, 0.011656541171232071, 0.003474956897354823, 0.007360270296306754, 0.004831073729997007, -0.026819003482488897, 0.03128717577618722, 0.017710839415051065, -0.04651333262086301, 0.02290751315132034, -0.03521338926395369, -0.003653974482177973, -0.03607086248893976, -0.0004057699932048945, -0.02461028719927325, -0.07593743104991754, 0.047744861725020224, 0.018814971650000036, -0.0483935880110681, -0.0507033828173194, 0.03919746449063328, 0.012856476834184356, -0.02553425129014589, 0.012296638188784645, 0.031242046369447923, 0.014182418044383348, 0.002785443548933876, -0.01730193331548558, 0.0033702456709407387, -0.03272918825368128, 0.028101872109263265, -0.04121839481934329, -0.006775967310991923, -0.010429113467618588], [0.04926781104019943, 0.006228558283551897, 0.030062869310223773, 0.05556205912862427, 0.0001216725497575792, -0.0066323595269121224, 0.0778917077071712, 0.0070820932043230995, -0.034974334516772156, 0.037367537595684855, -0.02091308322092602, 0.00850699104219151, 0.04052834867531359, 0.05283347178609283, -0.0047663921167419385, -0.004591955103163479, 0.008535963112676967, -0.015057292514177176, -0.034593600053049095, 0.07733209360909847, 0.013200604942007184, -0.019551286897201668, -0.004936528143968622, -0.013530853157322697, -0.012986678347052293, -0.03849590635309813, 0.10653766667299613, 0.021502035319316166, 0.034560826157678054, -0.04301329902477567, 0.02167096523121311, 0.04625077689040943, 0.03329303671293828, 0.0031975533457585087, -0.004329578234134541, -0.06710989199187781, -0.00236642674275648, 0.049896917654322345, 0.03313732817538316, -0.021627074986452142, -0.014452613497927104, 0.043624688140450105, -0.08144923906202613, 0.010300434003707412, 0.048016708919657626, -0.06746445421580696, 0.003036686758699523, -0.019829054957752605, 0.0638236155237753, -0.017825108365731337], [-0.07510662042074459, 0.008426821089305212, -0.03734571054988016, -0.08776623787489943, -0.030031338680423843, -0.008650445313383373, -0.03488823526761799, -0.026328245125945136, -0.05038092069010168, 0.06659740052621059, -0.007084474815880864, -0.04064097878049177, -0.0423036766753835, -0.08144368546967617, 0.004471446947811985, -0.06139189278091929, 0.005513126045196997, 0.011683875176516176, 0.08729382804899895, 0.032650343355466245, -0.018062851473876373, 0.0013859775387908711, 0.04453377116742838, -0.000214276751253725, 0.0013969466952850004, -0.02668518614563638, 0.006194894339436164, -0.01795291739415747, -0.01038047975076735, -0.004676527378526969, 0.03522248259290574, 0.0364314935392678, -0.054335521526235796, -0.055447821093882736, -0.04417060895663365, 0.0012202204368169764, 0.05078534646231702, -0.01894018802889227, 0.06741889782940884, 0.008160966537295915, -0.00118247350697924, 0.05153341393998743, -0.06676347130121288, -0.06658459470460701, -0.08684500472277532, -0.028313584957294212, -0.018897301461093776, -0.016907900738469105, -0.0411143485835879, 0.005444954176614594], [0.0012055919817173758, -0.0061505789269598096, -0.005716964502142985, 0.023990071573816333, -0.03184841184420346, -0.06588456272418479, 0.0005958882461096313, -0.00541572553649584, 0.0326215782254494, 0.004528484339811683, -0.01714225014481748, -0.023294477176883776, -0.0520687661503837, -0.03358093098314165, -0.06521675964863602, 0.005695734964990017, -0.1067897415771004, 0.019772347239174443, 0.04078709704275955, -0.022236660047540942, 0.0028384940017198456, 0.03431338592369742, 0.009631090705834884, -0.0401930997570863, 0.05802290422227481, 0.07395443975162179, 0.060277101794799386, 0.004563792332981897, -0.02428869087962409, -0.005063334585401632, 0.03698585599350667, 0.02346296368457373, -0.010239924356417546, 0.04537834313625524, -0.002896144286122515, -0.06234288403811811, -0.00964699721059804, 0.01103839393398867, 0.05549910397677089, -0.0019801735688971885, 0.0437146186441813, -0.017064100726368762, 0.04711093052305683, -0.017669140094783542, 0.013376272422349575, -0.04268744525644661, -0.021036555846755272, -0.05781637578933129, -0.05274585868976949, -0.07980620452640853], [-0.056916552818424185, 0.06361784204250132, 0.003286794004395258, -0.039788476422545016, -0.006610579282145388, -0.03844486756623401, 0.011111632938084587, -0.02274496403601442, 0.04284842033961249, -0.03399742310768929, 0.027330647705702215, 0.006334609394642946, 0.05644927749055254, 0.0006002648754322772, -0.012544388106142274, 0.05185061683682988, -0.008042648476750616, -0.0011332733549687553, -0.020845696788678945, -0.010725678897492158, -0.034901421090965626, 0.014812061074250695, 0.051235521649345535, -0.042146517973554384, 0.0038653764872794067, 0.014347458314450931, -0.015304027883551964, -0.028541626410843287, -0.0020173119779766267, 0.002068328244678718, 0.056207364897965094, 0.02343676067834861, 0.058913399474436134, -0.013310745581923467, -0.009927677150742944, 0.09032375253690507, -0.017699728733978747, -0.014921111054503066, 0.011251469599910784, 0.02124911316071077, 0.008412079719199137, -0.033841015604884436, 0.015406835469087691, -0.019604818386483508, -0.013982952804777618, -0.08536681800694747, 0.003653390619613987, 0.02839798340029925, 0.057073640539262796, 0.0033171853491583236], [0.02118133486152211, 0.01289133606512283, 0.009718304186215687, -0.02279432283843775, 0.033509940977555976, -0.01943229783983003, 0.024172806955687454, -0.07130581519221488, 0.0034854415212069805, 0.051182937263597385, -0.022127999131798713, -0.016882888175986894, 0.00270509621676817, -0.004479468118665833, 0.00948189796002401, -0.01918200811532757, 0.003272466602256776, -0.023164554529516736, -0.0035581196772635944, -0.09140767927141698, -0.05214533733402928, 0.010736186188731024, 0.01226439292696002, -0.024906396211704856, -0.0031771009013237365, 0.0399561314759526, -0.001653602668397394, -0.003316757960506935, 0.07981088450206295, -0.03736993292225085, 0.01727230402325672, -0.0030450046746798853, 0.05337663083515979, 0.03585759286827629, -0.004584214268981995, 0.006146872037213549, 5.868161239578451e-05, -0.0158528651731603, 0.006235389031160915, -0.04354774412314033, -0.007919372873059594, -0.056373379947882475, -0.05075590595120492, 0.0009523390498836406, -0.04718044953707159, -0.02989885035596449, -0.015356668268653274, -0.004897465021224367, -0.012599356886966067, 0.010017904400072877], [0.04328351669338966, 0.03998766224814948, 0.050700054066865965, 0.004877801941479063, 0.029858293353453757, -0.018680577581456477, 0.011052820516294474, -0.018423939417424238, 0.004636963832555867, 0.024817976034341004, -0.018447107964985783, -0.018987340789539325, -0.024547814237122063, 0.022512190626280067, 0.010032815344926385, 0.007015471705807824, 0.02645361221865155, 0.03880593293463839, 0.028212290550439428, 0.0139190184293635, -0.0216023389398379, 0.012949063139282792, 0.015754906531475633, 0.025133156149200763, 0.03883885633086844, -0.026008775247838064, -0.00375892282625391, 0.01007182086450002, 0.020538853043688157, 0.030982734909420523, -0.022667139604862413, -0.013624945810124122, -0.020465217635473792, -0.020492308453840057, -0.04087868155670162, -0.019794662098440073, -0.05899693815423466, 0.00650436060330798, -0.005852377366385956, -0.04198251762172589, -0.03543964471899095, 0.03109514554178264, 0.012048642788658267, 0.04650718317447466, -0.043733807119285636, -0.05123397638921073, -0.004875275166613817, -0.06597589053372613, 0.026130981594810743, -0.011189030735107871], [-0.03574755208966457, -0.004001070294081896, -0.03207998565127118, 0.012996491565002254, -0.00453043516878472, -0.001538273347620991, 0.007109493345132138, 0.016388152613980245, -0.00531788703725228, -0.01815703339428418, -0.013757997304833692, -0.021782264409241612, -0.010332312931707022, 0.00286027933082358, -0.007424570118241841, -0.029317848832294196, -0.018428858697092727, 0.004118389555478585, 0.010514359127334057, -0.04946234626800811, 0.00823928635169723, -0.018427398818599124, -0.011854055619083564, -0.0070118102261658415, -0.00761228959591391, 0.04055759525340902, -0.03809694028455695, -0.03276912764971172, -0.05004479250625531, 0.025315465967982908, -0.03331825973588994, 0.02567146591134237, -0.04230142099944242, 0.057059553298191464, 0.009804662158032908, -0.1397948569019493, 0.0014317231982049286, 0.013019008592653846, -0.01184712390270567, -0.003504592379678188, 0.0055255417925701685, -0.004213536352876713, -0.038553431176931094, 0.01464332092959153, -0.06728889968170632, 0.02287676184944814, 0.004408695479974764, 0.03226021473241624, 0.06491698684059859, 0.004240443317667525], [0.027221024678055573, -0.0014329196302579263, -0.010004402156026564, 0.03433265053676958, -0.01847113498387209, -0.034749549252938036, -0.06661822150172207, -0.022110991967992266, -0.03002362357547871, 0.01395958032939871, -0.004169402870489563, 0.032308087926915606, -0.07669283314646684, 0.002950280535720979, -0.024740872997834677, 0.0056493123910055865, 0.035717501391528336, 0.0019433069454351285, 0.021902797554070215, 0.012066364192415182, 0.02005268061813072, -0.016234571074615158, 0.06869222771836782, -0.03745896306118774, 0.0024003767093865305, 0.07583175824311142, -0.014640152820965261, -0.04988544080744561, 0.040678168599014346, -0.06239170671876374, 0.06200642869476803, -0.05395400941701389, 0.003439435493535266, 0.005343124710756063, -3.2103266068979313e-06, 0.03401132065953007, -0.0007164217057623574, -0.04796962858834891, -0.012946033323614537, 0.0444978139732727, 0.01333125410238504, -0.0005872353092840265, -0.006877688221634985, 0.01781953886632384, 0.0464459678233245, -0.052246939455680166, -0.03743020400650837, 0.0139104573258992, 0.01726159778923633, -0.03832537157048888], [0.0513042061771196, 0.04575152829016659, -0.004922813190924245, -0.009927865436171798, 0.00853177013543493, 0.023729568978490313, 0.030891234254508237, 0.02335885156278563, 0.03505891755067082, 0.018161256042588662, 0.004582341649742109, 0.008235556152055774, -0.007158959939465544, -0.034968014669958906, -0.07705137113222058, -0.0014322043097056397, 0.0005034214501317534, -0.0020541052748146555, -0.0659243261291109, -0.028540517898552536, 0.046204357501408146, 0.05247051160215223, 0.005117139885580395, -0.037774087589113436, -0.007885963023273409, -0.0032053361099488096, -0.024561318915417872, 0.018349105823941125, -0.0120562042594474, 0.0029872861963028837, -0.05174861557793122, 0.0006273429484257654, -0.006554245527870719, -0.07526278860932376, 0.036227036383514134, -0.0015232643391346627, 0.04144609955863295, 0.004519843542655081, 0.03799338578624246, -0.0006885816181444963, -0.08256070432559716, 0.05002362612112309, 0.05169988314010484, -0.05628368590120221, 0.039612815915457185, 0.028397404828172334, 0.05158892438849907, -0.009140112853428575, -0.00774819146040967, -0.03781344615011117], [-0.03830524993723555, -0.04475378140573492, 0.0273602399073982, 0.04875045716712655, -0.014985284179165106, -0.06507401104411066, -0.01332805488128679, 0.08817157574852887, -0.0413403366030894, -0.006549348218065949, 0.054363932065121266, 0.007289327809220087, 0.03608006017026232, -0.03398283879407003, 0.05287512492698042, 0.018633175682313673, 0.016649681345372196, -0.008145570664696632, 0.0558908016440293, -0.015225626548422928, 0.005918815777560756, -0.04519766244159588, 0.0019949519858613496, 0.012475055604800799, -0.06148391205566889, -0.013615087421190636, 0.025802079640389743, 0.014165640326114474, 0.003206321940085279, 0.03414053175285492, -0.0927608971689763, -0.00889754452238065, 0.009861917251227972, -0.1082227653147799, -0.03936941795971425, 0.002768268314912368, 0.011816711120421266, 0.016444576837962556, -0.030154353763429745, -0.00040768429966438354, -0.017112907655689066, 0.009414397068995902, 0.017501439048283007, 0.02042407340142578, 0.06127016762323886, 0.03517859709086103, -0.010268685787338581, -0.0043583839006032625, -0.018178919350329965, 0.029133945242951972], [0.014838213465068726, 0.005121851325201729, 0.01532805472565308, -0.04552635429722453, 0.010520502924846482, -0.0404360099016346, 0.025229020269072224, 0.0006500557696064589, 0.005614081935698027, 0.07696297127324682, 0.01660779174065265, -0.0242080500302156, 0.01922185844243369, 0.03845929559588657, -0.016864059213207685, -0.032601334815194984, -0.030632083470484035, -0.016336934055580603, -0.027091600885132867, 0.035900994650588436, -0.035490012352304645, -0.003450185279232456, 0.026244976086081857, -0.017766379203435864, -0.011204309276219519, 0.023003288662857405, 0.0015867982483596555, -0.023165752912302683, 0.0635684669543597, -0.0026245989712005867, -0.010863478051746544, -0.010222036542172184, 0.023984690024709446, 0.023788736808838407, -0.021884187669011512, -0.05348794214597083, 0.007449950249074687, -0.028185925088600308, 0.01898391275396415, -0.06079589928592335, 0.012186197429266061, 0.025623989527932524, -0.03443036180258447, 0.02941970837895306, -0.017823908541150214, -0.013745854303102633, 0.012245228948197481, 0.042203895773973016, 0.008076038115066062, -0.05713424855415583], [0.005497212203685239, -0.07337904121059056, 0.010002409712759891, -0.054708609083778295, -0.0203785878086015, 0.018336686296121434, 0.049740057564979595, 0.03758013512034671, -0.0034232326560484825, -0.030521138984809862, -0.054320207158284194, 0.0626166052122318, -0.060688549197537765, -0.05161575655568132, -0.002799508554693204, 0.0335062949328823, 0.06099331329881485, -0.057369222635647706, 0.05912957605019234, 0.013706138880862272, -0.03795149479265896, -0.0060284541554327074, 0.015173433337127886, 0.031999311065820685, -0.026664906662195682, -0.001664884146196883, -0.03787953692706266, -0.04582708514452717, -0.0669711408917298, 0.02724146235391733, -0.0079329003518325, 0.058674478414419466, 0.02263235241980711, -0.014344074925733096, 0.03138468903920011, 0.008117537648382757, -0.025111089030857184, -0.041015303680036475, -0.03078955700373501, 0.03868670842456952, 0.00036977664725320973, -0.025213493373524017, 0.06436554875527407, -0.06437143534366724, 0.030336010467182657, 0.007187129538750041, 0.0040297976796613115, -0.06251295211446171, -0.010479162053824865, -0.008510330857593028], [-0.051846395632008345, -0.020558794313398413, 0.03839213399029732, 0.05800425120949586, 0.009470555511365638, -0.03419615842183952, 0.004547746455307742, -0.002824012264100822, 0.07912641177474915, 0.03528953292984278, 0.048233418585943405, -0.0811479514902675, -0.011363248286901556, -0.005738562863855585, -0.03267430160890854, -0.021008344850221072, -0.007873723896060896, -0.0093976191259244, -0.03483221921353604, -0.01034651788594559, 0.055629134142861324, 0.03373265658163849, 0.04379557422400245, 0.006393292983014703, -0.01940458957472415, -0.053535107484468034, -0.01012978017361467, 0.11870724656975007, 0.013405319892659858, -0.014475003219618915, -0.05382738711358708, -0.008222381810118654, -0.037515601050822384, -0.049287108863820595, 0.008460773498445128, -0.016472603766649007, 0.026043769497782206, -0.025215865597192362, 0.05287975658817362, -0.019087844382097912, -0.03462462748501509, 0.05379341433323695, 0.030819521342878083, 0.022428394064678146, 0.017439349070717394, -0.02017878706521661, 0.012501684846371042, -0.07314028854034003, 0.020617478175346066, -0.0040823441511518375], [0.019162311206073403, 0.015254957172478949, 0.027892299731428087, -0.02243442795883011, -0.02331231773459267, 0.010052317590058969, -0.04709156138219191, -0.05126497931108275, -0.002022602072660877, -0.038690283733248405, -0.019040201293159816, -0.01194700831303291, 0.005241871313481166, 0.013281193622489043, -0.01670671337696057, -0.04198106520645324, -0.020528596669444447, 0.021791561065488376, 0.07508067440742587, 0.06015405687671353, 0.004890874312258732, 0.021177720621845524, -0.02427118402771797, -0.07160691052225006, -0.006265076246138393, -0.031425694874690005, 0.01380782586784052, -0.026623663084504444, -0.04275781465635792, 0.013532428005274988, 0.07165278370554727, -0.05413184262194108, -0.018652029143621695, -0.0006275594435976596, -0.0017755957536027289, 0.01189053244658694, 0.06067037931964568, 0.023184795923947003, 0.005813945029892285, 0.11424177194938964, -0.007565593811679061, -0.015502033532956675, 0.001527250413214864, -0.023803730420835383, -0.023653671294165908, -0.005263871580911288, 0.05008352622934271, 0.014000236810334563, 0.07318311884177182, 0.06646001622144532], [0.04478213872050677, -0.026767419260771634, 0.04503104099696389, 0.017667008131503244, 0.04351688315590781, -0.033927024143894105, 0.006461134468769952, 0.019901235833535636, 0.052145997838931604, 0.04976094619984778, -0.003789297783013751, 0.06188154623681879, -0.010123588362283668, -0.008080542974100036, -0.024045020237945334, 0.07668934886316765, 0.0010904455989145206, 0.014657335056608906, 0.01566351525077465, 0.016951288646664463, -0.05607185274575429, -0.02725593885198615, 0.03267719682778989, -0.018253038096236636, 0.004107630649711811, -0.014103800891515288, -0.035938668572124396, 0.007758148079900962, 0.013063712371565606, 0.02479444225047858, -0.02165097044648787, -0.0031311136357242073, -0.022940432470902022, 0.06175458258478026, -0.012328084006713083, 0.02591950564338653, -0.010600729680771068, 0.00016792525997938733, 0.04148279899565114, -0.0645326709583437, -0.0509270717730071, 0.0033709825371145874, 0.005361993289877661, -0.009475069024112938, 0.040483195874522725, 0.02977142722163493, -0.004685219515177231, -0.01974650763401121, -0.04877468449459975, -0.0011509130645833855], [0.04698919249696532, -0.03328966980739855, -0.053665548308113306, 0.003927967245794162, 0.026862158561440006, 0.004530939430736695, 0.00672904984536408, 0.05958965459504146, 0.0212656656961514, -0.04630449587026814, -0.002826179261994151, -0.028803802699423314, 0.02924543911450203, -0.006479560200477979, 0.009164690780354038, 0.03296552945501906, -0.037762135290505025, 0.06999469835731095, 0.017643012755093227, 0.09261359975984314, -0.008008438975231269, -0.02557941619933609, 0.004897116386797289, 0.0316700240354412, 0.036365224195041894, 0.06523819556787785, 0.004490667037940624, -0.00473695171344639, 0.019079761957893293, -0.04087658725358658, -0.02822075208350786, -0.06125694313190511, -0.012012261154955255, 0.00372477281406872, 0.05746980240721951, -0.03344571950180648, 0.0020974089020546127, -0.025791258394251625, 0.0060824872115035475, 0.0204094040034935, 0.009804679154090782, 0.009571426283474434, -0.015771529832142177, -0.0812329072541558, -0.021471646294339324, -0.05024801278821384, 0.02747817733944529, 0.019248725212580257, 0.011533185219293458, 0.0048941304287920965], [-0.010858310863339899, 0.006811687417695937, -0.04314242690841631, 0.0366188611056925, -0.041225666344589275, -0.022801761585977128, -0.06301580853876178, -0.025786721781960734, 0.023705020788766462, 0.04170253347749669, -0.018458236423890804, -0.03534696428116248, 0.012654849650239093, 0.04139205139213143, -0.04013681787375024, 0.014065315265016103, 0.036851489369230314, 0.004783756231720207, 0.03141439476967598, -0.013782264676139978, 0.028709402266552407, -0.024072032038243738, -0.003869619178221551, 0.03425158492660734, -0.06123128688285428, 0.02141165115995978, -0.07355208739339716, -0.021892609307076306, 0.012727874366765613, -0.03415542279486193, -0.003455339915002059, -0.013514052969554014, 0.056487523108943734, -0.028861444356933916, -0.07089514496850105, -0.02692029007584442, 0.0017834916990106485, 0.041363721432656805, 0.016561947073860536, -0.0384140996716263, -0.054566262470026675, 0.07956790335660202, -0.040444918031864015, -0.0015323515529631552, -0.03170681056235224, 0.053026716645381465, -0.033592802701689586, 0.010985182465889809, 0.025677662534140416, 0.006022735761874808], [0.010640237800094111, 0.0019130940927846501, 0.024752954524251157, -0.040899727581041385, 0.015320304149012686, -0.014685351412710353, -0.01825817499565834, -0.004471548404539698, 0.01496419205324478, -0.05257205597488791, 0.016063308246405308, -0.035103751273587745, -0.056271591324458616, 0.04224508978285981, -0.009561633023105335, 0.022810290496406396, 0.040082420649096236, -0.008316789055685997, 0.04723288359442779, 0.035584179594521995, 0.005698033474209101, 0.02870793941538121, -0.012566072933439672, 0.05532164446734638, 0.06783607761046027, -0.01010020762244657, 0.007223925889103211, -0.007946645867837476, 0.012340583305688437, -0.0016464872339162215, 0.006854933630110192, 0.027966539007907014, -0.031228221749967377, -0.013854666129947747, 0.026812078632844467, -0.025605844464862436, -0.02593544370500503, -0.028247101947177056, -0.004552281155497939, 0.01812327012565501, 0.07360998598389348, -0.019871966279722958, 0.010897109665567844, 0.01881167317200117, -0.06197605353094183, 0.057782544588766506, -0.0385178298231427, -0.04148478286740478, 0.028162474262069793, 0.011733514176782842], [-0.027101884907534565, 0.02038260456198018, -0.03980470808442129, 0.03437434028954423, 0.026434466009101227, -0.06065901712456279, -0.019107727467786145, 0.041191177802108736, 0.059685596112477306, -0.003529731376869496, 0.04468648369932143, 0.007193719720453225, 0.0032189171817584594, -0.03921307097394334, 0.0005037535553341045, -0.0057973527301039135, 0.04832465955988432, 0.03105348054713913, -0.022312105994833985, -0.009304080892143535, 0.06577527953989644, 0.018440775824636012, 0.017759445336856642, 2.837382855220525e-05, 0.013195485903967411, -0.051781971027926386, 0.02234376267116802, -0.062328483087016835, 0.0024698358937948173, -0.05860934668497493, -0.0068371146626674375, -0.0035393116435565755, 0.014448833719776264, 0.02445777441530182, -0.008731409946750514, 0.031809498385382044, 0.017001349376630597, 0.017966580640351223, 0.0019144635464545528, -0.03936458507937159, -0.034208598355169824, -0.003225381983771351, -0.04086998471383696, -0.0463460588763984, -0.032459590271361846, 0.01411023785270744, 0.022796060055125432, -0.06825962142353803, -0.006814065091366603, -0.007350719730337524], [0.011162420725452324, 0.045645038603317804, 0.021079703682731713, 0.014746028068168686, 0.015921088493621317, 0.0528323118155752, -0.049847730547514305, 0.04427372035691803, -0.03026280146207074, -0.028503311807321123, 0.026357766637371653, -0.01234047431164148, -0.004480040086591161, -0.004874942145115322, 0.02212276766029036, -0.04521565840987009, -0.06085160034238572, -0.09586295258728761, 0.011919298573391362, -0.016414714779055144, -0.028461319115126716, 0.07142863399821534, -0.033757191925436254, 0.0070214626452733365, 0.0008299052497021781, -0.07884582390877412, 0.03171970971320334, -0.02776200500604589, -0.00488540778674329, -0.005944313767606887, -0.009106733379848008, -0.05858740841519112, -0.01691125017281967, -0.010958813614533821, -0.005681758442239368, -0.02148548175373128, -0.02183089861272918, 0.005794292041796545, -0.0302486961208916, -0.004323361935018359, -0.0338185938690638, -0.010512285082841829, 0.016139309768572845, 0.0074678604067279835, -0.034661638937380314, -0.025912661786072485, -0.024556614375098318, 0.04176615887535103, 0.016788917191888714, 0.02456953974344944], [0.07272221921322733, 0.05236761579485819, 0.037543766283356296, 0.03909215313149001, -8.88966334965379e-05, 0.06912374296177864, -0.0505268852646492, 0.06624482251338103, 0.06562413027901595, 0.056893483543247796, 0.046632870397084865, 0.0020917068104159453, -0.04898366608327188, 0.01123239988761185, 0.01260647304985132, -0.03703341004244677, 0.05379081933120501, -0.029666936205670562, 0.003754172418199084, 0.01234499658919973, -0.05239295762343219, -0.03889359216731148, -0.00627754681819557, 0.04580833195568356, 0.006905301770092318, 0.038215368897564675, 0.10842508675596774, 0.016366416996345345, -0.09109897265707914, 0.02645480745724309, 0.005156610259736355, 0.052511715745149776, 0.03027086175452821, 0.024534514708532955, 0.062430280097546774, 0.017293282010651924, -0.0011408369492999255, 0.024621581237666636, -0.00011887593249379968, -0.017172872578892884, 0.013676743172121053, -0.004692799004313098, -0.0061585077950285, -0.022749603029369295, -0.021411255167593426, 0.011397447397217228, -0.005076242773236226, 0.027282219676755936, 0.025362546944602438, -0.02895454280788951], [-0.0417440150823095, 0.08048718675492807, 0.020030821501747443, 0.04187199367276335, 0.021834614044126455, -0.03266257019708725, -0.03315340631415688, 0.010147059979022, -0.04640588635153376, 0.00396723184716777, 0.043466678832375163, -0.06455789944386191, -0.022972739998660528, 0.03745022315668325, -0.04427204170858029, -0.011139740127383767, -0.055758598297772695, 0.021114484411033033, 0.05606136149013661, 0.046312314306282396, 0.029251904349575447, -0.018027200989468584, -0.02015558130371548, -0.003666488222127917, 0.021578115545477398, 0.04509567742701226, 0.04871643521285394, -0.04683470840163194, 0.0040917211599670236, -0.027839214495309964, 0.0068623245581372035, 0.020463219433421737, 0.023907036312387397, 0.073192220727327, -0.031028536146324386, -0.06437262804234345, -0.046738599179228506, 0.01563253854621787, -0.0033944229560391626, -0.0018690851526069754, 0.011210095771495987, -0.058353405636394226, 0.01205799742508446, 0.04618662013128465, 0.028669743419706156, -0.006362515398032724, 0.06397310496450292, -0.011739146479618764, -0.020200715017442274, -0.01679396024360984], [0.040964046738001234, -0.02078989694987051, 0.035813202611192405, 0.01226553195850825, -0.0045840372341567825, -0.012796072521087236, -0.0470384531412153, -0.0487024345226298, -0.009688398903656258, -0.0166355241376618, -0.014664788158325922, -0.003198474886756988, -0.03975823938996347, -0.04161999630700399, -0.042397676441517006, -0.024207903920219456, 0.0045845351780934174, -0.048650987712871005, -0.021506696745362968, 0.03721630228636615, -0.043836203011223554, 0.047621295757611606, -0.003016040327544919, 0.03387173450690941, 0.003745384683556873, 0.012421252612412453, -0.03297990574582712, 0.02548555508454569, 0.02121781469499521, -0.025884471939023015, -0.03726708573836288, -0.008422346393965588, 0.0437995662518818, 0.002665114066349318, 0.051484731677368265, -0.021654897117872832, -0.04738530772822323, -0.026078394873119814, -0.043773630016086966, -0.0032673520009599668, -0.062172303552112895, 0.07045288911348496, -0.025845274300458968, -0.06807832098883339, -0.008503494913077884, -0.032149643514788634, -0.01780458657762055, 0.02646264134655283, 0.005060637125191283, 0.015496145762362511], [-0.042850182886728254, 0.029269898207946614, 0.013366425865008124, 0.050323065721802084, -0.0014706397920256295, 0.016712476362851066, -0.03824844553340352, 0.007617782885104812, 0.022675079951454073, 0.029105954658157372, 0.011908130722718291, -0.004129204007783624, 0.015349232215498299, -0.03326478900319454, -0.034861842020526466, -0.003079662889248882, 0.027039594158488396, -0.03679492814151712, -0.061975616219085074, 0.03172839714396602, -0.015986727964209545, -0.0033849120176396553, 0.01029310360153993, -0.04796779706032476, -0.00410419986763501, 0.03680659282492066, 0.003160054502375638, -0.027215490367563346, -0.022682558152843015, -0.03325497461765493, -0.0292792266365385, 0.02815148478775851, 0.02585903585436808, 0.007919383133345082, 0.022968631742519677, -0.0014580747553383127, 0.050703489717918784, 0.03284083573996738, 0.007239924693399427, 0.0017349908898032767, -0.01615305642656655, -0.006114712308058506, 0.003355846105608281, -0.06181971269496441, -0.004716672596034283, 0.01130975251208863, -0.008004762940129698, -0.04261821824003543, -0.03655552169328161, -0.016642781548879722], [-0.044916794707377736, 0.024763393066267604, 0.06095879567409978, -0.0399440967529971, -0.007025329921515786, 0.02625820872801531, -0.026792108913442313, 0.04824145222298021, 0.043742968066571034, -0.0026826311882136556, 0.03188452446297645, 0.03506504142236237, 0.009873932907724937, -0.03588231397082011, -0.01484700353797983, -0.010276536045240049, 0.03764685495320091, -0.03189644576360196, -0.014437922105054122, 0.013117423345462299, 0.06264528134256436, -0.013748774585204276, 0.009076348142291742, -0.010313691872683096, -0.04678860056956407, 0.045397930537558535, 0.03970790705709293, -0.03606180563588836, 0.05775992127549872, 0.015806735037504564, 0.02860001428062615, -0.013517935162708212, 0.05849996602654901, -0.050278053897034554, -0.018740623978956022, -0.016603591527372227, 0.019510289449641578, -0.026585857010919454, -0.02585934736590518, 0.0013917265064814627, 0.0028837262785986347, -0.061186588870430596, -0.012318285766869339, -0.007156105646944101, 0.03930429561943503, 0.008675942619302908, -0.015063734755298147, 0.029605704631450763, 0.01750407677973132, -0.02173821930141479], [-0.006201010978242868, -0.042176508716853515, 0.0012462014055553416, -0.05060245562328802, 0.07557786003636768, -0.057725010570639425, -0.03311028618080323, 0.032376029692489615, -0.017523211150109484, 0.04884561211338191, -0.002935487858543405, 0.00517819510965441, -0.06100419939011333, -0.03393162180678398, -0.020464776357242198, 0.06405378981837422, -0.001073947785742344, 0.0392808523344104, 0.01890067081971239, 0.01646197784964006, 0.09946672592255724, 0.09932216830460854, 0.051543088121262896, 0.038048050631908005, -0.018244950503405265, 0.022671875403694825, 0.03805810103075903, -0.027400257127121085, 0.028397092712164448, -0.017041468673866765, -0.011567643518501602, 0.032289886365611684, -0.013254750872895339, 0.05790683776488041, -0.026837446183675003, 0.020139654691733906, 0.005478614026394197, -0.06241943757392238, 0.041942108241336686, -0.023365256564548964, -0.0676103512962226, -0.009317288676136088, -0.0024990947859866663, 0.0009023008058915155, 0.030668645209918726, 0.03625364367681932, -0.03385357826201615, 0.0763072778117114, 0.01473317240169451, -0.05433090841426625], [0.025684337468017796, 0.045273278044987826, 0.045097608916563156, 0.022658195518265284, 0.06080488070571778, -0.05013697526736865, 0.021870960462068646, -0.015450498169185324, -0.006876212776026935, 0.014070972120904513, 0.023301225371746576, 0.02802155302424441, 0.039997770390988945, -0.06100786350358844, -0.06315561486021483, -0.004467474163318929, 0.05462047177353859, -0.014301906967325787, 0.04110756327145289, 0.01378346738310207, 0.003282692642254626, 0.027784687815385338, -0.03606357041227919, 0.050893128755804755, 0.06689903759741246, 0.0346089364629042, -0.00794398031615879, -0.031208969899354344, -0.014718879999399704, 0.034529787331122504, -0.0437290729861823, -0.034269441042846474, -0.0415176626587223, -0.016934051668700188, 0.002207204623836341, -0.054587704081997465, 0.035459073757036906, 0.020556999366185293, -0.01702113350662867, -0.0019496323914272944, -0.056002770185805385, -0.014670155034666038, 0.03758733180223232, -0.0010484428595434322, -0.037247358841985, -0.06842263328539236, -0.02908707983248546, 0.001645993755816725, 0.029767035190118998, -0.04991583093224885], [-0.03270237616788741, -0.027071368785851528, 0.0371409881353378, -0.01608908280243001, -0.018134668527917955, -0.013259874314031929, -0.013495241000696476, 0.004952185758560467, 0.08249418227432473, -0.03201669647338892, -0.049447832984738975, -0.007610598623233716, -0.041545126524750134, 0.012566835765432872, -0.035247152215593325, -0.010999844316214988, 0.04613103468472791, -0.003567088339587886, -0.011261947244886097, 0.0761430305645003, 0.020371014204516123, 0.03077422973586505, -0.014362040895643507, -0.008984802207825864, 0.03363692938935766, -0.027790262698273893, -0.03245133913990382, -0.00022840579352220676, -0.018973136840996392, 0.014897193801975957, 0.0174917535215024, 0.015065144049085486, 0.028325364398756405, 0.02620935843374097, -0.01852838198508757, 0.010811856819480898, 0.010852477073124086, -0.020435413773686517, 0.07475527737041822, 0.034608415660161214, -0.0035564403107593567, 0.019629890067529607, 0.05967818940119259, 0.03770226740559499, 0.005334466465719139, 0.002764898541813881, 0.02751400404548779, -0.08340714722938662, 0.021260943611720904, 0.015269590111601871], [0.011351351004535019, 0.0030944570840565357, 0.02321615153771578, 0.010735489910520774, 0.016946769205110037, -0.006868279783858108, 0.016920576902685072, -0.014557003561497488, -0.009827062203866267, 0.007483114499196525, 0.02623107825920833, 0.007339686671789229, -0.011966419368201872, 0.013624599930832228, 0.031588321162534856, 0.0210172658128344, -0.02556388888164415, -0.005008669283900815, 0.013894562873083062, 0.005365791689625676, -0.022122191520612906, -0.005582157680730073, 0.043625979404912155, -0.02991692605025282, -0.032135800138394344, -0.018848993255413598, 0.06644874506264135, 0.03174816959629257, -0.025400739267637026, -0.002073953368195302, 0.027087857052866728, 0.0370801460669871, 0.002305883461547593, -0.06418174008067486, 0.09388265893515332, 0.052779907686345405, -0.08082878922416958, 0.028684793490581815, 0.042699198768967495, -0.10055036419434657, 0.03077593605546396, 0.011286434736213947, -0.06554073092136391, 0.022982637912084075, 0.042635869623180285, 0.012033419950802279, -0.06362795204314185, -0.07547484979075667, -0.021831518691972484, 0.01747010807471026], [-0.019430945707231383, -0.022738686920755414, 0.02310596106152709, -0.017602723894684032, -0.01779435803280628, 0.002849879034688706, 0.05177486471715869, 0.010117595279222217, -0.02555149860060921, -0.06550828272743467, 0.061724717541208174, 0.057371020619661366, 0.007589559513574361, -0.023362698396090648, -0.013221262696492929, 0.04398096772252909, -0.014777039454487672, -0.07826936167707883, -0.02662857179865121, -0.03800489784811412, -0.06691301353622815, -0.0007375041519708169, -0.0030358856455270184, 0.024205176676930115, 0.0074978975405194425, 0.03717317608347524, -0.03924644355001946, 0.049877638851178574, -0.052563823764392635, -0.0018536324992232246, -0.029753271948360676, 0.026295863057665524, -0.013615326660866223, 0.043907386327644383, -0.005935684485641026, 0.0035641328365537475, 0.036353249974496744, -0.010821191432108591, 0.05386778148639349, -0.017379093148917658, -0.04229741446642269, 0.012444021658774798, -0.011147058641358804, 0.0014848023727366247, 0.008504690346538809, 0.00904696986969849, -0.03139679446830339, 0.015691798796822996, 0.048848487783518406, 0.029755786657117367], [-0.01564239123785576, -0.06717994545527502, -0.0411714701793705, -0.0017942911218454876, 0.009639549674632302, -0.013854113698417932, -0.09603117681530068, 0.031004380171736647, 0.044168554973995675, 0.009260646581134024, -0.00868772688408097, -0.0019217177212855628, 0.051789334751359994, -0.013277081300586642, -0.01991484883410379, -0.005220073182074448, 0.0403600223673646, 0.03633812069543277, -0.024891204848832324, -0.011125771622031414, -0.0016036231591720553, -0.023933694378330275, 0.0350588674510257, 0.01210915496842775, 0.020961412713145063, -0.048730481111030455, 0.022632867461069895, -0.054270003269232106, 0.019508605354283396, -0.020929107747900997, -0.04194284125487806, 0.06929751022043075, -0.0037758664428992213, 0.004937018775750179, 0.03622630882586328, -0.03208988588442352, 0.05880901280490999, -0.029828072201316683, -0.045307009595913245, 0.030277696286733206, -0.03786532194222163, -0.002626742026503436, -0.026878707434488263, 0.004043364174882369, -0.008887158969470446, -0.038721539281788314, 0.015739096254112836, -0.016476665072317372, -0.05102696435267676, 0.03108673901957277], [-0.027142456363432762, -0.05307108061088907, -0.0029761548157243712, 0.024141364788047768, -0.004028201220061834, 0.020469928856734793, 0.010929298745338052, 0.02015456856899764, 0.0680270455803677, 0.04890220564240999, -0.027351695099308373, -0.019198967612174093, 0.0028921051438861, 0.020106267577238147, -0.0329230096183117, 0.06967314295612448, -0.005659441344283802, -0.038230687493931895, 0.0466255010246538, 0.02900963039134246, 0.010447978096107726, -0.025990648302658802, 0.03882955450543748, -0.05455789942488474, 0.05431820491298995, -0.013260692285241479, 0.00347512690796658, -0.00520222965896611, -0.01489503041312933, -0.04774386881672654, -0.0032159777038153763, 0.020066121153492038, 0.02827684791794711, -0.07392304797247995, 0.008185546823739917, 0.047456785095264666, -0.035296134310680335, -0.05192249090719587, 0.020333543202774747, 0.0016452239863723854, -0.024562541287848714, -0.0017593770387483406, 0.027917194178673912, -0.016428244519230008, 0.07655933426062864, 0.08778527045753534, 0.04318352570775703, 0.0007863419965718824, -0.013076679206565203, 0.041884619211915705], [0.006872548216071623, 0.015330675540474514, -0.05293793223028942, 0.0665498999524032, -0.048317190971113415, -0.05050790798400186, 0.0078022133533427185, 0.03474472746855764, 0.018839274120489757, 0.04520645842227285, 0.005963384149693628, -0.058352528358546256, 0.034552793231957396, 0.02108813889555934, 0.08376614500680239, -0.006228991920376951, -0.0700738684687945, -0.007754792695189345, -0.01290184756344698, 0.036983951420313146, 0.013039371389221914, -0.058359904476640176, -0.04545467012730195, 0.07827997673496469, -0.014236659551764851, -0.008445663178134765, 0.003416233792710775, 0.018056598796467333, -0.013328518757599005, 0.016479019041848567, 0.010697165470625032, -0.011192415807060594, -0.005399000085456678, 0.011045196000535346, 0.028935061134038195, 0.0372378293052815, 0.013257042136351522, -0.0020502656168823728, 0.033483585003389944, 0.016696553689911724, 0.032262258112664186, -0.0006871774266118949, 0.04322276678263072, -0.0020375862229054537, -0.0038214949473989474, -0.07643865649835958, 0.0015514707559181327, -0.0010047635452253188, 0.012564829001060002, 0.01982406071733196], [0.024534659158294166, -0.046224616594102486, -0.01967418788899421, -0.0267187137890283, -0.004335957992048525, -0.014707950526178157, -0.06875955853126799, -0.018909594743074097, 0.019494537722333553, 0.04573717780409841, -0.008952554659134528, -0.03568105349748556, 0.011216581700499186, 0.0330640996001762, 0.017573736548049203, -0.010875024991301689, -0.025536881409536135, -0.007393394027475524, 0.015496479577618535, -0.001457540086286531, 0.056600038892893424, -0.01330450480321517, -0.00900233844379267, -0.030508450627810577, -0.06711463770743728, -0.005655181266122457, 0.01297271203857638, 0.06042227073685083, 0.02564980750425192, -0.015714844811110927, -0.0049965000318055956, 0.00164637161225332, 0.01284509571722392, 0.0017727201062026068, -0.0287832197203039, 0.00873075140385244, -0.020594797293297086, 0.018069138003070466, 0.07657214098672468, 0.004696815388549123, 0.040731284290049984, 0.0014194309814463792, -0.08831403659600565, -0.05701267106897975, -0.010684063378994597, -0.009369285199296721, 0.03866533185829828, -0.018391729481707517, 0.015967219790412893, 0.03970514902610303], [-0.027072189474212135, 0.04689341975693773, 0.01544839887645525, -0.023666522189945187, 0.013238997560003912, 0.0029484287915603237, -0.03061477040024914, 0.00029980147221014136, 0.015339809995814802, -0.025425124908347568, -0.007803394176284925, 0.00196166393953847, 0.024021888730261454, -0.03836646697052189, 0.04626726339124102, -0.004224991842172688, 0.04516027973540176, -0.03610656346790406, -0.00024587280734304263, 0.0022635944895948736, -0.013309196756859022, 0.02835856129264641, 0.05137711940127303, 0.02547530537096483, 0.04127894960482516, -0.024817748234771037, -0.03460029218264306, 0.08321095826574149, -0.1338146923807782, -0.0683780330216288, -0.007078436724589525, -0.05036406402372853, -0.10989554412136303, 0.05102180019219678, -0.05304675639846789, 0.05752378712225424, 0.004584562751167344, 0.005543091698813068, 0.0759202544788152, 0.019071240643993837, -0.015607406096439763, 0.002890828086867294, -0.02442115604018781, 0.019234429246002337, -0.02349146832298165, 0.0794305786964041, 0.035920310809355115, -0.06737616595423525, 0.033220496349477414, 0.025825297232396183], [0.022344622126691544, 0.01956661570155752, -0.018411910673490562, -0.04506879320437598, -0.013748199912965232, -0.0037316137018777546, -0.038749627579855686, -0.03059078901386927, 0.059910660326838366, 0.052191324608637846, -0.024876362497510768, 0.02092169123186198, 0.04958546832399648, 0.013283924141901911, -0.012723158423003469, 0.019910689854096292, -0.05395023531372863, 0.01204188806913789, 0.008543747576256228, -0.006076836275192819, -0.009097377355628959, -0.011179245085371565, -0.055304714400431394, 0.018649934059193563, 0.03062204541297258, 0.07270314410793947, -0.01062021658903977, -0.021811067943686344, 0.06471214096950241, -0.06107453547841864, -0.05556706893534543, -0.025269656485620927, -0.03344276967286707, -0.023736485240011946, -0.0056272639228495906, 0.0015947547253315735, 0.04243320709197657, -0.020105835058028106, -0.005666469999444847, 0.020653244496651964, -0.0076474706124949905, 0.030646384237481093, -0.03605351510056027, 0.02381745926909895, 0.06546104583590959, -0.016160430715160545, 0.006131365721870045, -0.009815452010736051, -0.012675632170792445, -0.019767218640593127], [0.0233942643151126, -0.03749616220146188, -0.018072666442670773, 0.0730052930293535, 0.0010699170222698208, -0.05010291521814199, 0.0364037099640937, 0.017435612671700625, -0.03847174868494054, 0.034802195950920774, -0.015229512731921052, -0.016555848647456985, -0.055076464385543776, 0.05080732543417498, -0.07388445250032125, 0.0006148922236739684, 0.020501017350812577, 0.022348815506556367, 0.027700990912946054, -0.018716443750508772, 0.0021456512184827347, 0.032649159585138955, -0.03762227062610316, 0.07471444981489644, 0.0019816259529603954, 0.05373445752372686, 0.08911931117395619, -0.0006188741960978302, 0.019076437356449392, 0.033796172157839484, 0.015093846203558433, -0.046577099930194966, -0.017592657281025083, -0.004794739267617922, -0.035439298673526576, 0.008216140593817901, -0.010938143312612713, -0.03639620760914593, -0.012050385300890035, -0.021540035491878273, 0.007999473177724507, 0.023941588377501866, 0.0008416889586441165, -0.004930115900816874, -0.06140759253049398, -0.009376510145989406, -0.013554165455500226, -0.025889119041339052, 0.040312113632303914, -0.01929667929738635], [-0.02516214217078208, 0.01654685268976059, -0.027460139686976425, 0.011604986580394657, -0.06962760798175446, 0.014646881338311452, -0.010339536429452897, -0.05932889370682082, -0.03284886865641968, -0.049103834592868226, -0.06047629821631506, -0.060919589530042666, -0.01827636789838297, -0.004025183038565333, 0.041428626505244245, 0.036787634582014214, -0.015419321526312165, 0.019540127378566283, 0.018124016728818367, -0.056283661004997376, -0.055485562722866436, -0.0053950956299401364, -0.04163754827008406, 0.022268695991870265, -0.029859792084567696, -0.03479283645717101, -0.008926251629378448, 0.032304693428304124, 0.07614772744048877, -0.008337737695800224, 0.024294480497557724, 0.008513011938170124, 0.01957797144302366, 0.05491485857130555, -0.013411049993267995, -0.05126092366423429, 0.04159079547097549, 0.006980149488076714, -0.04951135367269505, 0.0048809315956279044, 0.03280510087378148, -0.0016323042651686024, 0.06779906560468281, 0.04519249744179857, 0.015527045591261378, 0.011175553572023454, -0.023725176122822194, -0.05123802641997983, -0.008594928096789954, 0.024103495327442093], [0.001418129782016602, 0.038014357820062475, -0.027003745863793404, -0.06570845460974324, -0.04509223415198619, 0.015235412936935236, -0.022375010804078978, -0.007191508066671008, 0.0015886624918037225, 0.03542360190097134, 0.07897212893392483, -0.03470974853977077, -0.012165907922472505, 0.019715932676663498, -0.006220795249111158, 0.026030976566080166, -0.003887102804347343, -0.0026799527925542173, 0.025753934728325614, -0.044856964407915666, 0.007702191057601738, 0.03746707422724235, -0.014981456819938663, -0.03894910747523888, 0.0006300648408259408, 0.044226506421157996, -0.015205195732812577, -0.025323124432458582, -0.029238629237014424, 0.1144665411799455, -0.037861508178444934, -0.061668514429448, -0.01587569639107429, -0.0412069728417236, 0.024256113721858173, -0.03132696198892173, -0.04673935300857597, -0.05209064695206774, -0.013015111948881235, 0.013303747166412989, 0.03694727050581415, -0.048771764847573194, -0.0038482875841673748, 0.022132013368763748, -0.0028333316637141194, 0.025876705520960892, -0.08698105783075506, -0.025049154488388774, -0.008376301306753155, -0.026363816842558386], [0.03810334368101782, 0.03828687843652753, 0.06243862128559607, 0.012229454869906231, 0.002869435715684943, 0.016051418998672715, -0.023348207145713243, 0.07802189424157198, 0.00306871104698057, -0.06470685217454396, 0.02931971230026455, -0.06267969715589461, -0.007541634818529898, -0.007174168536739524, 0.01546570187522527, 0.017582854384122285, 0.004802811963935361, -0.0033914058962917814, -0.01750924193750221, -0.05066983607178235, 0.009928038482428582, -0.0257348557616691, 0.068509803660464, -0.030890639284701323, 0.02167647217226905, -0.0429881187680882, -0.024446776307616547, -0.01114688241535339, 0.004091800892532008, -0.03573117523531805, -0.006417565496668051, -0.02315596654870214, -0.03215456581442909, -0.02877341428236078, -0.01794023697872733, 0.010256718756107472, -0.016286920461397063, 0.0011534192681355753, 0.0066188216860064856, -0.021344352233683, 0.018299618332205163, -0.019911319427534244, 0.002124173759342611, -0.011562851969816932, 0.027312054215995828, -0.04629468361373113, 0.020292560367517747, 0.05775160203890324, 0.0373062630371469, -0.0010732390131381931], [0.039253662592687796, -0.02774667815167093, -0.022888892236414528, 0.014010778371191992, -0.018394075306809338, -0.02260192886925956, 0.0017775816731422456, 0.009894378377433089, -0.0599273697865439, 0.0053165918470515555, 0.04599727292018562, 0.10395318364786611, 0.039970219818497785, -0.023295482825052578, -0.016755250117338097, -0.01681672945361581, 0.0039024580523810445, 0.03626651091989188, 0.02039595647393205, 0.049324809837920765, -0.001008563348075812, -0.05461078018482729, -0.018300828107715137, 0.020321526278006367, 0.03842472976984767, -0.006996969634279506, -0.02931873593720361, 0.009434024364406457, 0.007787300431209517, 0.006363472669596853, 0.02328277946721687, 0.031627404381099414, -0.03164906681223918, -0.02742108742763491, -0.05531754952869202, -0.007611486475148521, -0.06071486886962883, 0.04830186104942314, 0.10113304924231219, 0.022378285253024908, -0.035132349995830724, 0.012741255914139656, 0.02016762914655296, -0.01686641658708317, 0.053252250353609004, 0.018977547983585245, 0.00536146242998212, -0.027730596719445038, -0.0022309807890750614, -0.04676434781715001], [0.020321325672718552, -0.05737717647085515, 0.015202993881912836, 0.05861173119922929, -0.07017732610527536, -0.09379476698877362, -0.06267483110084199, 0.0047468906456690834, -0.06401667291663593, 0.031888101414722994, 0.018414695418819214, -0.011497856817242412, 0.017865326143485585, -0.05174620703964529, -0.0037550637633531046, -0.0013196727461372143, -0.043085122165026704, 0.010493842482308651, 0.047410982069755345, 0.006903780401219361, 0.018013798415213278, 0.019010826440087333, -0.0011943165741835887, -0.044398864924641304, -0.08033137845841042, 0.04733472035971232, -0.010077416059383067, -0.007680782486083004, -0.003991562929937449, -0.027873723629007995, -0.03448171254722516, -0.03717287659845952, 0.0339549456363455, -0.026914164900077333, -0.031171899078955595, -0.01805418345971911, -0.04832000188417745, -0.003571219584724596, 0.06891933150603131, -0.0012643784166374886, 0.008147214681003101, 0.05681061039014326, -0.01993428413413676, 0.02853084183542764, -0.005087043138674721, -0.08581358817185762, -0.055986687005934135, 0.02898789997461893, 0.08281870195424958, -0.0787075724704953], [0.005000053904044742, -0.05567495381801915, -0.029396877152084683, -0.04694292661607748, 0.027322314805681303, 0.003498132607896812, 0.014843279889289823, 0.014629786322441373, 0.04986334565251495, -0.04251732115963441, -0.05731416577557152, -0.006258304116614598, -0.08669825365079824, 0.03526262364392769, 0.0554624716658982, -0.03553945962554489, -0.022639044420241193, 0.019956900242986853, 0.02947748573954104, 0.1102512531255644, -0.04253904806385611, 0.005844713538054027, -0.022970457471037924, 0.04743218442001944, 0.034686462808853846, -0.08057699745714758, 0.015726883468428893, 0.020101420002369922, 0.052438526677870904, 0.023293313816548398, -0.03244653479378134, 0.017288011406976632, -0.09419885356768279, -0.039409376258745, 0.04048550510172011, -0.03284987450016678, 0.03730717540661928, -0.015957002308840774, 0.016687855423214836, -0.04128695376068476, 0.0005371066610292176, -0.002291161893018831, 0.04094756445380084, 0.03842634347031407, 0.010820308312171376, -0.011148495738920116, 0.06615924737752302, 0.019454988523636134, 0.051531394821049466, 0.016564473638498726], [-0.012750019908533928, 0.011085692980921085, -0.015660694956100323, -0.004042496691220801, 0.01392837237645752, -0.046794656579463766, 0.012160749396359005, 0.036234546402692594, -0.06129478514404717, -0.004534542590006733, -0.012649821958674062, 0.07360459111914826, -0.0712363013114102, 0.018735548712145757, -0.07126273488035707, -0.053472136873645076, 0.011872029813894866, 0.012938916948688928, 0.057403522379854716, -0.004252122417591955, -0.010736034621163527, -0.030401052525575754, 0.001794323680442403, 0.007110080009888151, -0.032157933887923346, 0.018013872740540796, 0.036837210322007645, -0.027585380824461905, 0.0680452936841432, 0.01474601355421375, -0.02970850257450135, -0.015655804792771556, -0.011216445486337365, -0.0332782838021329, -0.011314518136508743, 0.01296941842266903, 0.0150924503432598, 0.014229415546189644, -0.04021468466512627, 0.021165522741877087, 0.017083626388016, 0.005476687820108012, -0.0002635860122821268, 0.0354460560312651, 0.054963219412831096, 0.03733073471743738, -0.03584555865620482, 0.0067227237496037305, 0.031481480506047974, 0.0095480325252034], [0.014016082282414803, 0.04173521950340041, -0.062389733576493134, 0.0038336445755925114, 0.006571668505060691, -0.0122961170028659, 0.047022182919474804, 0.04812344945216453, 0.002781945803738725, 0.055275933899974546, -0.03858486878209101, 0.027045181690658747, -0.04319841294886508, -0.05908330982810777, 0.04304413042478721, -0.03361593652675773, 0.01254334042913112, 0.020404606300757404, 0.03777484305191733, 0.03334783807633043, 0.05535928545177708, 0.023339295610914957, -0.021153566882147062, -0.00397639301945953, -0.0049155617189329155, 0.0555809097349734, -0.00985270571146772, 0.002794131064843961, 0.013057844786170107, 0.03691175630386398, -0.03723327215967283, 0.02322877236483858, -0.0028365592481744326, -0.029543527158449105, 0.031237422940949656, -0.00270270167677044, -0.02288158844254496, 0.03185464076549561, -0.046816653763363046, 0.03355946689268923, -0.04022788480339098, -0.011093758729290436, 0.0005077604949962005, -0.03872179096195514, 0.03841553357282962, -0.04424138813744942, 0.000263022061141848, -0.038111642514326055, 0.030432117509629472, 0.010281662602016694], [0.01924729308435514, 0.035650564994883664, -0.00707474281869069, -0.004738936448666225, -0.007098176019823356, -0.011067426947678254, 0.004135701372955405, 0.027221268563799823, 0.032894345523764516, 0.04963286024276181, 0.0022172817799989203, 0.01582224626186703, 0.009559474940537523, 0.012665302693263023, -0.0038414661839299247, 0.006093084474796397, 0.039092596573563274, 0.02992343877432916, 0.0001109163559832816, -0.003898310214815666, -0.023277846969780403, 0.018376781375019587, -0.0006858752233871711, 0.0034206855503895917, 0.013201400889139174, 0.01781673760712731, 0.025943182936984298, -0.029357707624030616, 0.007810803932373786, -0.08277232888411824, -0.05334233453874834, 0.01322339560000563, -0.026389369166168807, -0.02801424408637112, -0.06310059571120058, -0.04261817628499842, -0.0449886454386365, -0.05462620536605651, -0.006101800854406024, -0.024333759803023908, -0.03991885720308174, -0.01792442034008537, -0.016803006154601383, 0.06624486117044112, -0.005415609898042509, -0.024990025593390933, -0.02384531350665789, 0.02593973014314524, 0.015918901029449744, -0.015034353211141311], [-0.021670127174178034, -0.013371618128849988, -0.01571004423875801, 0.0066331548772644465, -0.01051148386718871, -0.016726619369491078, -0.07223141424141044, -0.034714482856699466, -0.012522262298819887, -0.007709875394262732, 0.05145879785809687, -0.03817499325696992, 0.03426278950842765, -0.01044068064731771, -0.014436700181004508, 0.009206570693286726, -0.008781119231951018, 0.040021888676294866, 0.0024279488658249496, -0.030191102791137216, 0.04985820288499664, 0.0006441883875785755, 0.03392272279091665, -0.0611149222985691, -0.007169424149042974, -0.04245106158213961, 0.034286659962603966, -0.024248005667683228, 0.013809401022718626, 0.030835821058321493, 0.06348898229139871, -0.044632286880098314, -0.03354058376106049, 0.05432439372687912, 0.07385356249943655, -0.012824371063973121, -0.05391862513419831, 0.025701695133111314, -0.007963561167760747, 0.032629484358614354, -0.018242790976854387, 0.061612964826941494, 0.03819782022066902, 0.042475661521515405, -0.02919966742600882, -0.0030350803194269553, -0.02146451338777717, 0.014684195107655047, 0.05730814034934963, -0.08203378870946855], [-0.01926158830002463, 0.0035461232692550783, -0.004682675907581083, 0.05260105901046965, -0.0013480272601819102, -0.032175377361987334, -0.017728800922109413, 0.06678696943136418, -0.0014147817463994353, 0.03573613407224581, -0.03050846731520043, -0.019614904411838396, -0.038760078169319694, -0.04531993221150194, -0.030829779947538636, -0.07677464134257594, 0.061452788775218856, 0.028967905567744954, 0.005589131690742622, -0.018356700292785896, 0.0209196340700582, 0.018284668560018202, 0.03509960749043698, -0.024859315436902146, 0.004602103589819578, -0.0550134365494291, 0.07674509665957582, 0.026090303240201874, -0.03527490810611694, -0.024771177433693472, -0.030088780517034123, 0.03143445100364403, -0.05575743953084581, 0.003189887840676346, 0.013830002021898526, 0.05022888553063285, 0.04632559518279079, -0.021454564631082973, -0.03266996154201501, -0.009601113494870486, 0.0811207912194087, 0.030513014343741762, 0.06338616399056743, 0.03416956439081223, 0.034433356093709344, -0.026293379920186755, -0.024727289218496977, 0.03582313425813866, -0.028677062274804304, -0.005093777520439499], [0.00896687435537792, -0.03768342448793191, 0.009559266363510083, -0.020708425711885244, -0.01804268831463355, -0.012552458627141553, 0.009520188799879916, -0.006310571050518995, 0.014521589350794081, -0.04348509895639763, 0.007123930672463896, 0.008663326133283343, -0.06051104430728557, 0.022076707195175304, -0.04610955913177492, -0.05763357240570854, -0.014006023350666101, 0.045796351388130555, -0.02543923434453499, 0.025183042470092135, -0.05896973005204555, -0.025052081997560666, 0.0001334274280299966, -0.018414709457306562, -0.032474730169485745, 0.023700168370095843, -0.005687636982553379, 0.05734941255648414, -0.008230453709598321, 0.03896288774640207, 0.02696749038613621, -0.00995466906132784, -0.010449529435138546, -0.011137349031386691, 0.009094608161027806, 0.01131029841819903, 0.009515563616948356, 0.05393021717802292, -0.06035337913626037, 0.005815278139813278, -0.012534454923376815, 0.0566233940170545, -0.017061545337868817, 0.007090246909474278, -0.05798170377761613, -0.04896240560323293, 0.026357770858756513, -0.0013065359888171577, 0.005888316022860596, -0.05322036127811179], [0.009254522701448211, -0.03973275172776371, 0.03527146093656768, 0.011356431950958392, 0.055540421175591666, -0.03595746071568799, 0.01665032437133305, -0.0034374441313042583, -0.020125613359098776, -0.03111060116432383, 0.009535908218830326, -0.018467904411728474, 0.03966506067604357, 0.03137562224491864, 0.05967775822634769, 0.01699492742161386, -0.008052458071474651, 0.0512626301768047, -0.0018360616783504578, 0.007779033590185102, 0.030060870694933566, 0.035566461446196386, 0.05389301040568876, 0.031371791742609526, 0.008907113477896586, -0.02361560041781844, 0.011519081267184353, -0.01324589552394825, -0.05442169792973146, 0.024389099660719612, -0.01791091149642613, 0.007501678771754623, -0.06477900787074257, 0.02580195308898006, 0.03908899789709005, 0.04487805634056099, 0.010021839351333786, 0.008178950487597899, -0.047346629215074064, 0.058243965368732116, -0.0019530092337257429, -0.02094824397868883, -0.07362206517134472, -0.04422699315695384, 0.013709142451744956, -0.024609278107733945, -0.009638789127839345, 0.04050570320103124, -0.07001490813602256, -0.00021520309247848802], [-0.021521910312126965, -0.01515645870370129, -0.09232668858695646, -0.02593105115871782, -0.028180143287254187, 0.027151084189347856, 0.058416634504920725, 0.0420918594729602, -0.01128295703365843, 0.046388907577125424, -0.0046017624294264975, 0.0263227128209523, 0.05444486328492664, -0.043621440926900665, 0.026824805451738272, 0.05220337683582858, 0.011376877791747828, 0.06108856493540103, 0.005633744145858815, -0.0028925236186361785, -0.042991759373427016, -0.008799557500206636, -0.022369751141274506, 0.010358468895634045, 0.0058747138356069675, -0.019219686171982633, 0.017984255143489263, 0.03512140422474105, -0.0029563823414680084, 0.013291387011564572, -0.023551062005513424, 0.04752689855102775, 0.002646213474862876, 0.03306064279923341, 0.04119966777141849, 0.015084456245519991, -0.0765641760190869, 0.04065003979756702, 0.030283608147096942, -0.03721417709702788, -0.06504403053250378, 0.005670813202897082, 0.029435693876890334, 0.039467772576043246, 0.006530797040556364, -0.0013622556757476863, -0.0044250243290542834, -0.02185821203019286, 0.0004379058804149463, 0.013921314188480883], [0.00027422935535605515, 0.009091606782090396, 0.005326156994977973, 0.02303688424934849, -0.0017793700771621553, -0.004720864597186126, -0.01340810762094696, 0.009718561616770099, -0.022468302175057946, -0.056931805704755915, -0.013955232454690391, 0.03840593115980383, -0.03314013423606676, 0.04831111250999742, -0.07437957050777924, -0.017006979919530894, 0.01442820530197325, -0.03349032515518656, 0.016057461070652403, 0.029761610181249124, -0.025570818612080305, -0.03608514500874388, 0.03281296261877272, -0.0527078899031152, 0.06114392712351981, 0.034312860358249854, -0.04361703472875591, -0.056500412357789846, 0.014502431791203583, 0.05002843698461579, 0.09287518048356466, 0.06472139847967036, -0.017725828291048632, -0.04663342194973286, -0.0030875561462304704, -0.10574187948633872, -0.019576454087024235, 0.027800676315263152, -0.06287696758797554, -0.0005496618441250659, -0.014809403898926305, -0.007587057979518391, -0.0019315981786952312, 0.0005128321894683281, 0.014346551752817167, -0.003628313551992868, -0.04602975059309892, -0.055992351809534165, -0.019104350959152, -0.009617826982988593], [0.010992143702143494, 0.010773897332313504, 0.02383505050814073, 0.03658607981447481, -0.031240846167784414, 0.005664189644515754, -0.01951488292937458, -0.0016224678469427447, 0.034258709657971884, -0.05014814685562423, -0.025101846024317826, 0.018425127895859178, -0.0205011631827771, 0.020074636688321778, 0.004262306690407996, -0.01596793010024389, 0.0351736017250436, -0.021549796958538425, -0.055591605113434354, -0.050950896047742604, 0.03924537898334781, 0.051839446446893325, 0.016073378127628685, 0.0749812469148824, -0.002630614814308389, 0.0002156330596485906, 0.03494201619335147, 0.015947728086103643, -0.056779417705135185, 0.04338383428416614, -0.03242716769218538, -0.04974665929200953, 0.033278731827355065, 0.05118415564720809, -0.04756433066775486, -0.0020658068275933032, -0.004361244846342349, -0.054688350383594285, -0.018376318957899564, -0.0019148891838760246, 0.07319200193815592, -0.026988434124079853, -0.047123559619100086, -0.009498531829948942, 0.01817506877085055, -0.020589503553105053, -0.015483283168654858, 0.05238961020944489, -0.008053595033422834, -0.005909223043324059], [-0.012033312746423544, -0.014592308461038454, -0.05051962116412887, 0.014404019297578192, -0.027728780953487568, 0.03305314128727686, 0.009800733887842519, 0.07677017747391067, -0.0025260856579738815, 0.061471600719663726, -0.044298076226289854, -0.019548483983528337, -0.019186908327041, -0.021917455278660885, -0.046327713535939695, -0.012013463262834713, -0.06790303370612233, 0.005776641184585257, 0.024425461450273817, 0.03912156344653644, -0.03599974182285241, -0.07925231844635139, 0.018368286074110292, -0.01657550528126161, -0.0030380769548308127, -0.038917222217153324, 0.02067249586656712, 0.05242016722181806, -0.032546794160328164, -0.032171009387273984, 0.006693681066021207, 0.04365256886899097, -0.010710116845502717, -0.013635634328704788, 0.08715609026297856, -0.0415923192497565, 0.020039624087736376, -0.001167696480179382, 0.001625701178391637, -0.036930090745098954, -0.024349141483679743, -0.04419255138400231, 0.008222422425443437, 0.00658811817987036, 0.000945814304663207, -0.00922927438179856, -0.02193533126525395, 0.01169641959888657, -0.04273966168561124, -0.02262563043601223], [-0.09611094626555282, 0.0036964969171268285, -0.05984755510205829, 0.023586590123703483, -0.0372197327060443, 0.037599775233112545, -0.041108204962471535, 0.0009208244422510729, -0.013799598216916302, 0.042779225892294916, 0.029581507336289527, -0.026748791901023024, 0.08059785491413428, 0.019054323818276486, 0.035205913786719896, 0.020679782825631595, -0.011725964183608892, 0.0020445205857216792, 0.017089640397054625, 0.060021477562614924, 0.06388880007249635, 0.045640992580221106, 0.020219317313381124, -0.06276296359609462, -0.041247095300427535, 0.0011608898566775009, 0.06117929495025259, 0.005501164264334285, 0.036576096146347443, -0.033283828213769226, -0.008987769147304201, 0.028603740631738084, 0.025925047306466904, 0.0314017852086937, -0.04649937781634554, -0.028101583572909716, -0.025087797482085235, -0.0028534760015554617, 0.0029316805096057433, -0.04025273215572158, 0.009783816244019472, 0.06601920678593552, 0.03479965902214154, -0.03788096223991157, 0.03687381260659122, 0.03218818760072898, 0.045403960554330866, 0.0065428684927089555, -0.03618536066953249, -0.024143599643287928], [0.010737633760283433, 0.03320470018813849, -0.035590080310045485, -0.0603873830843206, 0.008005781260961289, 0.03678223559063001, -0.03124559511545582, -0.04626419254160732, 0.02272681839814019, 0.0020616516177133586, -0.021117460720627333, -0.02009290717241789, -0.046069286178421744, -0.020350395221225007, 0.015692734546460755, 0.026627017952357362, 0.009097748110084767, -0.05907643650549109, -0.008695810572403262, -0.04103930071779789, -0.004642627749130927, -0.035068610081205535, 0.038171955935268974, 0.021531062827210696, -0.06125984402719624, -0.0528110839320474, 0.00916554589889203, 0.04820277871337978, -0.011034403246141302, -0.010973129266449442, 0.028899956112574322, -2.5919036018719158e-06, 0.05086147301820782, -0.05224763451921578, -0.05518239195911233, 0.025146406229833412, 0.017536957873147956, -0.0901579752696835, -0.0004020589920194381, -0.047005624169573955, -0.03352188772271918, -0.03178632711351675, -0.010132933946598302, 0.050969182699661233, 0.05742733501313483, -0.013192307030487873, 0.03439312214775306, 0.0034363344582789565, -0.014905261974283601, 0.02376266330036329], [0.03124055439755796, 0.037828805195130356, -0.07011159819356463, 0.010426569711499157, 0.06762662621995924, 0.014521868488336923, -0.005743723647231338, -0.029625066040898634, -0.020180122471467683, 0.015563998956505315, 0.007523113215239461, 0.0738202315052154, -0.01103423242305156, 0.04883283438048745, -0.01386011967102132, 0.03612547128673744, 0.0026012567257108327, -0.05079188464801171, -0.0216163587934995, -0.008123714925470425, 0.048987235400477114, 0.03733695101524713, -0.05169384526869152, -0.026630736741320816, -0.044627577621316236, 0.016826731756886364, 0.06512968254043945, 0.012508659264345343, -0.04417350041047437, 0.04287265746735567, -0.01351504978284157, 0.0022552516560548595, -0.006907062750768669, 0.006427496053803722, -0.07673783602942298, -0.012961592928080629, -0.023285696010097556, 0.04554435921008223, 0.028561805967819303, 0.01796925573610788, 0.0057072884890716265, 0.010912759632110953, -0.004818358458719232, -0.104883498403276, 0.04551459122859358, 0.03892665775704084, -0.018951394680650376, -0.021792263223671594, 0.015574181132460965, -0.014333387860446625], [0.006656918170021874, 0.024130549327952083, 0.008028015674609647, -0.015727161803093186, -0.0024333833228465016, 0.0013997985189373697, -0.07996916086008513, 0.0009780473603374416, -0.01587049591700506, 0.007108316091115283, -0.0452967348689653, 0.034377934517133064, -0.0616223700128367, 0.04426871519693438, -0.011023980633640993, -0.006921882026628113, -0.032215753211775, 0.0010398444933264438, 0.015591518133291087, 0.02280790440839822, 0.0028618049280938183, -0.011921146634813735, 0.01700779646603145, 0.01677149585665345, -0.016016998442147413, 0.042852805666732066, 0.009901970922644313, 0.019205088838503935, -0.050677045949401055, -0.0192810219805327, -0.0031896310655051335, -0.0043131980571806915, 0.04204842780740688, -0.04205340069687356, 0.019509609391164803, 0.004860081629357078, -0.04095584478190687, -0.023069070012137004, 0.02747794979917268, -0.009705860420181607, -0.005654316453488325, -0.00998064308320327, 0.005702357491616166, -0.05570072449493862, -0.020596628748870326, 0.0148693183080134, -0.08956089706177135, -0.04078051918958347, 0.014255935251327883, -0.10536359371923563], [-0.014791343111130107, 0.022404563907046978, 0.04585350936132232, -0.04334139289619666, 0.009195819182922553, 0.06338537527989227, -0.007948994066774453, 0.01715804490215328, 0.0340661740685829, 0.017900675863198028, -0.017609512490245442, 0.02867990448323439, 0.033341603320070835, 0.005148180124773887, 0.023472195110703437, -0.04884340687649746, -0.05861409513808837, -0.03848237867374989, 0.01304765314422779, 0.01057442724267337, 0.010896351948449054, -0.02209076315377919, -0.0027572588056249086, 0.0053703845983182315, 0.015527639822539874, 0.009934584375114637, -0.02716137065672441, -0.057565045614020746, 0.032974198752224015, -0.03613206060785152, 0.043234942263720065, -0.046468913938740565, -0.019149484184235323, -0.018903301277965717, 0.012836712897486183, -0.015318195302870359, 0.003249578023012617, -0.000797676519536727, -0.03515985343542487, -0.04631218309301708, -0.02005000061887072, -0.07814302181993593, -0.03114444647534057, 0.0018294613137081182, -0.036391698267471094, -0.027481974490986435, -0.09106666388615885, -0.017237380672179014, 0.026987055339381963, -0.010525585334405988], [-0.009745936588405443, 0.03970199186097301, -0.06646632939232597, 0.05144597526921626, -0.042593519789864226, 0.05290275035940337, 0.044369593385769, -0.06516765591321075, -0.018076197925902135, -0.0059403020883041485, 0.006161890721626921, 0.00786730243513217, 0.05650282670931179, -0.011745643920645756, 0.004801436413874183, 0.03187628512588042, -0.0049119476318114155, -0.03967432019208489, -0.013720117692109353, -0.009983988336025214, 0.06126500073037695, -0.03505081872910687, -0.02739207899494399, -0.04980859083518284, -0.05831049042773934, 0.038132319483031515, 0.05463253572700266, 0.002565635233353125, 0.056043610472534464, 0.023889727786698817, 0.0010013656438378892, -0.0105197650930501, 0.03401269965305946, -0.0034772116417046937, -0.05751340149945469, 0.031044623977221082, 0.006902142300002329, -0.008645482429490278, -0.0007713263710697757, -0.021615168696292205, 0.0031375618144763085, -0.07364476835729226, 0.019534295549431903, 0.03555801126621147, -0.03905871369473396, 0.007189655866521112, 0.04334071855128236, -0.02735071588095808, 0.04587075593974289, -0.017225394584876114], [0.021461623034266478, -0.014109061915875997, -0.024562096741661293, 0.005163920059110995, -0.03352589923259095, -0.015281551807036636, 0.021407643503662106, -0.009502719380446693, 0.013087342480271909, -0.01946064086970064, 0.0538243876832139, 0.006292198400173992, 0.0015557044447345241, 0.07472287816592894, -0.10291742309748264, -0.0005956107529240288, -0.0705628740706012, 0.04967008605851248, 0.06849255744621151, 0.061191732640062994, 0.05426621286097844, 0.00436778664575471, 0.013860911191435517, 0.014068853502812183, 0.03500344089829351, 0.0062519187674831105, -0.08810270982808434, 0.0223805782363684, 0.024897704995954555, -0.03756414528551713, -0.01023989892152251, -0.008996369201136353, 0.031238166723684964, 0.026053402385524473, -0.03715529380339656, -0.022584194832658448, 0.038882043652654616, -0.01227338063103381, 0.03344853490567374, -0.011300634484177561, -0.06312100263849853, 0.005853211306225297, 0.07730010199380187, 0.061953745369129315, -0.04711404679249867, -0.04973906862055489, -0.023197021607046613, 0.03248627115784002, -0.0034118335637431853, -0.018842864956885814], [0.03315811896253017, -0.0014035012396944378, 0.05511325093822043, 0.019428673160440082, -0.013801885536984108, 0.025760455497927243, 0.01198722875385453, 0.05119725787809006, 0.09695525661922119, 0.009412073941305091, -0.021543870620448137, -0.0019483573638056702, 0.022965796293545004, -0.11673137418848925, -0.05894578738511972, 0.06428092317757651, -0.01250279798014444, 0.007185608396685423, 0.034073162578037115, 0.01584191372188728, -0.04492325067119664, -0.010605297368557543, 0.03696252085200086, -0.012112007621118706, -0.06083306053115218, 0.002100718221265312, 0.01536348057976183, -0.06979335442437744, 0.015833582976921026, -0.010772007273035908, 0.07779893551123976, -0.014310098263824898, 0.020736601622747763, 0.07561392367282183, -0.0006334705230592495, 0.05572083354367005, -0.009153769025777907, 0.05438838994542235, 0.033559097830114654, 0.02812392537860731, 0.01607483342339613, 0.04341366176628231, 0.002155395143404718, 0.008613651519597098, -0.07053278903653538, -0.040035281601403815, -0.05847312903130793, -0.05342136918348405, 0.010019532107895784, -0.031064830217175345], [0.028853565580158752, -0.004537123528950171, 0.014379005286972706, -0.05925687609156612, 0.036658860384276806, 0.023214881597823332, -0.015658275399302094, -0.007599342003535464, -0.022113242202687382, 0.028127274961254146, -0.008046781633436712, 0.007244457022619531, -0.009589962966141556, 0.05823096402036372, -0.07390019739568571, 0.03080184753321791, 0.02220505534906388, -0.006330622366894131, -0.013468623756944352, -0.0075281165210883535, 0.05224781582885035, 0.005995163892280203, 0.020463329141445902, -0.06268396723814323, -0.049397897495188324, 0.03692142579899334, 0.006133718200723476, -0.044289109757573226, 0.0004420802584657072, -0.024348685416308802, 0.061893922011814116, -0.04794204646060221, 0.06059817823482731, 2.0222937553859395e-05, -0.005673950722932635, -0.027772432006104356, -0.00336403075898126, -0.0022642338933604378, 0.037438390919578624, -0.0016822753549503937, 0.061606021562766046, -0.057897031071325614, -0.03249575406799988, -0.04970595685174457, -0.03767024553201041, -0.004395108781081056, -0.015004963181057047, 0.01224243232232955, 0.029107393618561538, 0.02640062211960108], [-0.0015684613491881952, -0.038488261544825667, 0.07455945179589993, 0.002588161331627338, 0.04034013826776811, -0.015463207333797673, 0.02959901536347151, 0.07086444353665851, -0.0007436003119304295, 0.042391959248938064, 0.007669398066745529, 0.08933966677212622, -0.011525666385147898, 0.006542516428332245, -0.03554107860108875, 0.038253915139514136, 0.03149370982030256, -0.007587212569361793, 0.0594635855702136, -0.03787795949566942, -0.017784346703823287, -0.0019982972408297594, 0.0007934985982129022, 0.022712791999535856, -0.006452153163734735, -0.009556942179946955, 0.01563973672232116, -0.0001743180759628595, -0.032796018363037416, -0.0014308108173201434, 0.0552694217820158, 0.02214579047870369, -0.03286709551524447, -0.010196286695782772, 0.04978854560869418, 0.025958665051258645, -0.010578296193763229, -0.01766131772354135, -0.007235245606740941, 0.03562684447561811, 0.06758347141344663, 0.01804164544054027, 0.04460223789253799, -0.003836561048308395, 0.007424622596432218, 0.02210662864374346, -0.02422195509163995, 0.014757797851067324, -0.021160571158341097, -0.008956273667769413], [-0.0066331434174581585, -0.024680378170470255, -0.013687494251959696, -0.04511166854062783, -0.00828990215011142, -0.047957968388785736, -0.023184779803841166, -0.024485931662934838, 0.025997452652458813, -0.008327741205828567, 0.04117546896859418, -0.03775420064074635, -0.010806057554271309, -0.02959390707608453, 0.04968471626572449, -0.0007025694205452315, 0.008717856597771464, -0.00799215472469513, -0.014137435467053665, -0.05086887316843387, -0.024130311136568952, 0.020086982680476977, -0.01063616635386195, 0.04234649935043192, 0.07475547815225368, -0.0784743787702151, -0.030250789360844188, 0.05068217943880122, -0.007214436042782667, -0.014893195451735805, 0.03184894830443338, -0.002772558646698456, 0.021696065883223734, -0.05474507840545883, 0.07510093163100302, 0.0134464943788052, 0.036442186939559335, -0.00507118321717127, -0.10755196875995428, 0.024072820281578016, 0.02319797969138345, -0.05199080552500874, 0.013462428960438562, -0.02191885839096214, 0.0013482195823811124, -0.012928861683192043, -0.004451279067404138, -0.0442590366581218, 0.04627757408252601, 0.05876975118493786], [-0.05454197092764669, -0.06965447933520004, -0.024685202572247864, 0.013018490624022013, 0.03364259411591465, 0.017051223228249666, -0.005673200568585723, -0.02375327235689483, 0.0011562673440166937, 0.023621723790795406, 0.06867767668146538, -0.006178114372797582, 0.059103282650287435, 0.007296085264613532, -0.025266860868366978, -0.041232973970447, -0.01719697594656704, -0.017772157558730926, -0.018392543504526928, 0.0010632652198919498, 0.033354461954637135, 0.0023032950023993562, -0.0033582840751006943, -0.02030054928456544, 0.02529343737464393, 0.01842670421288831, 0.04732918777200246, -0.025164326768513105, -0.036470918027152625, 0.005800526118322582, -0.053296015002043534, -0.0367163543361938, -0.007355655146765163, -0.017049836596972255, -0.011470961436925605, -0.052408204066066014, 0.025145856496544102, 0.032004925691283395, 0.038019527557514865, -0.026307727894619763, -0.0024070964464825103, -0.02406296658300475, -0.008825944886758587, 0.05030004490454548, -0.06410454573348301, -0.0361323703376065, -0.01854266358522043, -0.0036281772908067665, 0.04219118622730143, 0.0578462888086411], [0.009085400522568099, -0.004204777634836862, -1.0540567232677962e-05, -0.04774941990208981, -0.06723492105936776, -0.003694546762903448, -0.10815370691634991, -0.008329080910422764, 0.10024910669532029, -0.06955570685135946, -0.05455494976114424, -0.020248974509540288, 0.024431124597228078, -0.032810354062926296, -0.011209870067357892, -0.06701673393460318, 0.08047824728634699, 0.012874616351426685, -0.0494529242636835, -0.00421924203372973, -0.016262994891385423, 0.01726695204576988, 0.012885934751187203, -0.025005773884672542, 0.0423412208499265, 0.0753931319126027, -0.046259985943112474, -0.01937111764926381, -0.08163467381616461, 0.00019345922580200884, 0.02820754655620475, 0.02051132610274643, 0.006457427654453135, 0.023555967410709963, -0.003304057928006405, -0.003344483806063833, 0.059867244629464696, -0.024051423394888322, 0.005946762726451927, 0.058494191930193076, -0.03384892065735417, 0.003687236017373484, 0.09420406767938154, 0.0773878380829558, 0.0024622525601939644, 0.05007243939247871, -0.050392964476774396, -0.10553587989497053, -0.01495903485845967, 0.06508704805528914], [-0.06630899868886836, 0.010057203161679115, 0.025848601648318308, -0.004608971494279767, 0.009334811410891564, 0.030520827436428866, -0.006683508727139111, -0.01761022035851863, -0.05139018080438035, -0.00651362150834699, 0.024508133415581414, -0.019222487564122624, -0.009670218432347803, 0.009657571479017387, -0.051340397935658304, 0.006876104141609193, 0.022670878512787433, 0.02412935135633324, -0.04601905894264491, -0.022375618263093505, 0.007603194085863537, 0.027652858108746032, -0.035593116249078655, -0.020561603073772274, 0.0408331658951612, -0.002651159363903883, -0.029089528857822056, 0.05854253202348341, -0.00722747520248324, 0.05736858495736717, 0.04154495796635704, 0.003984951388575185, 0.024451830219936462, -0.05901564429522178, -0.05288434445462188, 0.06947496765076946, -0.0127035300125229, -0.053373936345535694, -0.06434534962689976, 0.05601768049707064, 0.04209940356465353, 0.02661122280592559, -0.030475083586179355, -0.046474790834936344, -0.08191529699320349, 0.03329679776787042, 0.019110364570223217, -0.019723649229143977, 0.07288441771594856, -0.01083417967517226], [-0.0012072510117417017, -0.004698073179735246, -0.029261180995895395, 0.015016981218034464, 0.019744914984377585, -0.02102239976959565, -0.031132187172687096, -0.023872496434769547, -0.032934177502861615, 0.020849212877970553, 0.01716351100636968, -0.0567334844277789, 0.011395178475103468, 0.04506412514508497, -0.010300810278494747, 0.06536574646753451, -0.014545860009383542, -0.02936642624306195, 0.036527206668647116, 0.019128549758453454, -0.018517409789831064, -0.03206537253606837, -0.05817187470248668, 0.03132753748600876, -0.03047739559214681, 0.015257141496766527, 0.035410783305185115, 0.008553651690708798, 0.02337400397809227, -0.06572973257440715, 0.07216687702289254, -0.00875135634768501, 0.009608759208044304, 0.00400427350255148, -0.030723759899688112, 0.029843349019155425, -0.01280563567874173, -0.005181021013232423, 0.006362607347386023, -0.05214625040747473, -0.059237677107396094, -0.019121219574954818, -0.05078962224562203, 0.07002214245184384, -0.02592356022698929, 0.009196329834269977, -0.007614354395864295, 0.031130262641380257, 0.019106983118555097, 0.04118945712478056], [0.036420516795416205, -0.006418838774910857, -0.006330149688986563, 0.013547109559724695, -0.014813459857322667, 0.02807962057852487, 0.02828950872695188, -0.007443505848464863, 0.0009125279692071322, 0.009097494687758554, 0.03858607604534667, 0.04414934681115573, -0.020459712487736755, 0.007421713916508482, 0.040817446188699015, 0.03136851725780553, -0.023967463873914976, 0.0885971735944048, 0.02243546400455176, -0.055907200678363037, -0.04971188017708842, 0.021944575382903578, -0.030834305503441736, -0.03233910053285616, 0.05207287296559457, 0.05595073359208515, 0.02489545331464789, 0.013986746960115343, 0.052529138409001884, 0.005290972323342729, -0.014572443493481569, -0.054728055673782645, 0.05398581019205114, 0.005775923434868451, -0.08510536348267514, -0.023269423505697058, 0.026590171863496933, -0.05843037407254542, 0.04393506652321309, -0.05873958586342426, 0.019926110109251948, -0.047362218877491244, -0.023691964429733262, -0.04870089209582261, 0.028654294991426094, 0.011622292109693795, -0.014242285205030155, 0.037601983863464306, -0.024000141097671405, -0.013988592729144142], [-0.03176991427504183, 0.020914686037527223, -0.009931861899541216, -0.029353271851529993, 0.054992812389832266, 0.0580826886242569, 0.0216748956600043, 0.012181438908838231, 0.02459665900600693, 0.03406852106938962, 0.029221809425689794, 0.11624500701794056, -0.018416939320169728, -2.144361608418264e-05, -0.02022630298786913, 0.0037785479638873915, 0.04743460155760268, -0.013978345944075453, -0.0196731417659838, -0.0010056498739206157, -0.05640829424217971, -0.05557715071496343, -0.10290723670035766, -0.017013983099676912, 0.0527824282625589, 0.017101384225239352, -0.016149903765381505, -0.007311568387202844, 0.025762390230581005, -0.06431953606735194, -0.04737668776849319, -0.07294987008471292, -0.020807208842879694, 0.01309499857137455, 0.006770745393544844, 0.024808917310047255, -0.0012355180041121528, 0.02849633753022509, 0.01383060844078002, 0.02599871148373395, -0.0011446430944923075, -0.037564554554971874, 0.021441530127772796, 0.024673795718730508, 0.093285321365519, 0.016540265742034425, -0.03394164192193631, -0.03657862979594926, 0.0007933272118805714, -0.011568798248439136], [0.007503301270745044, 0.02327553620906837, 0.05999835160484907, -0.029528527534912755, 0.0004972540045178558, 0.016365392309828235, 0.013524401968466734, 0.04547091278867902, 0.0005913732803771997, 0.000442323454651114, 0.032199743185324335, -0.00759377332076009, 0.039786901659882995, 0.042771237373547794, -0.0028061989548562646, -0.025113069896339553, -0.006224119917668533, 0.055180814662688184, 0.04376423063151092, -0.01687375157228801, -0.04696358771228489, -0.06531645219577667, -0.018014388592684005, -0.02804546567205421, 0.031923471876240485, 0.01953415822085264, -0.034667845568449145, -0.0052699482306585764, -0.005905586582711652, 0.012014097128602715, 0.00695992497656667, 0.027017129924361963, -0.017821792751304168, -0.0017779390220965265, 0.02775636679679642, 0.052756502152336626, 0.004131123754867565, -0.03540713576136384, 0.05069483403830329, 0.02577152721235732, 0.044174073656575774, 0.016053587137733753, 0.001955289739506419, -0.03351784121791816, -0.0030822743938812764, 0.03541885309161219, -0.034789670090457324, 0.06316576761820235, -0.028536259742733498, 0.0700194077919136], [0.03354579588275153, -0.012429615294141754, 0.050315095589684014, 0.015235312305909052, -0.06955597491310395, -0.015729398282775867, -0.03653101913261003, 0.0028894058866947665, -0.03274624879179021, -0.004375569115671417, -0.0018305534522819484, 0.013483045994351834, 0.04049778566223142, -0.058297822979096824, -0.02380906512700639, -0.06842553645263554, -0.017532543789889964, -0.005621452425381522, -0.012954572629214125, 0.03155055759162355, -0.010940754358225575, 0.0003586074264744661, 0.02299709440607871, -0.013065061610835241, -0.019286535160159695, 0.00785421976684966, 0.004295228838987461, 0.027566403067969127, 0.009464967789956454, 0.005430022251532263, 0.079832154086501, -0.050252379482667926, -0.02949723703393602, -0.045548528567688214, 0.012655419289937539, -0.05408448872757003, 0.013379410991050774, 0.03639784423560929, -0.07551285247197514, 0.012571300295599911, 0.024067112512609366, -0.027932562633637917, -0.0021502127439149833, -0.022728112030351376, -0.025196648353992424, -0.04662912364831859, 0.01465692277694683, -0.049039467391564805, -0.002736709588150928, -0.0653412844018554], [0.05273838028072135, 0.03045593614604534, 0.023200601138667974, 0.046496007253921064, -0.03660120031344609, 0.010394852918934834, -0.05228007564023105, 0.014255218192325066, 0.024142056317166607, 0.024936756604233973, -0.018160696832031933, -0.026430442474242047, -0.06327991147940779, -0.03523845958068595, 0.011030567573425692, -0.030251613473108372, -0.023892898173882387, -0.055810929550768926, 0.05447622076791138, -0.019259202741329973, 0.009994223018880102, 0.002306826586582041, 0.004088372971297429, 0.04154277158975223, 0.038214216539627886, 0.06824810104348437, 0.0018671222956536057, -0.03173694605387224, 0.04331044185566166, 0.080652690965623, 0.12297016372061789, 0.0030415175792901216, 0.028614091170564435, -0.0017907349255691211, -0.004686939210266794, 0.0032450469721904697, 0.03184587250530257, 0.006934881619785167, 0.04172041648506576, -0.0599573307633772, 0.030118182005031836, 0.012476037855311805, -0.01562700014793405, -0.06634465625132004, -0.031161803302570838, 0.007207780604009815, 0.06872903383453122, 0.09861807478455176, -0.013280874879731796, -0.0676389380661708], [-0.039838039607207366, 0.03384213940117698, -0.04604584617108995, -0.008289855997580656, -0.010358455716276907, -0.013049283039495449, 0.03720407093123033, 0.07747319607092812, 0.003159285678572454, 0.01904314527867909, 0.006027230517395869, -0.02965229655289014, 0.007833811475230597, 0.048578759235899924, 0.016936591432134256, -0.05025027566683177, -0.0035810899884562695, -0.029815048888285484, 0.04069947465513884, -0.024651273957007436, -0.023248781157954434, 0.027233136550019948, 0.061800024117573266, -0.028047862116014437, 0.012349507125204063, -0.03554229628047633, -0.039106104951433615, -0.005541839344149525, -0.036325524911974216, 0.021803144936323387, -0.03011564529724112, 0.046168724415135524, 0.06077135166769792, 0.027328554938879788, -0.01326448135096472, -0.02263007921772772, -0.03624089774144457, -0.05367109673925437, 0.06070127744975297, -0.06584671389117677, -0.007548949220190607, -0.04954446985465335, -0.0005468378551872073, 0.02689814218939348, -0.015751319349937076, 0.010564347706441506, -0.012065778255357746, -0.055678975909902846, -0.02945091656349444, 0.012374566521143479], [-0.004733999801859244, -0.0015922985529388675, 0.06979646219762768, -0.0269101744819243, -0.051587268893960606, 0.010332183884604107, -0.02440740875194034, 0.023394775660943487, 0.024683576143371688, -0.026193606489231906, -0.06448784024536852, 0.07401301554064545, -0.004294182313657669, -0.06855456085043492, -0.03177356551582763, -0.002946480705466489, -0.0003191606463692932, -0.03543172517150938, -0.015291401644199657, 0.07316513507980217, -0.023629957524005395, -0.021064699860712754, 0.031439555741187404, 0.00011341435357666057, 0.005842713763129813, 0.0036074490130958412, -0.014565261846851653, 0.006920064527745838, -0.004248486224161916, 0.056394890930043524, 0.03154989539296196, -0.0002709305028227925, 0.10120531023270848, 0.05237928949046531, 0.019583352618611265, -0.06363971907230308, -0.024209704724438154, -0.07538491045771245, -0.0015810760202148715, -0.06348234672186184, -0.05180157324070482, 0.0353672169021021, -0.07204755901022018, -0.06198701018803453, 0.020189399661854516, -0.01300398745083577, -0.0191574560585155, 0.011929132398899388, -0.03856093904952133, 0.015553066292647468], [-0.009576610072219575, 0.015842784546101173, -0.02864196392154426, 0.02597861373769694, -0.036978276665082015, -0.007141620149143272, 0.07274622788707817, 0.021068434763918186, -0.028406399801655203, 0.015184358784171985, -0.08091401497801895, -0.015106092415097408, 0.006494092419117402, 0.013013877522801988, -0.08403845755818644, 0.026694958148126287, -0.02792861006920518, -0.10822457676575298, -0.026909827094309294, 0.028801644908460135, 0.006360474226189587, 0.02125414670240884, -0.04637610660656198, 0.029690345217878635, 0.013323787312369297, 0.0012566406819037549, -0.05020584445833901, 0.006265815668205969, -0.008367630711080553, -0.02448549999371603, 0.045518353628770436, 0.06251054803851963, 0.004363542032253154, 0.05921587031509142, -0.02208324786889164, 0.05333543770110714, 0.013976205345856292, 0.020982134049269484, 0.0071379624403322215, 0.014422101996775287, -0.02375309325424104, -0.009911907225216891, -0.0308384565617276, -0.05522439237955894, -0.015525577554533088, 0.02233350649136339, -0.002150320923387653, 0.03033452416466233, -0.008685292128975263, -0.04823607873229794], [-0.008800088185012067, -0.02123598246407754, 0.012406714753695529, -0.03817988633093453, 0.008285367813754736, 0.020394039349011118, -0.045894335236198125, 0.029690127429666365, 0.01569916926873283, 0.03014005591603818, -0.04927696522280447, 0.08184188497320453, -0.0024794931161327746, -0.029188547783790056, 0.045344558494199924, 0.02505717004359436, -0.027882672480829904, -0.034120225285077646, -0.03845802186971648, 0.03266916631766099, 0.013160426543726464, -0.05099104951867652, -0.0332226012553882, 0.015086361480317702, 0.013342373200379929, -0.0546391428894371, 0.018979502928139394, 0.04762655270216674, 0.04370578991517849, 0.010957428487600873, 0.04231497770893189, -0.028658762540195042, -0.0335765567209633, -0.027548093633737763, 0.007400713234350678, 0.006273235671973125, 0.04343154038934231, -0.05424682749436409, -0.1298142097042443, -0.05255335586743469, -0.0065918738404615726, -0.005548812342513941, 0.04081301800155257, -0.005804320841604097, 0.007213816757963865, 0.01446224135388118, -0.022001034541514846, 0.00423537012675792, -0.04756397808190135, 0.0158716190898916], [-0.038315028723405885, 0.06769286499584512, -0.008023030186258192, 0.08663497538772609, 0.018874258366413165, 0.04214989321016162, 0.04832801325367827, -0.03318483833905332, -0.02316570365146925, 0.029154967367044368, 0.06689773881662754, -0.019601751633330312, -0.0134340355808741, 0.0018576136118002857, 0.005766725998556491, -0.017657213359337506, 0.012696065191938699, -0.003714129647717479, 0.001511362582413692, -0.07261109383724339, -0.042404675456243046, 0.01734739980345285, -0.03442050647260723, 0.04824368084890545, -0.006427349601581557, 0.02226879928693683, 0.015861916888677535, 0.03771480249693777, -0.042623383065936576, 0.05270632135894332, -0.02587598863447239, 0.040522479145651324, 0.023420450957766775, 0.02561627662697185, 0.024537322549164665, 0.013716537703346611, 0.031096981877400665, 0.04523003862031219, 0.014406182340160055, 0.005929878721945898, -0.05109924188876779, 0.0022435904345944812, -0.008318181941566295, 0.009298859798311139, 0.01568626790010299, 0.026388874174063482, 0.008505638658339124, -0.0015367303583613198, 0.044187363116387025, -0.009643445296957423], [0.00019271722850131053, 0.021293783989776292, -0.03585288320975275, 0.006624000319237518, -0.007523583695401091, 0.019255510186319626, 0.013430091514287082, 0.015152505478693545, -0.002189970229946944, -0.0335018759008042, -0.00691660183807844, 0.013791485227519525, 0.0015400759648740382, 0.005856334415587098, 0.047668471084234505, -0.04236832678285128, -0.006922825242048422, -0.040673489468340575, -0.039945356348044525, -0.0222081289818258, 0.028988680407988906, -0.09947918429193622, -0.019335941143185816, 0.06441529337747934, 0.05650837303522099, -0.050568259972688615, 0.04084975149116882, 0.02890261427568871, 0.004631984246781282, 0.03270583293252055, 0.02974633670630276, 0.057756103443604774, -0.048053903421041884, -0.01475038256126064, -0.07936354591822371, -0.017092912592074776, -0.027379499833734222, -0.07106622768684553, -0.03631290560524473, 0.014413713202523338, -0.052281652755285846, 0.04234958021470092, 0.058206640492537244, -0.03228957699952866, 0.008844043639651843, -0.006868003561677494, -0.010207152373823955, 0.03501542826015867, 0.006652200184381036, -0.03505547758099283], [0.0365250184412848, -0.031394842418696355, -0.014993542864309392, -0.02781257497486264, 0.005318341420005292, -0.04216051532890656, -0.031146703211936164, -0.011578213513170343, -0.07715906498043325, -0.019034870235971342, -0.028245918979277623, 0.0036934889270386667, -0.04238278643997227, 0.0018530806006323806, -0.005998083169119256, 0.002492068010925409, 0.03380822683609637, -0.011424751298664578, 0.013205027259477782, -0.011658202542718214, 0.007136735337658381, 0.0010407165036335883, 0.006644565446174227, 0.007820198046073654, -0.06548695044806921, 0.029473944308772947, -0.009832578345279007, 0.03566393178846015, 0.0315004852374328, -0.011399214391638438, 0.030817208079243767, -0.020466734649171304, 0.025912977193059798, -0.013332016062048663, -0.01388019588174876, 0.02790772499187446, 0.04911266762728726, 0.0216249004112552, 0.026054428067259827, 0.03101273725815549, 0.010942119910453, 0.041633737972153105, 0.038445080478019915, -0.003854032927029495, 0.0005914750124694508, 0.06677625418363113, 0.02659375158133621, 0.06996488211056964, 0.04319280084589701, -0.02886773953375873], [-0.026005206249987863, 0.005269049733669663, 0.02435694725868887, -0.03424653218423783, 0.013083526242433889, -0.0357533213790489, 0.02938474337236528, 0.04518039395594379, 0.01090631109629767, 0.02457611662431195, -0.01841459088054113, 0.04650179362761975, 0.000954278463676175, 0.00885389130954515, 0.009042280073432538, 0.036850774057425054, 0.018261741503277203, 0.07667702400716452, 0.006129469222999971, -0.012010513754832124, -0.04333480671681482, -0.01686183868254109, 0.049044750881983165, -0.006877522499279176, 0.001408458289082401, -0.007638592733917543, 0.06268397153835277, -0.03238414103111873, 0.048032578388816013, 0.07065843855982398, 0.04667598528200207, 0.06564881980246888, 0.023580752166468825, -0.0025602461554127673, -0.023139231875712624, 0.044439670304282676, 0.088592508085665, -0.018555122868968908, 0.005695314093235607, -0.02927726830880713, -0.009354705051115455, 0.02232225555193468, -0.04518903278076735, 0.045046643017427286, 0.034801396152314944, 0.012706719720397122, 0.02356225146068267, -0.029379105581379145, 0.010517005146276666, -0.03806001910133737], [-0.005766211334226105, 0.0054253165323737435, -0.03642866854172304, -0.0038553970629179174, -0.005348435779979553, 0.058723988880113355, 0.022458110951267176, 0.05020240180167816, 0.04875467426034167, -0.032011668995781666, -0.15748950096039255, 0.03374075938362599, -0.03641342378866898, -0.08749234684755226, -0.0030632027605227647, -0.011993329017494286, 0.01597259198600563, 0.013741860116672413, -0.03040416566313951, -0.009187676619806465, -0.019796129574707427, -0.008049618948269206, -0.05230808088672785, -0.03968532160206167, -0.03657602291881879, -0.0004903719511519854, 0.050252084654378686, 0.006073084786478343, -0.020374856389480285, 0.02409273260283093, -0.02267668480941269, 0.027340141367988725, -0.008481765341112276, 0.028125514746996625, -0.006450777417528199, -0.028910563264540945, 0.0023662507847321858, -0.01657266483141667, -0.008294489622169023, 0.02587080571892313, -0.0019291795662221222, -0.0022255859451472742, 0.013096073428620843, -0.025945634412227976, 0.03898613667028618, -0.018833862111689668, -0.050160059484356874, -0.021376855182498666, 0.041774236004476786, 0.05040928161137438], [0.03972742473012233, -0.08160609984466045, -0.03235716750468284, -0.03132326219181629, -0.020505505260171673, -0.024286019039529542, 0.022105289663904872, 0.005628393805760337, -0.015318949058448713, 0.030193311089030513, 0.0826319606755347, -0.013462794715136787, 0.028156158295312598, -0.004142468171371635, 0.03492940142636591, -0.008260035687722534, -0.009433977282099179, -0.04297085929265459, -0.0466412639342823, 0.046067792908817615, -0.06370040547038447, 0.0005480707443647534, -0.03885146304613335, 0.027593663268565157, 0.002017217197789611, -0.028563689129358086, 0.005972553061209398, -0.054459360269745134, -0.044869417262533365, 0.014854397958464874, 0.06327331509700994, 0.022869631145258026, 0.013851954963585449, -0.05685638628596716, -0.019262381770614668, -0.028524781430644026, -0.014873274377978337, -0.028575538379410813, -0.01907243085509325, -0.01659562032960538, -0.03871553151979185, 0.035386391720490996, -0.06025672371621797, -0.02323821214932553, -0.032613281012877374, -0.005163264615488787, -0.003995634559984028, 0.026532077114500542, -0.0008959085021028557, 0.03317216933262689], [0.06843391139446342, -0.02540359273433687, 0.004377277134186603, 0.010882922869115842, 0.0009304851114539903, -7.71231444817939e-05, -0.03600568410232784, -0.013632266778314315, -0.0017542399914462598, 0.06242538176516828, -0.03308277234156692, -0.01697733141038521, 0.04916863213872849, 0.009767189067204876, -0.045777998446522306, -0.013507565787592189, 0.011307998876697908, 0.019298578881614493, 0.0688523009971061, -0.04159709238644844, -0.011410779484006577, -0.004184502599659274, -0.016056793266960648, -0.03024045495800269, 0.005438818159444527, 0.05199283910705761, 0.04173729263243681, -0.04228346553084294, 0.005990952933809513, -0.011889002194870412, -0.0790130465299378, -0.024358392074292468, 0.05621314622182897, 0.0046057724379426745, -0.0005869181046689136, 0.018300885937258562, -0.012078141168121484, -0.017846243324320447, 0.009270971740694715, 0.031020705078405396, -0.0939855414760514, 0.05248285379042172, -0.037966540437591664, -0.012223597399481458, 0.05469632568607735, 0.019817691211289606, -0.016715150690366054, 0.035947833737037194, 0.027312703451276076, 0.06465862728099898], [0.004223723154315461, -0.02376103459472365, 0.02398609350090998, 0.05531214410063826, 0.007986042645035534, 0.008072770372030542, -0.06789666895991531, -0.00940563275219856, 0.0693754711501485, 0.006803090957525339, -0.0275200994418922, -0.01666203375822453, 0.01974610685018541, -0.01946948603476167, 0.029122663843395874, -0.04434324903190021, 0.023508643042215838, 0.016465916637646807, 0.01716447873613166, -0.008284241127574333, 0.06498731226924657, 0.020742436123765074, 0.017950130311411232, -0.04608990880849278, 0.0212177684380098, -0.03373166293997683, 0.018193750134758577, 0.013491206415985509, 0.029767442916878852, -0.036867055090026093, -0.050153258053756596, 0.0011344672442985845, 0.01974907948449554, 0.03283660005874806, -0.00520759181791827, -0.007483266848755752, -0.03314670741554788, -0.038867139735573486, 0.06751461023371101, -0.01601693440551397, -0.021565857148776738, 0.016883253947143954, 0.018913939326678147, 0.007877922405184356, -0.007319129110997722, 0.0009350945198093889, 0.04126084447407171, -0.028210147744534647, 0.0007071023016821409, 0.038714736184232046], [0.022029745220873267, -0.057378152198344544, 0.009516820570770093, -0.03353987306899842, 0.008268648898043395, 0.0390404929140526, -0.018467288126364695, -0.003369201662741054, -0.03260697463010267, -0.01289264814004556, -0.01622125678262614, 0.013658504585348142, -0.0497320357376722, 0.02811241657641032, -0.06334502754766025, 