{"fc_layers": [{"bias": [[0.2999457374098262, 0.3026165580106093, 0.5411344308924373, 0.688275618184353, 0.31049742145487935, 0.3817759815355577, 0.5811385034725114, 0.46475826334832077, 0.07602496637972096, 0.42372988925184046, 0.05157843485779102, 0.19500656968382682, 0.5799251948754772, 0.816114664597847, 0.16711369286343153, 0.21026980529327594, 0.7481397972902919, 0.8127902578900578, 0.8946271467078108, 0.8064709829357333, 0.4816288352674213, 0.8926996075369772, 0.8498810532640516, 0.5852263575128749, 0.4536541985965489, 0.37312438992879865, 0.4848511151369797, 0.9076398066072772, 0.48857000320221455, 0.1918904103836059, 0.026831122729483594, 0.03717925001553476, 0.34826748060728774, 0.9658941312537236, 0.07257305848529924, 0.6490465552320032, 0.5469156085135928, 0.89136905957335, 0.25686469898206055, 0.24849580549760758, 0.7794469439979539, 0.40307389557350487, 0.10503229760675578, 0.6583601053832524, 0.49396501928471914, 0.5544876023660766, 0.8560834214173366, 0.6713151791566369, 0.1857046610362686, 0.2574713144157289]], "weight": [[0.050421928033153894, -0.036263092606473465, -0.007061300931895317, -0.016352367544936967, -0.010626530019605883, -0.024728073614370384, -0.04512704724379391, 0.04486615168851606, -0.06585945057164268, -0.020564572234622897, 0.02774568998814796, -0.018439230700243024, 0.040129034922049237, -0.04933987217132358, -0.01180961418475407, -0.005858924711166379, 0.03460016236666761, 0.06981428016833463, -0.006689317305513754, -0.018702811786972865, -0.03237731525093515, -0.004568513662110969, -0.03257091831769399, 0.03394776340864835, 0.016036788061037012, 0.057775828899202644, 0.05253339303240153, 0.06853548379708925, -0.058436540333742466, -0.021260450292112074, -0.006822820542084753, -0.0723907974468735, 0.01755538742436348, 0.007680974041440739, -0.005268299132941865, -0.013685625717517408, 0.05385796279891671, -0.030643147433639207, 0.03251721721726272, -0.007548524891589523, 0.061353995009664465, 0.044197385523397324, -0.015456105827690076, 0.025667836377507764, 0.027158308495739112, -0.03537186876016592, 0.003370058463202053, -0.010872409176192152, 0.011476039700863928, 0.004061468042422541], [0.016761178734466975, 0.024988444551164217, -0.0378610409934806, -0.030452655507852085, -0.015381207744208595, -0.044870960808387095, 0.04182635989309518, 0.023250993496978106, 0.02756160191917049, -0.02425105731884406, 0.0326350431344511, -0.01659040923597622, 0.022813251364277354, 0.027745058499073418, -0.005151974847956653, 0.043446072970629086, 0.009993373617751693, 0.026110571175638843, 0.03592515747319946, 0.014302389892549458, -0.05751171453729299, 0.07608631976817462, -0.006277122544243654, 0.01618786695499261, -0.006148737523821424, -0.05613924865504662, -0.014765977457815983, -0.04802478643438944, -0.0159089989575042, 0.026812314097078606, -0.027211119901181687, -0.020760823023399783, 0.03145165017577112, -0.04858147562921567, 0.05795255370463193, -0.05186736944236458, -0.0684665135065384, -0.009860601355639138, -0.04371934901227676, -0.008247419559699097, -0.014917454616020962, -0.04946942423258721, 0.02287841533723971, 0.03187484723584393, -0.03400699410707174, 0.018675278024688238, -0.0019297048425710936, 0.06789187200314706, -0.05684761154124007, -0.02306474039251826], [-0.023546689596235616, 0.04768081144328451, -0.004818243738599701, -0.04034665985905254, 0.021693970650436212, 0.02902509393550561, -0.0325724450475153, -0.0340528394593365, -0.006177207150328642, 0.033695458808632485, -0.005193816172720538, 0.012238767934608505, 0.040316129278659074, 0.0068396691195071555, -0.014673147394192506, -0.00327174741666999, -0.02706736955139146, 0.011656541171232071, 0.003474956897354823, 0.007360270296306754, 0.004831073729997007, -0.026819003482488897, 0.03128717577618722, 0.017710839415051065, -0.04651333262086301, 0.02290751315132034, -0.03521338926395369, -0.003653974482177973, -0.03607086248893976, -0.0004057699932048945, -0.02461028719927325, -0.07593743104991754, 0.047744861725020224, 0.018814971650000036, -0.0483935880110681, -0.0507033828173194, 0.03919746449063328, 0.012856476834184356, -0.02553425129014589, 0.012296638188784645, 0.031242046369447923, 0.014182418044383348, 0.002785443548933876, -0.01730193331548558, 0.0033702456709407387, -0.03272918825368128, 0.028101872109263265, -0.04121839481934329, -0.006775967310991923, -0.010429113467618588], [0.04926781104019943, 0.006228558283551897, 0.030062869310223773, 0.05556205912862427, 0.0001216725497575792, -0.0066323595269121224, 0.0778917077071712, 0.0070820932043230995, -0.034974334516772156, 0.037367537595684855, -0.02091308322092602, 0.00850699104219151, 0.04052834867531359, 0.05283347178609283, -0.0047663921167419385, -0.004591955103163479, 0.008535963112676967, -0.015057292514177176, -0.034593600053049095, 0.07733209360909847, 0.013200604942007184, -0.019551286897201668, -0.004936528143968622, -0.013530853157322697, -0.012986678347052293, -0.03849590635309813, 0.10653766667299613, 0.021502035319316166, 0.034560826157678054, -0.04301329902477567, 0.02167096523121311, 0.04625077689040943, 0.03329303671293828, 0.0031975533457585087, -0.004329578234134541, -0.06710989199187781, -0.00236642674275648, 0.049896917654322345, 0.03313732817538316, -0.021627074986452142, -0.014452613497927104, 0.043624688140450105, -0.08144923906202613, 0.010300434003707412, 0.048016708919657626, -0.06746445421580696, 0.003036686758699523, -0.019829054957752605, 0.0638236155237753, -0.017825108365731337], [-0.07510662042074459, 0.008426821089305212, -0.03734571054988016, -0.08776623787489943, -0.030031338680423843, -0.008650445313383373, -0.03488823526761799, -0.026328245125945136, -0.05038092069010168, 0.06659740052621059, -0.007084474815880864, -0.04064097878049177, -0.0423036766753835, -0.08144368546967617, 0.004471446947811985, -0.06139189278091929, 0.005513126045196997, 0.011683875176516176, 0.08729382804899895, 0.032650343355466245, -0.018062851473876373, 0.0013859775387908711, 0.04453377116742838, -0.000214276751253725, 0.0013969466952850004, -0.02668518614563638, 0.006194894339436164, -0.01795291739415747, -0.01038047975076735, -0.004676527378526969, 0.03522248259290574, 0.0364314935392678, -0.054335521526235796, -0.055447821093882736, -0.04417060895663365, 0.0012202204368169764, 0.05078534646231702, -0.01894018802889227, 0.06741889782940884, 0.008160966537295915, -0.00118247350697924, 0.05153341393998743, -0.06676347130121288, -0.06658459470460701, -0.08684500472277532, -0.028313584957294212, -0.018897301461093776, -0.016907900738469105, -0.0411143485835879, 0.005444954176614594], [0.0012055919817173758, -0.0061505789269598096, -0.005716964502142985, 0.023990071573816333, -0.03184841184420346, -0.06588456272418479, 0.0005958882461096313, -0.00541572553649584, 0.0326215782254494, 0.004528484339811683, -0.01714225014481748, -0.023294477176883776, -0.0520687661503837, -0.03358093098314165, -0.06521675964863602, 0.005695734964990017, -0.1067897415771004, 0.019772347239174443, 0.04078709704275955, -0.022236660047540942, 0.0028384940017198456, 0.03431338592369742, 0.009631090705834884, -0.0401930997570863, 0.05802290422227481, 0.07395443975162179, 0.060277101794799386, 0.004563792332981897, -0.02428869087962409, -0.005063334585401632, 0.03698585599350667, 0.02346296368457373, -0.010239924356417546, 0.04537834313625524, -0.002896144286122515, -0.06234288403811811, -0.00964699721059804, 0.01103839393398867, 0.05549910397677089, -0.0019801735688971885, 0.0437146186441813, -0.017064100726368762, 0.04711093052305683, -0.017669140094783542, 0.013376272422349575, -0.04268744525644661, -0.021036555846755272, -0.05781637578933129, -0.05274585868976949, -0.07980620452640853], [-0.056916552818424185, 0.06361784204250132, 0.003286794004395258, -0.039788476422545016, -0.006610579282145388, -0.03844486756623401, 0.011111632938084587, -0.02274496403601442, 0.04284842033961249, -0.03399742310768929, 0.027330647705702215, 0.006334609394642946, 0.05644927749055254, 0.0006002648754322772, -0.012544388106142274, 0.05185061683682988, -0.008042648476750616, -0.0011332733549687553, -0.020845696788678945, -0.010725678897492158, -0.034901421090965626, 0.014812061074250695, 0.051235521649345535, -0.042146517973554384, 0.0038653764872794067, 0.014347458314450931, -0.015304027883551964, -0.028541626410843287, -0.0020173119779766267, 0.002068328244678718, 0.056207364897965094, 0.02343676067834861, 0.058913399474436134, -0.013310745581923467, -0.009927677150742944, 0.09032375253690507, -0.017699728733978747, -0.014921111054503066, 0.011251469599910784, 0.02124911316071077, 0.008412079719199137, -0.033841015604884436, 0.015406835469087691, -0.019604818386483508, -0.013982952804777618, -0.08536681800694747, 0.003653390619613987, 0.02839798340029925, 0.057073640539262796, 0.0033171853491583236], [0.02118133486152211, 0.01289133606512283, 0.009718304186215687, -0.02279432283843775, 0.033509940977555976, -0.01943229783983003, 0.024172806955687454, -0.07130581519221488, 0.0034854415212069805, 0.051182937263597385, -0.022127999131798713, -0.016882888175986894, 0.00270509621676817, -0.004479468118665833, 0.00948189796002401, -0.01918200811532757, 0.003272466602256776, -0.023164554529516736, -0.0035581196772635944, -0.09140767927141698, -0.05214533733402928, 0.010736186188731024, 0.01226439292696002, -0.024906396211704856, -0.0031771009013237365, 0.0399561314759526, -0.001653602668397394, -0.003316757960506935, 0.07981088450206295, -0.03736993292225085, 0.01727230402325672, -0.0030450046746798853, 0.05337663083515979, 0.03585759286827629, -0.004584214268981995, 0.006146872037213549, 5.868161239578451e-05, -0.0158528651731603, 0.006235389031160915, -0.04354774412314033, -0.007919372873059594, -0.056373379947882475, -0.05075590595120492, 0.0009523390498836406, -0.04718044953707159, -0.02989885035596449, -0.015356668268653274, -0.004897465021224367, -0.012599356886966067, 0.010017904400072877], [0.04328351669338966, 0.03998766224814948, 0.050700054066865965, 0.004877801941479063, 0.029858293353453757, -0.018680577581456477, 0.011052820516294474, -0.018423939417424238, 0.004636963832555867, 0.024817976034341004, -0.018447107964985783, -0.018987340789539325, -0.024547814237122063, 0.022512190626280067, 0.010032815344926385, 0.007015471705807824, 0.02645361221865155, 0.03880593293463839, 0.028212290550439428, 0.0139190184293635, -0.0216023389398379, 0.012949063139282792, 0.015754906531475633, 0.025133156149200763, 0.03883885633086844, -0.026008775247838064, -0.00375892282625391, 0.01007182086450002, 0.020538853043688157, 0.030982734909420523, -0.022667139604862413, -0.013624945810124122, -0.020465217635473792, -0.020492308453840057, -0.04087868155670162, -0.019794662098440073, -0.05899693815423466, 0.00650436060330798, -0.005852377366385956, -0.04198251762172589, -0.03543964471899095, 0.03109514554178264, 0.012048642788658267, 0.04650718317447466, -0.043733807119285636, -0.05123397638921073, -0.004875275166613817, -0.06597589053372613, 0.026130981594810743, -0.011189030735107871], [-0.03574755208966457, -0.004001070294081896, -0.03207998565127118, 0.012996491565002254, -0.00453043516878472, -0.001538273347620991, 0.007109493345132138, 0.016388152613980245, -0.00531788703725228, -0.01815703339428418, -0.013757997304833692, -0.021782264409241612, -0.010332312931707022, 0.00286027933082358, -0.007424570118241841, -0.029317848832294196, -0.018428858697092727, 0.004118389555478585, 0.010514359127334057, -0.04946234626800811, 0.00823928635169723, -0.018427398818599124, -0.011854055619083564, -0.0070118102261658415, -0.00761228959591391, 0.04055759525340902, -0.03809694028455695, -0.03276912764971172, -0.05004479250625531, 0.025315465967982908, -0.03331825973588994, 0.02567146591134237, -0.04230142099944242, 0.057059553298191464, 0.009804662158032908, -0.1397948569019493, 0.0014317231982049286, 0.013019008592653846, -0.01184712390270567, -0.003504592379678188, 0.0055255417925701685, -0.004213536352876713, -0.038553431176931094, 0.01464332092959153, -0.06728889968170632, 0.02287676184944814, 0.004408695479974764, 0.03226021473241624, 0.06491698684059859, 0.004240443317667525], [0.027221024678055573, -0.0014329196302579263, -0.010004402156026564, 0.03433265053676958, -0.01847113498387209, -0.034749549252938036, -0.06661822150172207, -0.022110991967992266, -0.03002362357547871, 0.01395958032939871, -0.004169402870489563, 0.032308087926915606, -0.07669283314646684, 0.002950280535720979, -0.024740872997834677, 0.0056493123910055865, 0.035717501391528336, 0.0019433069454351285, 0.021902797554070215, 0.012066364192415182, 0.02005268061813072, -0.016234571074615158, 0.06869222771836782, -0.03745896306118774, 0.0024003767093865305, 0.07583175824311142, -0.014640152820965261, -0.04988544080744561, 0.040678168599014346, -0.06239170671876374, 0.06200642869476803, -0.05395400941701389, 0.003439435493535266, 0.005343124710756063, -3.2103266068979313e-06, 0.03401132065953007, -0.0007164217057623574, -0.04796962858834891, -0.012946033323614537, 0.0444978139732727, 0.01333125410238504, -0.0005872353092840265, -0.006877688221634985, 0.01781953886632384, 0.0464459678233245, -0.052246939455680166, -0.03743020400650837, 0.0139104573258992, 0.01726159778923633, -0.03832537157048888], [0.0513042061771196, 0.04575152829016659, -0.004922813190924245, -0.009927865436171798, 0.00853177013543493, 0.023729568978490313, 0.030891234254508237, 0.02335885156278563, 0.03505891755067082, 0.018161256042588662, 0.004582341649742109, 0.008235556152055774, -0.007158959939465544, -0.034968014669958906, -0.07705137113222058, -0.0014322043097056397, 0.0005034214501317534, -0.0020541052748146555, -0.0659243261291109, -0.028540517898552536, 0.046204357501408146, 0.05247051160215223, 0.005117139885580395, -0.037774087589113436, -0.007885963023273409, -0.0032053361099488096, -0.024561318915417872, 0.018349105823941125, -0.0120562042594474, 0.0029872861963028837, -0.05174861557793122, 0.0006273429484257654, -0.006554245527870719, -0.07526278860932376, 0.036227036383514134, -0.0015232643391346627, 0.04144609955863295, 0.004519843542655081, 0.03799338578624246, -0.0006885816181444963, -0.08256070432559716, 0.05002362612112309, 0.05169988314010484, -0.05628368590120221, 0.039612815915457185, 0.028397404828172334, 0.05158892438849907, -0.009140112853428575, -0.00774819146040967, -0.03781344615011117], [-0.03830524993723555, -0.04475378140573492, 0.0273602399073982, 0.04875045716712655, -0.014985284179165106, -0.06507401104411066, -0.01332805488128679, 0.08817157574852887, -0.0413403366030894, -0.006549348218065949, 0.054363932065121266, 0.007289327809220087, 0.03608006017026232, -0.03398283879407003, 0.05287512492698042, 0.018633175682313673, 0.016649681345372196, -0.008145570664696632, 0.0558908016440293, -0.015225626548422928, 0.005918815777560756, -0.04519766244159588, 0.0019949519858613496, 0.012475055604800799, -0.06148391205566889, -0.013615087421190636, 0.025802079640389743, 0.014165640326114474, 0.003206321940085279, 0.03414053175285492, -0.0927608971689763, -0.00889754452238065, 0.009861917251227972, -0.1082227653147799, -0.03936941795971425, 0.002768268314912368, 0.011816711120421266, 0.016444576837962556, -0.030154353763429745, -0.00040768429966438354, -0.017112907655689066, 0.009414397068995902, 0.017501439048283007, 0.02042407340142578, 0.06127016762323886, 0.03517859709086103, -0.010268685787338581, -0.0043583839006032625, -0.018178919350329965, 0.029133945242951972], [0.014838213465068726, 0.005121851325201729, 0.01532805472565308, -0.04552635429722453, 0.010520502924846482, -0.0404360099016346, 0.025229020269072224, 0.0006500557696064589, 0.005614081935698027, 0.07696297127324682, 0.01660779174065265, -0.0242080500302156, 0.01922185844243369, 0.03845929559588657, -0.016864059213207685, -0.032601334815194984, -0.030632083470484035, -0.016336934055580603, -0.027091600885132867, 0.035900994650588436, -0.035490012352304645, -0.003450185279232456, 0.026244976086081857, -0.017766379203435864, -0.011204309276219519, 0.023003288662857405, 0.0015867982483596555, -0.023165752912302683, 0.0635684669543597, -0.0026245989712005867, -0.010863478051746544, -0.010222036542172184, 0.023984690024709446, 0.023788736808838407, -0.021884187669011512, -0.05348794214597083, 0.007449950249074687, -0.028185925088600308, 0.01898391275396415, -0.06079589928592335, 0.012186197429266061, 0.025623989527932524, -0.03443036180258447, 0.02941970837895306, -0.017823908541150214, -0.013745854303102633, 0.012245228948197481, 0.042203895773973016, 0.008076038115066062, -0.05713424855415583], [0.005497212203685239, -0.07337904121059056, 0.010002409712759891, -0.054708609083778295, -0.0203785878086015, 0.018336686296121434, 0.049740057564979595, 0.03758013512034671, -0.0034232326560484825, -0.030521138984809862, -0.054320207158284194, 0.0626166052122318, -0.060688549197537765, -0.05161575655568132, -0.002799508554693204, 0.0335062949328823, 0.06099331329881485, -0.057369222635647706, 0.05912957605019234, 0.013706138880862272, -0.03795149479265896, -0.0060284541554327074, 0.015173433337127886, 0.031999311065820685, -0.026664906662195682, -0.001664884146196883, -0.03787953692706266, -0.04582708514452717, -0.0669711408917298, 0.02724146235391733, -0.0079329003518325, 0.058674478414419466, 0.02263235241980711, -0.014344074925733096, 0.03138468903920011, 0.008117537648382757, -0.025111089030857184, -0.041015303680036475, -0.03078955700373501, 0.03868670842456952, 0.00036977664725320973, -0.025213493373524017, 0.06436554875527407, -0.06437143534366724, 0.030336010467182657, 0.007187129538750041, 0.0040297976796613115, -0.06251295211446171, -0.010479162053824865, -0.008510330857593028], [-0.051846395632008345, -0.020558794313398413, 0.03839213399029732, 0.05800425120949586, 0.009470555511365638, -0.03419615842183952, 0.004547746455307742, -0.002824012264100822, 0.07912641177474915, 0.03528953292984278, 0.048233418585943405, -0.0811479514902675, -0.011363248286901556, -0.005738562863855585, -0.03267430160890854, -0.021008344850221072, -0.007873723896060896, -0.0093976191259244, -0.03483221921353604, -0.01034651788594559, 0.055629134142861324, 0.03373265658163849, 0.04379557422400245, 0.006393292983014703, -0.01940458957472415, -0.053535107484468034, -0.01012978017361467, 0.11870724656975007, 0.013405319892659858, -0.014475003219618915, -0.05382738711358708, -0.008222381810118654, -0.037515601050822384, -0.049287108863820595, 0.008460773498445128, -0.016472603766649007, 0.026043769497782206, -0.025215865597192362, 0.05287975658817362, -0.019087844382097912, -0.03462462748501509, 0.05379341433323695, 0.030819521342878083, 0.022428394064678146, 0.017439349070717394, -0.02017878706521661, 0.012501684846371042, -0.07314028854034003, 0.020617478175346066, -0.0040823441511518375], [0.019162311206073403, 0.015254957172478949, 0.027892299731428087, -0.02243442795883011, -0.02331231773459267, 0.010052317590058969, -0.04709156138219191, -0.05126497931108275, -0.002022602072660877, -0.038690283733248405, -0.019040201293159816, -0.01194700831303291, 0.005241871313481166, 0.013281193622489043, -0.01670671337696057, -0.04198106520645324, -0.020528596669444447, 0.021791561065488376, 0.07508067440742587, 0.06015405687671353, 0.004890874312258732, 0.021177720621845524, -0.02427118402771797, -0.07160691052225006, -0.006265076246138393, -0.031425694874690005, 0.01380782586784052, -0.026623663084504444, -0.04275781465635792, 0.013532428005274988, 0.07165278370554727, -0.05413184262194108, -0.018652029143621695, -0.0006275594435976596, -0.0017755957536027289, 0.01189053244658694, 0.06067037931964568, 0.023184795923947003, 0.005813945029892285, 0.11424177194938964, -0.007565593811679061, -0.015502033532956675, 0.001527250413214864, -0.023803730420835383, -0.023653671294165908, -0.005263871580911288, 0.05008352622934271, 0.014000236810334563, 0.07318311884177182, 0.06646001622144532], [0.04478213872050677, -0.026767419260771634, 0.04503104099696389, 0.017667008131503244, 0.04351688315590781, -0.033927024143894105, 0.006461134468769952, 0.019901235833535636, 0.052145997838931604, 0.04976094619984778, -0.003789297783013751, 0.06188154623681879, -0.010123588362283668, -0.008080542974100036, -0.024045020237945334, 0.07668934886316765, 0.0010904455989145206, 0.014657335056608906, 0.01566351525077465, 0.016951288646664463, -0.05607185274575429, -0.02725593885198615, 0.03267719682778989, -0.018253038096236636, 0.004107630649711811, -0.014103800891515288, -0.035938668572124396, 0.007758148079900962, 0.013063712371565606, 0.02479444225047858, -0.02165097044648787, -0.0031311136357242073, -0.022940432470902022, 0.06175458258478026, -0.012328084006713083, 0.02591950564338653, -0.010600729680771068, 0.00016792525997938733, 0.04148279899565114, -0.0645326709583437, -0.0509270717730071, 0.0033709825371145874, 0.005361993289877661, -0.009475069024112938, 0.040483195874522725, 0.02977142722163493, -0.004685219515177231, -0.01974650763401121, -0.04877468449459975, -0.0011509130645833855], [0.04698919249696532, -0.03328966980739855, -0.053665548308113306, 0.003927967245794162, 0.026862158561440006, 0.004530939430736695, 0.00672904984536408, 0.05958965459504146, 0.0212656656961514, -0.04630449587026814, -0.002826179261994151, -0.028803802699423314, 0.02924543911450203, -0.006479560200477979, 0.009164690780354038, 0.03296552945501906, -0.037762135290505025, 0.06999469835731095, 0.017643012755093227, 0.09261359975984314, -0.008008438975231269, -0.02557941619933609, 0.004897116386797289, 0.0316700240354412, 0.036365224195041894, 0.06523819556787785, 0.004490667037940624, -0.00473695171344639, 0.019079761957893293, -0.04087658725358658, -0.02822075208350786, -0.06125694313190511, -0.012012261154955255, 0.00372477281406872, 0.05746980240721951, -0.03344571950180648, 0.0020974089020546127, -0.025791258394251625, 0.0060824872115035475, 0.0204094040034935, 0.009804679154090782, 0.009571426283474434, -0.015771529832142177, -0.0812329072541558, -0.021471646294339324, -0.05024801278821384, 0.02747817733944529, 0.019248725212580257, 0.011533185219293458, 0.0048941304287920965], [-0.010858310863339899, 0.006811687417695937, -0.04314242690841631, 0.0366188611056925, -0.041225666344589275, -0.022801761585977128, -0.06301580853876178, -0.025786721781960734, 0.023705020788766462, 0.04170253347749669, -0.018458236423890804, -0.03534696428116248, 0.012654849650239093, 0.04139205139213143, -0.04013681787375024, 0.014065315265016103, 0.036851489369230314, 0.004783756231720207, 0.03141439476967598, -0.013782264676139978, 0.028709402266552407, -0.024072032038243738, -0.003869619178221551, 0.03425158492660734, -0.06123128688285428, 0.02141165115995978, -0.07355208739339716, -0.021892609307076306, 0.012727874366765613, -0.03415542279486193, -0.003455339915002059, -0.013514052969554014, 0.056487523108943734, -0.028861444356933916, -0.07089514496850105, -0.02692029007584442, 0.0017834916990106485, 0.041363721432656805, 0.016561947073860536, -0.0384140996716263, -0.054566262470026675, 0.07956790335660202, -0.040444918031864015, -0.0015323515529631552, -0.03170681056235224, 0.053026716645381465, -0.033592802701689586, 0.010985182465889809, 0.025677662534140416, 0.006022735761874808], [0.010640237800094111, 0.0019130940927846501, 0.024752954524251157, -0.040899727581041385, 0.015320304149012686, -0.014685351412710353, -0.01825817499565834, -0.004471548404539698, 0.01496419205324478, -0.05257205597488791, 0.016063308246405308, -0.035103751273587745, -0.056271591324458616, 0.04224508978285981, -0.009561633023105335, 0.022810290496406396, 0.040082420649096236, -0.008316789055685997, 0.04723288359442779, 0.035584179594521995, 0.005698033474209101, 0.02870793941538121, -0.012566072933439672, 0.05532164446734638, 0.06783607761046027, -0.01010020762244657, 0.007223925889103211, -0.007946645867837476, 0.012340583305688437, -0.0016464872339162215, 0.006854933630110192, 0.027966539007907014, -0.031228221749967377, -0.013854666129947747, 0.026812078632844467, -0.025605844464862436, -0.02593544370500503, -0.028247101947177056, -0.004552281155497939, 0.01812327012565501, 0.07360998598389348, -0.019871966279722958, 0.010897109665567844, 0.01881167317200117, -0.06197605353094183, 0.057782544588766506, -0.0385178298231427, -0.04148478286740478, 0.028162474262069793, 0.011733514176782842], [-0.027101884907534565, 0.02038260456198018, -0.03980470808442129, 0.03437434028954423, 0.026434466009101227, -0.06065901712456279, -0.019107727467786145, 0.041191177802108736, 0.059685596112477306, -0.003529731376869496, 0.04468648369932143, 0.007193719720453225, 0.0032189171817584594, -0.03921307097394334, 0.0005037535553341045, -0.0057973527301039135, 0.04832465955988432, 0.03105348054713913, -0.022312105994833985, -0.009304080892143535, 0.06577527953989644, 0.018440775824636012, 0.017759445336856642, 2.837382855220525e-05, 0.013195485903967411, -0.051781971027926386, 0.02234376267116802, -0.062328483087016835, 0.0024698358937948173, -0.05860934668497493, -0.0068371146626674375, -0.0035393116435565755, 0.014448833719776264, 0.02445777441530182, -0.008731409946750514, 0.031809498385382044, 0.017001349376630597, 0.017966580640351223, 0.0019144635464545528, -0.03936458507937159, -0.034208598355169824, -0.003225381983771351, -0.04086998471383696, -0.0463460588763984, -0.032459590271361846, 0.01411023785270744, 0.022796060055125432, -0.06825962142353803, -0.006814065091366603, -0.007350719730337524], [0.011162420725452324, 0.045645038603317804, 0.021079703682731713, 0.014746028068168686, 0.015921088493621317, 0.0528323118155752, -0.049847730547514305, 0.04427372035691803, -0.03026280146207074, -0.028503311807321123, 0.026357766637371653, -0.01234047431164148, -0.004480040086591161, -0.004874942145115322, 0.02212276766029036, -0.04521565840987009, -0.06085160034238572, -0.09586295258728761, 0.011919298573391362, -0.016414714779055144, -0.028461319115126716, 0.07142863399821534, -0.033757191925436254, 0.0070214626452733365, 0.0008299052497021781, -0.07884582390877412, 0.03171970971320334, -0.02776200500604589, -0.00488540778674329, -0.005944313767606887, -0.009106733379848008, -0.05858740841519112, -0.01691125017281967, -0.010958813614533821, -0.005681758442239368, -0.02148548175373128, -0.02183089861272918, 0.005794292041796545, -0.0302486961208916, -0.004323361935018359, -0.0338185938690638, -0.010512285082841829, 0.016139309768572845, 0.0074678604067279835, -0.034661638937380314, -0.025912661786072485, -0.024556614375098318, 0.04176615887535103, 0.016788917191888714, 0.02456953974344944], [0.07272221921322733, 0.05236761579485819, 0.037543766283356296, 0.03909215313149001, -8.88966334965379e-05, 0.06912374296177864, -0.0505268852646492, 0.06624482251338103, 0.06562413027901595, 0.056893483543247796, 0.046632870397084865, 0.0020917068104159453, -0.04898366608327188, 0.01123239988761185, 0.01260647304985132, -0.03703341004244677, 0.05379081933120501, -0.029666936205670562, 0.003754172418199084, 0.01234499658919973, -0.05239295762343219, -0.03889359216731148, -0.00627754681819557, 0.04580833195568356, 0.006905301770092318, 0.038215368897564675, 0.10842508675596774, 0.016366416996345345, -0.09109897265707914, 0.02645480745724309, 0.005156610259736355, 0.052511715745149776, 0.03027086175452821, 0.024534514708532955, 0.062430280097546774, 0.017293282010651924, -0.0011408369492999255, 0.024621581237666636, -0.00011887593249379968, -0.017172872578892884, 0.013676743172121053, -0.004692799004313098, -0.0061585077950285, -0.022749603029369295, -0.021411255167593426, 0.011397447397217228, -0.005076242773236226, 0.027282219676755936, 0.025362546944602438, -0.02895454280788951], [-0.0417440150823095, 0.08048718675492807, 0.020030821501747443, 0.04187199367276335, 0.021834614044126455, -0.03266257019708725, -0.03315340631415688, 0.010147059979022, -0.04640588635153376, 0.00396723184716777, 0.043466678832375163, -0.06455789944386191, -0.022972739998660528, 0.03745022315668325, -0.04427204170858029, -0.011139740127383767, -0.055758598297772695, 0.021114484411033033, 0.05606136149013661, 0.046312314306282396, 0.029251904349575447, -0.018027200989468584, -0.02015558130371548, -0.003666488222127917, 0.021578115545477398, 0.04509567742701226, 0.04871643521285394, -0.04683470840163194, 0.0040917211599670236, -0.027839214495309964, 0.0068623245581372035, 0.020463219433421737, 0.023907036312387397, 0.073192220727327, -0.031028536146324386, -0.06437262804234345, -0.046738599179228506, 0.01563253854621787, -0.0033944229560391626, -0.0018690851526069754, 0.011210095771495987, -0.058353405636394226, 0.01205799742508446, 0.04618662013128465, 0.028669743419706156, -0.006362515398032724, 0.06397310496450292, -0.011739146479618764, -0.020200715017442274, -0.01679396024360984], [0.040964046738001234, -0.02078989694987051, 0.035813202611192405, 0.01226553195850825, -0.0045840372341567825, -0.012796072521087236, -0.0470384531412153, -0.0487024345226298, -0.009688398903656258, -0.0166355241376618, -0.014664788158325922, -0.003198474886756988, -0.03975823938996347, -0.04161999630700399, -0.042397676441517006, -0.024207903920219456, 0.0045845351780934174, -0.048650987712871005, -0.021506696745362968, 0.03721630228636615, -0.043836203011223554, 0.047621295757611606, -0.003016040327544919, 0.03387173450690941, 0.003745384683556873, 0.012421252612412453, -0.03297990574582712, 0.02548555508454569, 0.02121781469499521, -0.025884471939023015, -0.03726708573836288, -0.008422346393965588, 0.0437995662518818, 0.002665114066349318, 0.051484731677368265, -0.021654897117872832, -0.04738530772822323, -0.026078394873119814, -0.043773630016086966, -0.0032673520009599668, -0.062172303552112895, 0.07045288911348496, -0.025845274300458968, -0.06807832098883339, -0.008503494913077884, -0.032149643514788634, -0.01780458657762055, 0.02646264134655283, 0.005060637125191283, 0.015496145762362511], [-0.042850182886728254, 0.029269898207946614, 0.013366425865008124, 0.050323065721802084, -0.0014706397920256295, 0.016712476362851066, -0.03824844553340352, 0.007617782885104812, 0.022675079951454073, 0.029105954658157372, 0.011908130722718291, -0.004129204007783624, 0.015349232215498299, -0.03326478900319454, -0.034861842020526466, -0.003079662889248882, 0.027039594158488396, -0.03679492814151712, -0.061975616219085074, 0.03172839714396602, -0.015986727964209545, -0.0033849120176396553, 0.01029310360153993, -0.04796779706032476, -0.00410419986763501, 0.03680659282492066, 0.003160054502375638, -0.027215490367563346, -0.022682558152843015, -0.03325497461765493, -0.0292792266365385, 0.02815148478775851, 0.02585903585436808, 0.007919383133345082, 0.022968631742519677, -0.0014580747553383127, 0.050703489717918784, 0.03284083573996738, 0.007239924693399427, 0.0017349908898032767, -0.01615305642656655, -0.006114712308058506, 0.003355846105608281, -0.06181971269496441, -0.004716672596034283, 0.01130975251208863, -0.008004762940129698, -0.04261821824003543, -0.03655552169328161, -0.016642781548879722], [-0.044916794707377736, 0.024763393066267604, 0.06095879567409978, -0.0399440967529971, -0.007025329921515786, 0.02625820872801531, -0.026792108913442313, 0.04824145222298021, 0.043742968066571034, -0.0026826311882136556, 0.03188452446297645, 0.03506504142236237, 0.009873932907724937, -0.03588231397082011, -0.01484700353797983, -0.010276536045240049, 0.03764685495320091, -0.03189644576360196, -0.014437922105054122, 0.013117423345462299, 0.06264528134256436, -0.013748774585204276, 0.009076348142291742, -0.010313691872683096, -0.04678860056956407, 0.045397930537558535, 0.03970790705709293, -0.03606180563588836, 0.05775992127549872, 0.015806735037504564, 0.02860001428062615, -0.013517935162708212, 0.05849996602654901, -0.050278053897034554, -0.018740623978956022, -0.016603591527372227, 0.019510289449641578, -0.026585857010919454, -0.02585934736590518, 0.0013917265064814627, 0.0028837262785986347, -0.061186588870430596, -0.012318285766869339, -0.007156105646944101, 0.03930429561943503, 0.008675942619302908, -0.015063734755298147, 0.029605704631450763, 0.01750407677973132, -0.02173821930141479], [-0.006201010978242868, -0.042176508716853515, 0.0012462014055553416, -0.05060245562328802, 0.07557786003636768, -0.057725010570639425, -0.03311028618080323, 0.032376029692489615, -0.017523211150109484, 0.04884561211338191, -0.002935487858543405, 0.00517819510965441, -0.06100419939011333, -0.03393162180678398, -0.020464776357242198, 0.06405378981837422, -0.001073947785742344, 0.0392808523344104, 0.01890067081971239, 0.01646197784964006, 0.09946672592255724, 0.09932216830460854, 0.051543088121262896, 0.038048050631908005, -0.018244950503405265, 0.022671875403694825, 0.03805810103075903, -0.027400257127121085, 0.028397092712164448, -0.017041468673866765, -0.011567643518501602, 0.032289886365611684, -0.013254750872895339, 0.05790683776488041, -0.026837446183675003, 0.020139654691733906, 0.005478614026394197, -0.06241943757392238, 0.041942108241336686, -0.023365256564548964, -0.0676103512962226, -0.009317288676136088, -0.0024990947859866663, 0.0009023008058915155, 0.030668645209918726, 0.03625364367681932, -0.03385357826201615, 0.0763072778117114, 0.01473317240169451, -0.05433090841426625], [0.025684337468017796, 0.045273278044987826, 0.045097608916563156, 0.022658195518265284, 0.06080488070571778, -0.05013697526736865, 0.021870960462068646, -0.015450498169185324, -0.006876212776026935, 0.014070972120904513, 0.023301225371746576, 0.02802155302424441, 0.039997770390988945, -0.06100786350358844, -0.06315561486021483, -0.004467474163318929, 0.05462047177353859, -0.014301906967325787, 0.04110756327145289, 0.01378346738310207, 0.003282692642254626, 0.027784687815385338, -0.03606357041227919, 0.050893128755804755, 0.06689903759741246, 0.0346089364629042, -0.00794398031615879, -0.031208969899354344, -0.014718879999399704, 0.034529787331122504, -0.0437290729861823, -0.034269441042846474, -0.0415176626587223, -0.016934051668700188, 0.002207204623836341, -0.054587704081997465, 0.035459073757036906, 0.020556999366185293, -0.01702113350662867, -0.0019496323914272944, -0.056002770185805385, -0.014670155034666038, 0.03758733180223232, -0.0010484428595434322, -0.037247358841985, -0.06842263328539236, -0.02908707983248546, 0.001645993755816725, 0.029767035190118998, -0.04991583093224885], [-0.03270237616788741, -0.027071368785851528, 0.0371409881353378, -0.01608908280243001, -0.018134668527917955, -0.013259874314031929, -0.013495241000696476, 0.004952185758560467, 0.08249418227432473, -0.03201669647338892, -0.049447832984738975, -0.007610598623233716, -0.041545126524750134, 0.012566835765432872, -0.035247152215593325, -0.010999844316214988, 0.04613103468472791, -0.003567088339587886, -0.011261947244886097, 0.0761430305645003, 0.020371014204516123, 0.03077422973586505, -0.014362040895643507, -0.008984802207825864, 0.03363692938935766, -0.027790262698273893, -0.03245133913990382, -0.00022840579352220676, -0.018973136840996392, 0.014897193801975957, 0.0174917535215024, 0.015065144049085486, 0.028325364398756405, 0.02620935843374097, -0.01852838198508757, 0.010811856819480898, 0.010852477073124086, -0.020435413773686517, 0.07475527737041822, 0.034608415660161214, -0.0035564403107593567, 0.019629890067529607, 0.05967818940119259, 0.03770226740559499, 0.005334466465719139, 0.002764898541813881, 0.02751400404548779, -0.08340714722938662, 0.021260943611720904, 0.015269590111601871], [0.011351351004535019, 0.0030944570840565357, 0.02321615153771578, 0.010735489910520774, 0.016946769205110037, -0.006868279783858108, 0.016920576902685072, -0.014557003561497488, -0.009827062203866267, 0.007483114499196525, 0.02623107825920833, 0.007339686671789229, -0.011966419368201872, 0.013624599930832228, 0.031588321162534856, 0.0210172658128344, -0.02556388888164415, -0.005008669283900815, 0.013894562873083062, 0.005365791689625676, -0.022122191520612906, -0.005582157680730073, 0.043625979404912155, -0.02991692605025282, -0.032135800138394344, -0.018848993255413598, 0.06644874506264135, 0.03174816959629257, -0.025400739267637026, -0.002073953368195302, 0.027087857052866728, 0.0370801460669871, 0.002305883461547593, -0.06418174008067486, 0.09388265893515332, 0.052779907686345405, -0.08082878922416958, 0.028684793490581815, 0.042699198768967495, -0.10055036419434657, 0.03077593605546396, 0.011286434736213947, -0.06554073092136391, 0.022982637912084075, 0.042635869623180285, 0.012033419950802279, -0.06362795204314185, -0.07547484979075667, -0.021831518691972484, 0.01747010807471026], [-0.019430945707231383, -0.022738686920755414, 0.02310596106152709, -0.017602723894684032, -0.01779435803280628, 0.002849879034688706, 0.05177486471715869, 0.010117595279222217, -0.02555149860060921, -0.06550828272743467, 0.061724717541208174, 0.057371020619661366, 0.007589559513574361, -0.023362698396090648, -0.013221262696492929, 0.04398096772252909, -0.014777039454487672, -0.07826936167707883, -0.02662857179865121, -0.03800489784811412, -0.06691301353622815, -0.0007375041519708169, -0.0030358856455270184, 0.024205176676930115, 0.0074978975405194425, 0.03717317608347524, -0.03924644355001946, 0.049877638851178574, -0.052563823764392635, -0.0018536324992232246, -0.029753271948360676, 0.026295863057665524, -0.013615326660866223, 0.043907386327644383, -0.005935684485641026, 0.0035641328365537475, 0.036353249974496744, -0.010821191432108591, 0.05386778148639349, -0.017379093148917658, -0.04229741446642269, 0.012444021658774798, -0.011147058641358804, 0.0014848023727366247, 0.008504690346538809, 0.00904696986969849, -0.03139679446830339, 0.015691798796822996, 0.048848487783518406, 0.029755786657117367], [-0.01564239123785576, -0.06717994545527502, -0.0411714701793705, -0.0017942911218454876, 0.009639549674632302, -0.013854113698417932, -0.09603117681530068, 0.031004380171736647, 0.044168554973995675, 0.009260646581134024, -0.00868772688408097, -0.0019217177212855628, 0.051789334751359994, -0.013277081300586642, -0.01991484883410379, -0.005220073182074448, 0.0403600223673646, 0.03633812069543277, -0.024891204848832324, -0.011125771622031414, -0.0016036231591720553, -0.023933694378330275, 0.0350588674510257, 0.01210915496842775, 0.020961412713145063, -0.048730481111030455, 0.022632867461069895, -0.054270003269232106, 0.019508605354283396, -0.020929107747900997, -0.04194284125487806, 0.06929751022043075, -0.0037758664428992213, 0.004937018775750179, 0.03622630882586328, -0.03208988588442352, 0.05880901280490999, -0.029828072201316683, -0.045307009595913245, 0.030277696286733206, -0.03786532194222163, -0.002626742026503436, -0.026878707434488263, 0.004043364174882369, -0.008887158969470446, -0.038721539281788314, 0.015739096254112836, -0.016476665072317372, -0.05102696435267676, 0.03108673901957277], [-0.027142456363432762, -0.05307108061088907, -0.0029761548157243712, 0.024141364788047768, -0.004028201220061834, 0.020469928856734793, 0.010929298745338052, 0.02015456856899764, 0.0680270455803677, 0.04890220564240999, -0.027351695099308373, -0.019198967612174093, 0.0028921051438861, 0.020106267577238147, -0.0329230096183117, 0.06967314295612448, -0.005659441344283802, -0.038230687493931895, 0.0466255010246538, 0.02900963039134246, 0.010447978096107726, -0.025990648302658802, 0.03882955450543748, -0.05455789942488474, 0.05431820491298995, -0.013260692285241479, 0.00347512690796658, -0.00520222965896611, -0.01489503041312933, -0.04774386881672654, -0.0032159777038153763, 0.020066121153492038, 0.02827684791794711, -0.07392304797247995, 0.008185546823739917, 0.047456785095264666, -0.035296134310680335, -0.05192249090719587, 0.020333543202774747, 0.0016452239863723854, -0.024562541287848714, -0.0017593770387483406, 0.027917194178673912, -0.016428244519230008, 0.07655933426062864, 0.08778527045753534, 0.04318352570775703, 0.0007863419965718824, -0.013076679206565203, 0.041884619211915705], [0.006872548216071623, 0.015330675540474514, -0.05293793223028942, 0.0665498999524032, -0.048317190971113415, -0.05050790798400186, 0.0078022133533427185, 0.03474472746855764, 0.018839274120489757, 0.04520645842227285, 0.005963384149693628, -0.058352528358546256, 0.034552793231957396, 0.02108813889555934, 0.08376614500680239, -0.006228991920376951, -0.0700738684687945, -0.007754792695189345, -0.01290184756344698, 0.036983951420313146, 0.013039371389221914, -0.058359904476640176, -0.04545467012730195, 0.07827997673496469, -0.014236659551764851, -0.008445663178134765, 0.003416233792710775, 0.018056598796467333, -0.013328518757599005, 0.016479019041848567, 0.010697165470625032, -0.011192415807060594, -0.005399000085456678, 0.011045196000535346, 0.028935061134038195, 0.0372378293052815, 0.013257042136351522, -0.0020502656168823728, 0.033483585003389944, 0.016696553689911724, 0.032262258112664186, -0.0006871774266118949, 0.04322276678263072, -0.0020375862229054537, -0.0038214949473989474, -0.07643865649835958, 0.0015514707559181327, -0.0010047635452253188, 0.012564829001060002, 0.01982406071733196], [0.024534659158294166, -0.046224616594102486, -0.01967418788899421, -0.0267187137890283, -0.004335957992048525, -0.014707950526178157, -0.06875955853126799, -0.018909594743074097, 0.019494537722333553, 0.04573717780409841, -0.008952554659134528, -0.03568105349748556, 0.011216581700499186, 0.0330640996001762, 0.017573736548049203, -0.010875024991301689, -0.025536881409536135, -0.007393394027475524, 0.015496479577618535, -0.001457540086286531, 0.056600038892893424, -0.01330450480321517, -0.00900233844379267, -0.030508450627810577, -0.06711463770743728, -0.005655181266122457, 0.01297271203857638, 0.06042227073685083, 0.02564980750425192, -0.015714844811110927, -0.0049965000318055956, 0.00164637161225332, 0.01284509571722392, 0.0017727201062026068, -0.0287832197203039, 0.00873075140385244, -0.020594797293297086, 0.018069138003070466, 0.07657214098672468, 0.004696815388549123, 0.040731284290049984, 0.0014194309814463792, -0.08831403659600565, -0.05701267106897975, -0.010684063378994597, -0.009369285199296721, 0.03866533185829828, -0.018391729481707517, 0.015967219790412893, 0.03970514902610303], [-0.02706858701267721, 0.046856899912418336, 0.015468228329002364, -0.02365910942976087, 0.013202846577587137, 0.002948754505195293, -0.03062737815347652, 0.0002842832250123724, 0.015389345279574888, -0.02544909591114968, -0.007850829015703345, 0.0019359723464966187, 0.02391464139065506, -0.03840338395983388, 0.046373713151674475, -0.004240945158793748, 0.04516578667420064, -0.03615697513324867, -0.0002145407884872359, 0.0022631600486818448, -0.013279066628906839, 0.02834954286259478, 0.051422466578903286, 0.025488398291114312, 0.0412328280507982, -0.024833031097055334, -0.03453684917504993, 0.08318219864084492, -0.13389600583141076, -0.06834535223303706, -0.0070649213943678015, -0.05027942093297773, -0.10989477039417271, 0.05109422189810768, -0.05304301833782959, 0.057573493353617285, 0.004544807728470081, 0.005489008938183329, 0.07596007244025035, 0.019064585176107998, -0.015596942779294541, 0.002942891384760736, -0.024471990684777838, 0.019263789100774614, -0.023478465371011684, 0.07947928547354004, 0.03596508346057222, -0.06732841702523833, 0.033206769709972675, 0.025862271190077873], [0.022348224588226467, 0.01953009585703812, -0.018392081220943445, -0.04506138044419166, -0.013784350895382007, -0.003731287988242785, -0.038762235333083074, -0.03060630726106704, 0.059960195610598455, 0.05216735360583573, -0.024923797336929187, 0.020895999638820127, 0.04947822098439009, 0.013247007152589916, -0.012616708662570019, 0.019894736537475234, -0.05394472837492975, 0.011991476403793278, 0.008575079595112034, -0.006077270716105847, -0.009067247227676776, -0.011188263515423198, -0.055259367222801135, 0.018663026979343047, 0.03057592385894562, 0.07268786124565518, -0.01055677358144664, -0.021839827568582916, 0.06463082751886987, -0.061041854689826903, -0.055553553605123714, -0.025185013394870122, -0.03344199594567676, -0.023664063534101047, -0.005623525862211289, 0.0016444609566946182, 0.04239345206927931, -0.020159917818657846, -0.005626652038009697, 0.020646589028766125, -0.007637007295349768, 0.030698447535374537, -0.036104349745150296, 0.023846819123871228, 0.06547404878787955, -0.016111723938024607, 0.006176138373087151, -0.009767703081739134, -0.012689358810297181, -0.019730244682911437], [0.0234001575314905, -0.03750974481629601, -0.01805907104800801, 0.07298679909991265, 0.0010641703479611275, -0.05009490505428114, 0.036402145093410186, 0.01742355920390488, -0.038460214109737496, 0.0348032861361257, -0.01523581375869944, -0.016553819767438332, -0.055121069654499054, 0.05077709442438139, -0.0738409223769654, 0.000599339463400207, 0.020506285525438935, 0.022336974716165817, 0.027701486192832008, -0.018726442633057228, 0.0021596415005887687, 0.0326468256538501, -0.037611869190864775, 0.07470784891252176, 0.001963480798564422, 0.05370179741293281, 0.08914167314751693, -0.0006270978610562719, 0.019037905506519272, 0.03381481039043247, 0.015105938424983903, -0.046547981632905425, -0.017578774726348594, -0.004773467935375585, -0.03545888817112356, 0.008242394616814799, -0.010948927273076671, -0.036407465562131064, -0.012027998293386084, -0.02154019640925189, 0.008004083153798296, 0.023976996808088534, 0.0008242438631932869, -0.004913209205700555, -0.061431588449324975, -0.009358069756613399, -0.013533642677148591, -0.025876441996333228, 0.04032161973284359, -0.01925509320869178], [-0.025156248954404183, 0.016533270074926464, -0.027446544292313663, 0.01158649265095381, -0.06963335465606317, 0.014654891502172297, -0.010341101300136409, -0.059340947174616555, -0.03283733408121663, -0.0491027444076633, -0.060482599243093446, -0.06091756065002401, -0.018320973167338238, -0.004055414048358927, 0.04147215662860008, 0.03677208182174045, -0.015414053351685808, 0.019528286588175733, 0.01812451200870432, -0.05629365988754583, -0.0554715724407604, -0.005397429561228987, -0.041627146834845676, 0.022262095089495584, -0.029877937238963672, -0.03482549656796506, -0.00890388965581769, 0.03229646976334568, 0.07610919559055865, -0.008319099463207231, 0.024306572718983194, 0.008542130235459664, 0.019591853997700148, 0.05493612990354789, -0.013430639490864985, -0.05123466964123739, 0.041580011510511536, 0.006968891535091579, -0.049488966665191106, 0.004880770678254288, 0.03280971084985527, -0.001596895834581936, 0.06778162050923198, 0.04520940413691489, 0.015503049672430385, 0.011193993961399461, -0.023704653344470562, -0.051225349374974, -0.008585421996250281, 0.024145081416136662], [0.0014248934498470873, 0.037995316748299056, -0.026985308145001313, -0.06573055172528888, -0.04510131301349095, 0.015245359969152321, -0.02237792360482857, -0.007207491745803036, 0.0016060545454581665, 0.03542339641437424, 0.07896116853078246, -0.03470970180143948, -0.012228264981289195, 0.019676565081323098, -0.006160215496451142, 0.02601110824702911, -0.003880576439731092, -0.0026980738789135193, 0.025757605801235, -0.044870595418468794, 0.0077206467932576595, 0.03746319160536016, -0.014964887648343993, -0.0389565110008169, 0.0006050745897215561, 0.04418664226390801, -0.015174171171645897, -0.0253354527161115, -0.029291574264018332, 0.11449170798444316, -0.03784495666595425, -0.06162579422801726, -0.015858373472177074, -0.04117574439321672, 0.02423326551039648, -0.03128979630210306, -0.04675608632990994, -0.05210843195743436, -0.012984365112196538, 0.013303998099194077, 0.03695393551031429, -0.04872405146318886, -0.003872392580960393, 0.02215498659303109, -0.00286194619125456, 0.025903264735153676, -0.08695316273439135, -0.02503021973767286, -0.008365364316453341, -0.026311240555305995], [0.03810864296805469, 0.03826793068226245, 0.062455296064183694, 0.012209749021138762, 0.002860763002280131, 0.01605971120055556, -0.023350694678649312, 0.07800740383093667, 0.003084328525704838, -0.0647073191717123, 0.029310492268483777, -0.06267987432984524, -0.00759886722171313, -0.007211700493135377, 0.015521672086754375, 0.017565149308047825, 0.004809078671487808, -0.003407826346573704, -0.017504930371141467, -0.050682821151457974, 0.009945526741143402, -0.02573921205152036, 0.06852601735668355, -0.030897382906237756, 0.02165359702946188, -0.04302302542039049, -0.024418207364945224, -0.011158971977791156, 0.004042050125656958, -0.03570687728288782, -0.006402238091246527, -0.023117908039306467, -0.032139150738402275, -0.028744292152685143, -0.017959703258809093, 0.010290485272768308, -0.016303371451030883, 0.0011377014837022671, 0.006645224933612281, -0.021344842091087925, 0.018304264257039158, -0.019867278711740155, 0.0021027000065060295, -0.011541600322898247, 0.02728681150579772, -0.04627125258371478, 0.020318269341542378, 0.057770351652752294, 0.037316175817917824, -0.0010240799375831517], [0.03925903200069073, -0.02777229583724704, -0.02287091076562661, 0.013991788293118984, -0.018411773299160245, -0.022592381685526963, 0.001776789620465113, 0.009875801134055211, -0.05990252476307335, 0.005315466333939327, 0.04598256624952998, 0.10394948449703376, 0.03989334821361008, -0.023344471425581537, -0.016678373991951677, -0.016837367345368465, 0.003906319397056937, 0.03624304219447566, 0.020403183111097983, 0.04931354131216512, -0.0009846694581527671, -0.054616570643912205, -0.01827657239388778, 0.020316825174147825, 0.03839123676124894, -0.0070376156220749095, -0.02928020481340745, 0.009417517120192648, 0.00771888108960804, 0.006396326154428835, 0.023301297472539506, 0.03167742269048057, -0.031632930246693024, -0.027377320517209335, -0.05533566817896952, -0.00757067646420561, -0.06073634254680429, 0.048278710395742136, 0.10116636265240454, 0.02237360720771412, -0.03512788824610179, 0.01279446867877312, 0.020135819868609905, -0.01683826213254752, 0.053231931897079074, 0.019006989215049053, 0.00539712816310441, -0.027702388661294083, -0.002223679579003268, -0.04670427356031481], [0.02032151891430304, -0.057387104607795475, 0.015206095395580585, 0.05860990375427602, -0.07018780710458783, -0.09379308821789195, -0.06267286886734784, 0.004741278892338875, -0.0640054361852439, 0.0318878760845905, 0.01840891653494802, -0.01150106580920878, 0.017838690796189344, -0.05176352506170564, -0.0037266249667546937, -0.0013244438700713286, -0.04308681961179848, 0.010485036755864069, 0.0474147674417947, 0.0069035911195745, 0.018023139302463156, 0.019008450004689408, -0.0011835870101072525, -0.044397449036040273, -0.08034538586189607, 0.04732515660188996, -0.010063779630018645, -0.007687301539268564, -0.00401703288393872, -0.027860943074026052, -0.03447684821826519, -0.03715741072052954, 0.03395747679810001, -0.026895693019257098, -0.031172222154169316, -0.01804364882325975, -0.04832733297670642, -0.003579866984488054, 0.06892834692306629, -0.0012692120465878055, 0.008146956625559221, 0.056825568172933376, -0.019946603909513815, 0.028541016861219556, -0.005084228519951713, -0.08580594766125112, -0.055973446334597866, 0.029000623227961382, 0.08281724574075496, -0.07868920133347793], [0.005000234507068755, -0.05568338702551976, -0.02939475363900778, -0.046942637187166056, 0.027311661777028505, 0.0034996310534418144, 0.014845017149000826, 0.014624753884653117, 0.04987434398955214, -0.04251832974908055, -0.05732078381353593, -0.006262418866313211, -0.08672253337199415, 0.03524827419340107, 0.055488284741776334, -0.035543338349337754, -0.022641420653431464, 0.019948170008036368, 0.02948118661391699, 0.1102526501835612, -0.04253113298069495, 0.005842812740785654, -0.022960478839059075, 0.04743436770341837, 0.034673562748821794, -0.08058423392207471, 0.015739372716735606, 0.02009581439296555, 0.05241547842599182, 0.02330397847182141, -0.03244242252771071, 0.017302934141147513, -0.09419768536045789, -0.039391549284642044, 0.040486618680067796, -0.03284070965600681, 0.03730057978312427, -0.015966048699924802, 0.016696401405710475, -0.04129182928295167, 0.0005368345682466441, -0.0022792315939063807, 0.040935108552691016, 0.0384349089710241, 0.010825259827280356, -0.011140939094755739, 0.06617140285313568, 0.019466663047895648, 0.05152870549768942, 0.016578552955390714], [-0.012749909426475987, 0.011083929704731509, -0.015659878135223706, -0.004042923033003835, 0.013926744626750816, -0.04679441311576851, 0.01216079117581107, 0.0362336007976469, -0.061293014351756256, -0.0045348926635089964, -0.012650953357763619, 0.07360399834633137, -0.07124094183090164, 0.01873265590575224, -0.07125782771833625, -0.053473082781759745, 0.01187205894358115, 0.012937234988872734, 0.05740430818342547, -0.0042524419135151455, -0.010734525169210592, -0.030401519153610463, 0.0017962602948134619, 0.007110220775609192, -0.03216021608216383, 0.018012375611106766, 0.036839737389189525, -0.027586568752090236, 0.06804091400699054, 0.014748122677084998, -0.029707580908331834, -0.015652841858586168, -0.011215998768631795, -0.03327510160877988, -0.01131475218796533, 0.012971539772546925, 0.015090877407306427, 0.014227802024353309, -0.040213048845117186, 0.021164835407516035, 0.01708353847033849, 0.005479446070381089, -0.00026570638828548123, 0.03544771872435817, 0.0549632466742719, 0.0373322811601543, -0.03584335993968983, 0.006724939829561343, 0.03148140275338705, 0.009551196660815225], [0.014016192764472744, 0.04173345622721083, -0.062388916755616516, 0.003833218233809477, 0.006570040755353987, -0.012295873539170651, 0.04702222469892687, 0.04812250384711883, 0.002783716596029633, 0.05527558382647228, -0.038586000181180566, 0.02704458891784186, -0.04320305346835652, -0.05908620263450128, 0.04304903758680803, -0.033616882434872396, 0.012543369558817404, 0.020402924340941212, 0.03777562885548808, 0.03334751858040724, 0.05536079490373002, 0.02333882898288025, -0.021151630267776004, -0.003976252253738489, -0.004917843913173401, 0.05557941260553937, -0.009850178644285841, 0.002792943137215628, 0.013053465109017452, 0.03691386542673523, -0.03723235049350331, 0.02323173529902397, -0.0028361125304688633, -0.029540344965096086, 0.03123718888949307, -0.0027005803268925453, -0.022883161378498332, 0.03185302724365927, -0.046815017943353965, 0.03355877955832818, -0.04022797272106848, -0.011091000479017359, 0.0005056401189928461, -0.03872012826886207, 0.038415560834270425, -0.044239841694732496, 0.00026522077765683827, -0.03810942643436844, 0.030432039756968555, 0.01028482673762852], [0.01924729308435514, 0.035650564994883664, -0.00707474281869069, -0.004738936448666225, -0.007098176019823356, -0.011067426947678254, 0.004135701372955405, 0.027221268563799823, 0.032894345523764516, 0.04963286024276181, 0.0022172817799989203, 0.01582224626186703, 0.009559474940537523, 0.012665302693263023, -0.0038414661839299247, 0.006093084474796397, 0.039092596573563274, 0.02992343877432916, 0.0001109163559832816, -0.003898310214815666, -0.023277846969780403, 0.018376781375019587, -0.0006858752233871711, 0.0034206855503895917, 0.013201400889139174, 0.01781673760712731, 0.025943182936984298, -0.029357707624030616, 0.007810803932373786, -0.08277232888411824, -0.05334233453874834, 0.01322339560000563, -0.026389369166168807, -0.02801424408637112, -0.06310059571120058, -0.04261817628499842, -0.0449886454386365, -0.05462620536605651, -0.006101800854406024, -0.024333759803023908, -0.03991885720308174, -0.01792442034008537, -0.016803006154601383, 0.06624486117044112, -0.005415609898042509, -0.024990025593390933, -0.02384531350665789, 0.02593973014314524, 0.015918901029449744, -0.015034353211141311], [-0.021670127174178034, -0.013371618128849988, -0.01571004423875801, 0.0066331548772644465, -0.01051148386718871, -0.016726619369491078, -0.07223141424141044, -0.034714482856699466, -0.012522262298819887, -0.007709875394262732, 0.05145879785809687, -0.03817499325696992, 0.03426278950842765, -0.01044068064731771, -0.014436700181004508, 0.009206570693286726, -0.008781119231951018, 0.040021888676294866, 0.0024279488658249496, -0.030191102791137216, 0.04985820288499664, 0.0006441883875785755, 0.03392272279091665, -0.0611149222985691, -0.007169424149042974, -0.04245106158213961, 0.034286659962603966, -0.024248005667683228, 0.013809401022718626, 0.030835821058321493, 0.06348898229139871, -0.044632286880098314, -0.03354058376106049, 0.05432439372687912, 0.07385356249943655, -0.012824371063973121, -0.05391862513419831, 0.025701695133111314, -0.007963561167760747, 0.032629484358614354, -0.018242790976854387, 0.061612964826941494, 0.03819782022066902, 0.042475661521515405, -0.02919966742600882, -0.0030350803194269553, -0.02146451338777717, 0.014684195107655047, 0.05730814034934963, -0.08203378870946855], [-0.01926158830002463, 0.0035461232692550783, -0.004682675907581083, 0.05260105901046965, -0.0013480272601819102, -0.032175377361987334, -0.017728800922109413, 0.06678696943136418, -0.0014147817463994353, 0.03573613407224581, -0.03050846731520043, -0.019614904411838396, -0.038760078169319694, -0.04531993221150194, -0.030829779947538636, -0.07677464134257594, 0.061452788775218856, 0.028967905567744954, 0.005589131690742622, -0.018356700292785896, 0.0209196340700582, 0.018284668560018202, 0.03509960749043698, -0.024859315436902146, 0.004602103589819578, -0.0550134365494291, 0.07674509665957582, 0.026090303240201874, -0.03527490810611694, -0.024771177433693472, -0.030088780517034123, 0.03143445100364403, -0.05575743953084581, 0.003189887840676346, 0.013830002021898526, 0.05022888553063285, 0.04632559518279079, -0.021454564631082973, -0.03266996154201501, -0.009601113494870486, 0.0811207912194087, 0.030513014343741762, 0.06338616399056743, 0.03416956439081223, 0.034433356093709344, -0.026293379920186755, -0.024727289218496977, 0.03582313425813866, -0.028677062274804304, -0.005093777520439499], [0.00896687435537792, -0.03768342448793191, 0.009559266363510083, -0.020708425711885244, -0.01804268831463355, -0.012552458627141553, 0.009520188799879916, -0.006310571050518995, 0.014521589350794081, -0.04348509895639763, 0.007123930672463896, 0.008663326133283343, -0.06051104430728557, 0.022076707195175304, -0.04610955913177492, -0.05763357240570854, -0.014006023350666101, 0.045796351388130555, -0.02543923434453499, 0.025183042470092135, -0.05896973005204555, -0.025052081997560666, 0.0001334274280299966, -0.018414709457306562, -0.032474730169485745, 0.023700168370095843, -0.005687636982553379, 0.05734941255648414, -0.008230453709598321, 0.03896288774640207, 0.02696749038613621, -0.00995466906132784, -0.010449529435138546, -0.011137349031386691, 0.009094608161027806, 0.01131029841819903, 0.009515563616948356, 0.05393021717802292, -0.06035337913626037, 0.005815278139813278, -0.012534454923376815, 0.0566233940170545, -0.017061545337868817, 0.007090246909474278, -0.05798170377761613, -0.04896240560323293, 0.026357770858756513, -0.0013065359888171577, 0.005888316022860596, -0.05322036127811179], [0.009254522701448211, -0.03973275172776371, 0.03527146093656768, 0.011356431950958392, 0.055540421175591666, -0.03595746071568799, 0.01665032437133305, -0.0034374441313042583, -0.020125613359098776, -0.03111060116432383, 0.009535908218830326, -0.018467904411728474, 0.03966506067604357, 0.03137562224491864, 0.05967775822634769, 0.01699492742161386, -0.008052458071474651, 0.0512626301768047, -0.0018360616783504578, 0.007779033590185102, 0.030060870694933566, 0.035566461446196386, 0.05389301040568876, 0.031371791742609526, 0.008907113477896586, -0.02361560041781844, 0.011519081267184353, -0.01324589552394825, -0.05442169792973146, 0.024389099660719612, -0.01791091149642613, 0.007501678771754623, -0.06477900787074257, 0.02580195308898006, 0.03908899789709005, 0.04487805634056099, 0.010021839351333786, 0.008178950487597899, -0.047346629215074064, 0.058243965368732116, -0.0019530092337257429, -0.02094824397868883, -0.07362206517134472, -0.04422699315695384, 0.013709142451744956, -0.024609278107733945, -0.009638789127839345, 0.04050570320103124, -0.07001490813602256, -0.00021520309247848802], [-0.021521910312126965, -0.01515645870370129, -0.09232668858695646, -0.02593105115871782, -0.028180143287254187, 0.027151084189347856, 0.058416634504920725, 0.0420918594729602, -0.01128295703365843, 0.046388907577125424, -0.0046017624294264975, 0.0263227128209523, 0.05444486328492664, -0.043621440926900665, 0.026824805451738272, 0.05220337683582858, 0.011376877791747828, 0.06108856493540103, 0.005633744145858815, -0.0028925236186361785, -0.042991759373427016, -0.008799557500206636, -0.022369751141274506, 0.010358468895634045, 0.0058747138356069675, -0.019219686171982633, 0.017984255143489263, 0.03512140422474105, -0.0029563823414680084, 0.013291387011564572, -0.023551062005513424, 0.04752689855102775, 0.002646213474862876, 0.03306064279923341, 0.04119966777141849, 0.015084456245519991, -0.0765641760190869, 0.04065003979756702, 0.030283608147096942, -0.03721417709702788, -0.06504403053250378, 0.005670813202897082, 0.029435693876890334, 0.039467772576043246, 0.006530797040556364, -0.0013622556757476863, -0.0044250243290542834, -0.02185821203019286, 0.0004379058804149463, 0.013921314188480883], [0.00027422935535605515, 0.009091606782090396, 0.005326156994977973, 0.02303688424934849, -0.0017793700771621553, -0.004720864597186126, -0.01340810762094696, 0.009718561616770099, -0.022468302175057946, -0.056931805704755915, -0.013955232454690391, 0.03840593115980383, -0.03314013423606676, 0.04831111250999742, -0.07437957050777924, -0.017006979919530894, 0.01442820530197325, -0.03349032515518656, 0.016057461070652403, 0.029761610181249124, -0.025570818612080305, -0.03608514500874388, 0.03281296261877272, -0.0527078899031152, 0.06114392712351981, 0.034312860358249854, -0.04361703472875591, -0.056500412357789846, 0.014502431791203583, 0.05002843698461579, 0.09287518048356466, 0.06472139847967036, -0.017725828291048632, -0.04663342194973286, -0.0030875561462304704, -0.10574187948633872, -0.019576454087024235, 0.027800676315263152, -0.06287696758797554, -0.0005496618441250659, -0.014809403898926305, -0.007587057979518391, -0.0019315981786952312, 0.0005128321894683281, 0.014346551752817167, -0.003628313551992868, -0.04602975059309892, -0.055992351809534165, -0.019104350959152, -0.009617826982988593], [0.010992143702143494, 0.010773897332313504, 0.02383505050814073, 0.03658607981447481, -0.031240846167784414, 0.005664189644515754, -0.01951488292937458, -0.0016224678469427447, 0.034258709657971884, -0.05014814685562423, -0.025101846024317826, 0.018425127895859178, -0.0205011631827771, 0.020074636688321778, 0.004262306690407996, -0.01596793010024389, 0.0351736017250436, -0.021549796958538425, -0.055591605113434354, -0.050950896047742604, 0.03924537898334781, 0.051839446446893325, 0.016073378127628685, 0.0749812469148824, -0.002630614814308389, 0.0002156330596485906, 0.03494201619335147, 0.015947728086103643, -0.056779417705135185, 0.04338383428416614, -0.03242716769218538, -0.04974665929200953, 0.033278731827355065, 0.05118415564720809, -0.04756433066775486, -0.0020658068275933032, -0.004361244846342349, -0.054688350383594285, -0.018376318957899564, -0.0019148891838760246, 0.07319200193815592, -0.026988434124079853, -0.047123559619100086, -0.009498531829948942, 0.01817506877085055, -0.020589503553105053, -0.015483283168654858, 0.05238961020944489, -0.008053595033422834, -0.005909223043324059], [-0.012033312746423544, -0.014592308461038454, -0.05051962116412887, 0.014404019297578192, -0.027728780953487568, 0.03305314128727686, 0.009800733887842519, 0.07677017747391067, -0.0025260856579738815, 0.061471600719663726, -0.044298076226289854, -0.019548483983528337, -0.019186908327041, -0.021917455278660885, -0.046327713535939695, -0.012013463262834713, -0.06790303370612233, 0.005776641184585257, 0.024425461450273817, 0.03912156344653644, -0.03599974182285241, -0.07925231844635139, 0.018368286074110292, -0.01657550528126161, -0.0030380769548308127, -0.038917222217153324, 0.02067249586656712, 0.05242016722181806, -0.032546794160328164, -0.032171009387273984, 0.006693681066021207, 0.04365256886899097, -0.010710116845502717, -0.013635634328704788, 0.08715609026297856, -0.0415923192497565, 0.020039624087736376, -0.001167696480179382, 0.001625701178391637, -0.036930090745098954, -0.024349141483679743, -0.04419255138400231, 0.008222422425443437, 0.00658811817987036, 0.000945814304663207, -0.00922927438179856, -0.02193533126525395, 0.01169641959888657, -0.04273966168561124, -0.02262563043601223], [-0.09611094626555282, 0.0036964969171268285, -0.05984755510205829, 0.023586590123703483, -0.0372197327060443, 0.037599775233112545, -0.041108204962471535, 0.0009208244422510729, -0.013799598216916302, 0.042779225892294916, 0.029581507336289527, -0.026748791901023024, 0.08059785491413428, 0.019054323818276486, 0.035205913786719896, 0.020679782825631595, -0.011725964183608892, 0.0020445205857216792, 0.017089640397054625, 0.060021477562614924, 0.06388880007249635, 0.045640992580221106, 0.020219317313381124, -0.06276296359609462, -0.041247095300427535, 0.0011608898566775009, 0.06117929495025259, 0.005501164264334285, 0.036576096146347443, -0.033283828213769226, -0.008987769147304201, 0.028603740631738084, 0.025925047306466904, 0.0314017852086937, -0.04649937781634554, -0.028101583572909716, -0.025087797482085235, -0.0028534760015554617, 0.0029316805096057433, -0.04025273215572158, 0.009783816244019472, 0.06601920678593552, 0.03479965902214154, -0.03788096223991157, 0.03687381260659122, 0.03218818760072898, 0.045403960554330866, 0.0065428684927089555, -0.03618536066953249, -0.024143599643287928], [0.010737633760283433, 0.03320470018813849, -0.035590080310045485, -0.0603873830843206, 0.008005781260961289, 0.03678223559063001, -0.03124559511545582, -0.04626419254160732, 0.02272681839814019, 0.0020616516177133586, -0.021117460720627333, -0.02009290717241789, -0.046069286178421744, -0.020350395221225007, 0.015692734546460755, 0.026627017952357362, 0.009097748110084767, -0.05907643650549109, -0.008695810572403262, -0.04103930071779789, -0.004642627749130927, -0.035068610081205535, 0.038171955935268974, 0.021531062827210696, -0.06125984402719624, -0.0528110839320474, 0.00916554589889203, 0.04820277871337978, -0.011034403246141302, -0.010973129266449442, 0.028899956112574322, -2.5919036018719158e-06, 0.05086147301820782, -0.05224763451921578, -0.05518239195911233, 0.025146406229833412, 0.017536957873147956, -0.0901579752696835, -0.0004020589920194381, -0.047005624169573955, -0.03352188772271918, -0.03178632711351675, -0.010132933946598302, 0.050969182699661233, 0.05742733501313483, -0.013192307030487873, 0.03439312214775306, 0.0034363344582789565, -0.014905261974283601, 0.02376266330036329], [0.03124055439755796, 0.037828805195130356, -0.07011159819356463, 0.010426569711499157, 0.06762662621995924, 0.014521868488336923, -0.005743723647231338, -0.029625066040898634, -0.020180122471467683, 0.015563998956505315, 0.007523113215239461, 0.0738202315052154, -0.01103423242305156, 0.04883283438048745, -0.01386011967102132, 0.03612547128673744, 0.0026012567257108327, -0.05079188464801171, -0.0216163587934995, -0.008123714925470425, 0.048987235400477114, 0.03733695101524713, -0.05169384526869152, -0.026630736741320816, -0.044627577621316236, 0.016826731756886364, 0.06512968254043945, 0.012508659264345343, -0.04417350041047437, 0.04287265746735567, -0.01351504978284157, 0.0022552516560548595, -0.006907062750768669, 0.006427496053803722, -0.07673783602942298, -0.012961592928080629, -0.023285696010097556, 0.04554435921008223, 0.028561805967819303, 0.01796925573610788, 0.0057072884890716265, 0.010912759632110953, -0.004818358458719232, -0.104883498403276, 0.04551459122859358, 0.03892665775704084, -0.018951394680650376, -0.021792263223671594, 0.015574181132460965, -0.014333387860446625], [0.006656918170021874, 0.024130549327952083, 0.008028015674609647, -0.015727161803093186, -0.0024333833228465016, 0.0013997985189373697, -0.07996916086008513, 0.0009780473603374416, -0.01587049591700506, 0.007108316091115283, -0.0452967348689653, 0.034377934517133064, -0.0616223700128367, 0.04426871519693438, -0.011023980633640993, -0.006921882026628113, -0.032215753211775, 0.0010398444933264438, 0.015591518133291087, 0.02280790440839822, 0.0028618049280938183, -0.011921146634813735, 0.01700779646603145, 0.01677149585665345, -0.016016998442147413, 0.042852805666732066, 0.009901970922644313, 0.019205088838503935, -0.050677045949401055, -0.0192810219805327, -0.0031896310655051335, -0.0043131980571806915, 0.04204842780740688, -0.04205340069687356, 0.019509609391164803, 0.004860081629357078, -0.04095584478190687, -0.023069070012137004, 0.02747794979917268, -0.009705860420181607, -0.005654316453488325, -0.00998064308320327, 0.005702357491616166, -0.05570072449493862, -0.020596628748870326, 0.0148693183080134, -0.08956089706177135, -0.04078051918958347, 0.014255935251327883, -0.10536359371923563], [-0.014791343111130107, 0.022404563907046978, 0.04585350936132232, -0.04334139289619666, 0.009195819182922553, 0.06338537527989227, -0.007948994066774453, 0.01715804490215328, 0.0340661740685829, 0.017900675863198028, -0.017609512490245442, 0.02867990448323439, 0.033341603320070835, 0.005148180124773887, 0.023472195110703437, -0.04884340687649746, -0.05861409513808837, -0.03848237867374989, 0.01304765314422779, 0.01057442724267337, 0.010896351948449054, -0.02209076315377919, -0.0027572588056249086, 0.0053703845983182315, 0.015527639822539874, 0.009934584375114637, -0.02716137065672441, -0.057565045614020746, 0.032974198752224015, -0.03613206060785152, 0.043234942263720065, -0.046468913938740565, -0.019149484184235323, -0.018903301277965717, 0.012836712897486183, -0.015318195302870359, 0.003249578023012617, -0.000797676519536727, -0.03515985343542487, -0.04631218309301708, -0.02005000061887072, -0.07814302181993593, -0.03114444647534057, 0.0018294613137081182, -0.036391698267471094, -0.027481974490986435, -0.09106666388615885, -0.017237380672179014, 0.026987055339381963, -0.010525585334405988], [-0.009741285765393981, 0.03967291809435181, -0.06644696945374957, 0.05144247451118386, -0.04262004460026159, 0.05290782421999938, 0.04436218521566313, -0.0651835762056058, -0.018040729119660533, -0.005954167907874392, 0.006129092281922907, 0.00785223275006808, 0.0564152476753201, -0.011786267238359502, 0.004890099641323774, 0.03185815799746305, -0.004906320129889707, -0.03971151344973899, -0.013700646378909685, -0.009990382749223637, 0.06128916453592246, -0.03505863666495139, -0.027357355064362737, -0.04980444070979228, -0.05834883340529347, 0.03810834760784639, 0.05468309715718939, 0.002544116515157767, 0.05597136750333255, 0.023920707796497246, 0.0010170997994017228, -0.010452967441066555, 0.034019772364888616, -0.0034206208276559907, -0.05751843900891068, 0.031089699363237112, 0.006870613607474399, -0.008684724139567624, -0.0007361698494127506, -0.021620950457541303, 0.003143941057735788, -0.07359489955176528, 0.019493745068440458, 0.03558349673403585, -0.039062803563628325, 0.007229500918082587, 0.04337929490641061, -0.02731322681705545, 0.04586767878529685, -0.01718046899635985], [0.021466273857277937, -0.014138135682497192, -0.024542736803084893, 0.005160419301078597, -0.03355242404298832, -0.015276477946440622, 0.021400235333556235, -0.009518639672841743, 0.01312281128651351, -0.019474506689270886, 0.053791589243509894, 0.006277128715109902, 0.0014681254107428365, 0.0746822548482152, -0.10282875987003305, -0.0006137378813414076, -0.0705572465686795, 0.04963289280085838, 0.06851202875941118, 0.061185338226864575, 0.05429037666652395, 0.004359968709910194, 0.013895635122016768, 0.014073003628202742, 0.03496509792073938, 0.006227946892297991, -0.08805214839789761, 0.022359059518173043, 0.024825462026752645, -0.037533165275718705, -0.010224164765958676, -0.008929571549152809, 0.031245239435514115, 0.026109993199573175, -0.03716033131285255, -0.022539119446642417, 0.03885051496012669, -0.012312622341111157, 0.03348369142733077, -0.011306416245426658, -0.06311462339523904, 0.005903080111752275, 0.07725955151281044, 0.0619792308369537, -0.047118136661393036, -0.049699223568993416, -0.02315844525191836, 0.03252376022174265, -0.0034149107181892257, -0.01879793936836955], [0.033168459192271946, -0.0014491923715268618, 0.055146003979760244, 0.019409571869702984, -0.013841152019354819, 0.025769968516050158, 0.01197750284710982, 0.05117009301347541, 0.0970066080638447, 0.009394105304000736, -0.021586218227984538, -0.001966356030644239, 0.022827825831892096, -0.1168024631244866, -0.05880543664536134, 0.06424724413486002, -0.012493257686717937, 0.007130579737380343, 0.0340953952038557, 0.01582812364535244, -0.04488261844709686, -0.010617115577521761, 0.037014308860275194, -0.01211039670541474, -0.06089713904213843, 0.0020503328548702733, 0.015443129884529677, -0.0698270845828703, 0.015716065876261526, -0.010721781860428086, 0.07782644431154684, -0.014208240901077442, 0.02075276391706122, 0.07570105928762831, -0.0006567693287013003, 0.05579205183417078, -0.00920011536698794, 0.05433313662684757, 0.03361836388314481, 0.028112661980622636, 0.016083216536621574, 0.04349829370121265, 0.0020910343632456543, 0.008659254788280136, -0.07055103130654508, -0.03997658610110543, -0.05841210314043729, -0.05336563009184901, 0.010022305030308524, -0.030981048232341598], [0.028868196971408973, -0.004609126513052705, 0.01442142869591572, -0.059264106472814146, 0.03659173644591027, 0.023218540024812006, -0.01567855648879391, -0.007633561869597817, -0.022025161905573507, 0.028087400058840667, -0.008124683783472787, 0.007209409547234132, -0.009797431779270937, 0.058143083893386835, -0.07369127396919224, 0.03076191129275208, 0.02221883645908901, -0.006421677711514401, -0.013424172418726682, -0.0075309251747918676, 0.05231253457810766, 0.005982129760354897, 0.020544335915977405, -0.06266676377409093, -0.04949117883549824, 0.0368661392454549, 0.006257715918066693, -0.044341331908474786, 0.00027651509854563906, -0.024279301966600685, 0.061920908987374144, -0.04778983747293336, 0.06060811612626622, 0.00015914891899519135, -0.0056891462216493455, -0.027680353707264623, -0.0034360837626904715, -0.002355395532040203, 0.03751894529065563, -0.0016989268378709906, 0.06161940629392511, -0.057787843254760905, -0.03259556493943514, -0.04964268940309417, -0.03766503885822782, -0.004311922268953068, -0.014916133582354498, 0.012331942603755001, 0.029092575042435113, 0.026504965441204006], [-0.0015442127112745285, -0.03860406787299206, 0.07462061671983564, 0.0025836868683182784, 0.040212843208189984, -0.01546633334824157, 0.02957515385566764, 0.07081489169979817, -0.0005970298986037859, 0.042324837653485915, 0.007545791492122777, 0.08928099402186958, -0.011852464538426248, 0.006400668794975067, -0.0351961492632179, 0.038193671058936805, 0.03150613535559784, -0.0077393422202215525, 0.059530399217000915, -0.03786916514093654, -0.017677138846345974, -0.002017381539327786, 0.0009357085736467356, 0.022752636928696605, -0.006619058670421698, -0.009630732585250717, 0.015846117499679527, -0.0002600387473572094, -0.03307061463847767, -0.0013162340495034529, 0.05530472169477293, 0.022382216426127227, -0.032864250795374125, -0.009953889206749477, 0.04977332957167363, 0.026088917412706435, -0.010695056517379863, -0.017805735249406977, -0.007109338723804215, 0.0355821829156158, 0.06759193563386234, 0.01820214025951551, 0.044431955490062035, -0.003728623529625797, 0.007467997133678093, 0.02222192002825475, -0.024079240943383408, 0.01491344484572751, -0.0211952709824646, -0.008789010181653678], [-0.00662232254097089, -0.024833126285699343, -0.013632378269504551, -0.045102790193323423, -0.00844618841894011, -0.04798395015007764, -0.023198334968861676, -0.02452922239828847, 0.026160412760496368, -0.008400023638859071, 0.04105728072244304, -0.03781762463322522, -0.011155230929631594, -0.029771825904489166, 0.05007376771046733, -0.0007539974537347692, 0.008729972211643499, -0.008155425624097077, -0.014049652142154683, -0.0508569689882091, -0.023994698591741328, 0.020055498875123833, -0.010458518597002371, 0.04240233739175343, 0.07456086356648647, -0.07852129291937529, -0.030018566171460998, 0.05057236166042258, -0.007530452213830599, -0.014741101535457374, 0.031877406481955785, -0.002547802258016399, 0.02168394160163337, -0.05446683983440751, 0.0751171735384365, 0.013563017590707523, 0.03630288650239436, -0.005213836137929826, -0.10745321985411338, 0.024001272118237577, 0.023181486410736293, -0.051820824284760834, 0.013287634086900356, -0.021790644248901373, 0.001441290506481684, -0.012837575533341479, -0.004293823398521544, -0.044058484513518695, 0.046228785820345474, 0.05897163778083476], [-0.05462699591718749, -0.06983998475594859, -0.02464344340436762, 0.013035174476169174, 0.03348760473000732, 0.017045371913343613, -0.005657397068108315, -0.023800963903222064, 0.0012921133539063707, 0.02359442416915254, 0.06861951242114546, -0.006326109264078753, 0.05876124333515108, 0.007014554042323356, -0.024865409109955366, -0.04130009383692114, -0.017202193056609433, -0.017908303877465663, -0.018256244867519044, 0.0009373344597725601, 0.03346388284435823, 0.0021138822446239913, -0.003120655230513923, -0.0203032950161761, 0.025031146290671033, 0.01847550444853591, 0.047557533237614594, -0.025358579142850172, -0.036874919676916945, 0.0059840540756354, -0.053133687400491396, -0.03645314235974884, -0.007357072342654987, -0.016841552910525987, -0.011450405406038243, -0.052181987851636885, 0.024980849525802287, 0.03183045350651813, 0.038058879765415304, -0.026459240611407035, -0.0024350287939251427, -0.02380620356865462, -0.008972114330902241, 0.05043775015535925, -0.0640755612372695, -0.03593288139801903, -0.01836269692752155, -0.003411619687034296, 0.04221307838666343, 0.05795755199343806], [0.009001101043853972, -0.004426798966636992, 0.0001346982667656768, -0.047929197126097466, -0.06737794716109899, -0.003672455406551553, -0.10814234310758343, -0.008477696145304477, 0.10042846406369678, -0.06956112291188768, -0.054569332373845376, -0.02041089670112631, 0.02380369644531862, -0.033193865507807, -0.010621417461830955, -0.06713489822798879, 0.08041705140191194, 0.012682696387615296, -0.04931490417649409, -0.004466513240874032, -0.016126538156998597, 0.017111241830131955, 0.01320340141943002, -0.025054096803838983, 0.04202016598255012, 0.07528661484697652, -0.046040720609258165, -0.01959791354201649, -0.08223363520366468, 0.00044473792359209864, 0.02847689765902852, 0.021011553749406397, 0.006563124464821049, 0.023943437978788996, -0.0033961993910089487, -0.002895147179171452, 0.05962349418707439, -0.024231725174253958, 0.006238937281395365, 0.058458441428184064, -0.03383247433186609, 0.004175860640287859, 0.09403186418395239, 0.07771105336385317, 0.0024016165233991813, 0.050304844476121637, -0.05017119480524684, -0.10529197623544215, -0.014873183550178205, 0.06538444007296125], [-0.06639319547557604, 0.009860080236026735, 0.02598540218165492, -0.004809589031773943, 0.009224534314854168, 0.030550251623527633, -0.00666295972319209, -0.017754393139577416, -0.051249724518106304, -0.006495424847702401, 0.024533098406060383, -0.01935972289088263, -0.01023089338686966, 0.009287218643116001, -0.050822860636032106, 0.006761255603286878, 0.02260870660917934, 0.0239774286517087, -0.045909506174203245, -0.022631426560395965, 0.007720166030807821, 0.0275029531213667, -0.035313189977914695, -0.020629248407030766, 0.04054522263849153, -0.0027689987809996312, -0.028915984480415925, 0.058337096184547986, -0.007776627784810867, 0.05760112968249681, 0.04181249435553236, 0.004428699496552797, 0.024568556486992302, -0.05868437231587208, -0.05299513520893865, 0.06989973460726752, -0.012917321254703415, -0.05351257795088279, -0.06407366167320191, 0.05599095106999684, 0.042111460930645356, 0.02707834283352746, -0.0306108022122891, -0.04616856249453692, -0.08201048385061899, 0.0335005042721063, 0.0193047030990235, -0.01951806549925033, 0.07299133095759242, -0.01054374048135151], [-0.0012260781065995161, -0.004940842287585909, -0.02915091916612163, 0.014823139025678013, 0.01964379488730671, -0.021020030560772448, -0.03114812016954786, -0.02404343849427862, -0.03268170095509176, 0.02084516160545561, 0.01712411018146644, -0.05680306805779265, 0.010683937072374526, 0.04477207688921075, -0.009758976430846653, 0.06529202523648935, -0.014600536689710456, -0.02952808285866544, 0.0366368095614043, 0.019060986343529884, -0.01827779400649826, -0.032056960585530286, -0.05799455110018471, 0.031325894768661995, -0.030681722207540157, 0.014950530921568913, 0.035583257450343526, 0.008399670767411422, 0.022899879345367167, -0.06550002093626038, 0.07229113015883178, -0.008339391223227853, 0.009739571535148569, 0.004386845893396144, -0.030831999612903994, 0.03015145548045174, -0.012950979433894613, -0.005305444265814385, 0.006673132520521902, -0.05205430091197165, -0.0591426017271516, -0.018686672880434956, -0.0509456979431565, 0.070355466700964, -0.025925974383826895, 0.009320072649388103, -0.007391734015037457, 0.03131330043694148, 0.01910455582600202, 0.04158487535663155], [0.03643594942662429, -0.006590980188677571, -0.006323988001800724, 0.013465725866363907, -0.01490187987262111, 0.028088404980232802, 0.028311752939193188, -0.007535108067905183, 0.001065102962429379, 0.009119193275368071, 0.03857987581335187, 0.0441594568104373, -0.020837556162746063, 0.007191222897105648, 0.04113362792421406, 0.03131369472603064, -0.023975732869830468, 0.08854620463035415, 0.022449395195049515, -0.055847571419843166, -0.04950642313627001, 0.02195415002450958, -0.03079308664989016, -0.032337010152206365, 0.05193892700384369, 0.05568573633848453, 0.025038665776401646, 0.013912110150226937, 0.05224656598932392, 0.005450758324625706, -0.01454686128962289, -0.054623086252341184, 0.05405023547151142, 0.005949805547109573, -0.08519589136887318, -0.023211572221186853, 0.026576871396863974, -0.058474749426190895, 0.04401834812692992, -0.05877549878782846, 0.019951504137440755, -0.047158600681051134, -0.02382676080922441, -0.04854382133704502, 0.02865273203499426, 0.011664537629266915, -0.014063211075235936, 0.03771149409947225, -0.02401587169809163, -0.013680692374724142], [-0.031767265655469015, 0.020798164861055454, -0.009960714593098743, -0.02939129209051333, 0.05494453614465047, 0.05808180433623244, 0.021702185951913464, 0.0121270926755596, 0.024701733925858928, 0.03410449495420627, 0.029237238357180464, 0.11626711509545204, -0.01863837607712347, -0.00015899531528694525, -0.020062171519757924, 0.0037649733919376004, 0.04741978516078412, -0.01397941716074129, -0.019669409100206058, -0.0009302429610806618, -0.05625508573492429, -0.05555832751421528, -0.1029172147049883, -0.017005247062615785, 0.05271977998393226, 0.016912356713213672, -0.01608649696019778, -0.007350416233776617, 0.025621104914391683, -0.06421828867225178, -0.047386937483286116, -0.07294473823609895, -0.02076743689546641, 0.013170237137206171, 0.006727506659215122, 0.024792151657216082, -0.0012037930584553442, 0.028494337324016485, 0.013844743425639284, 0.02597892213533001, -0.0011185839701988466, -0.037462260676529684, 0.021378112835296368, 0.0247675890062711, 0.09331414679706243, 0.016533363967730252, -0.03383068729838678, -0.03652622661895439, 0.0007648472353062698, -0.011376954748882428], [0.007551394243319149, 0.02314614953604981, 0.060019151906754456, -0.02959277681255619, 0.0003675778160132754, 0.016360016874309137, 0.013570899622091957, 0.04542968236850817, 0.0006654679457844577, 0.00044213550077962336, 0.032202492225974454, -0.007542406273873574, 0.03957650079973328, 0.04252538306548069, -0.002506028798662715, -0.025185557412512466, -0.006204512030327169, 0.055120305567227565, 0.04372954128068734, -0.01682463319810732, -0.0468138411120625, -0.0653124629851318, -0.017926209289228588, -0.028032202979667544, 0.03175539758441736, 0.019369590782811336, -0.034483765803620454, -0.005320522111453314, -0.006190080230035788, 0.012183376453764093, 0.006958242165750812, 0.027036720608676065, -0.01780515250545828, -0.001584665390579064, 0.027688063206101735, 0.052749253886179494, 0.004079776432556694, -0.035416441205177014, 0.05072376610712875, 0.025643621508831944, 0.04409023530948619, 0.016175408975968544, 0.0018040184874269396, -0.033409030582340384, -0.003068239832708796, 0.03538933244909258, -0.03464208453305715, 0.06332099552379715, -0.02853312139354304, 0.07036751012385266], [0.03359711124660796, -0.01261220160114529, 0.05036256976272548, 0.015218794528087639, -0.06973049984496563, -0.015756187653313797, -0.03652912653639758, 0.0028436412908838427, -0.032596357770267925, -0.004443703175764758, -0.0019256818715006232, 0.013483831853860111, 0.04015259248552004, -0.05854332675308098, -0.02338697644051801, -0.06850120008554447, -0.01748817905289224, -0.005767635208980028, -0.012916134641113445, 0.031613725816362306, -0.01075394937852969, 0.00035516354301073547, 0.023148175718216514, -0.01301368703364894, -0.019492908702752627, 0.007719906777072483, 0.00457120808513578, 0.027473221571458813, 0.009112277767103646, 0.005621636168989996, 0.0798237715699909, -0.05011216047629611, -0.029504418356164446, -0.045261237082693626, 0.012626075209800351, -0.054038909980153926, 0.013259215178596209, 0.036296114457173796, -0.07545015391906243, 0.012451765213109934, 0.02400403790208163, -0.027769532038464557, -0.0023610338525956636, -0.022602199039816133, -0.02513248988934028, -0.04658995103300775, 0.014847348954567723, -0.04881770335986312, -0.002778080837551043, -0.06499747492747453], [0.05276738043178473, 0.030375995276019942, 0.023234051605031298, 0.04644585015942084, -0.03665512398849317, 0.010394210530604308, -0.05227796223867547, 0.014224216888806577, 0.024193656011444513, 0.024924005923695435, -0.01817855804146306, -0.026408601488741724, -0.06343930133861375, -0.035366419531381886, 0.01121263557589556, -0.030298303141991712, -0.023866809267761403, -0.055859980478345964, 0.054475979452280915, -0.01925245848350813, 0.010080907198670728, 0.0023101869953260057, 0.004138880155193173, 0.04154403438581434, 0.038130882726014365, 0.06814123949938444, 0.0019776425478544826, -0.031773382429979874, 0.04315244657120521, 0.08074373597920857, 0.122977312387667, 0.00309853783651013, 0.028637550017101495, -0.001680777299430852, -0.004739332186748351, 0.003279683032810379, 0.0318013232341369, 0.006910307018383732, 0.04176294013741176, -0.059994065649628066, 0.030097219583339982, 0.01257755624845634, -0.015707079883761497, -0.06627669298674153, -0.03118752350265151, 0.007221520310597532, 0.06881271832655476, 0.09870005907260501, -0.013272404158808298, -0.06744362091653647], [-0.03981789944325985, 0.03378316355757197, -0.04601444353896912, -0.008343805857123823, -0.010384459898508558, -0.013041093611405333, 0.037204823667445444, 0.07744365340382779, 0.0031943010393168693, 0.01904451444848693, 0.006020618712551753, -0.029630847380701132, 0.0077066122210281566, 0.048474985197397444, 0.017070437707342546, -0.05029050513283641, -0.0035591934550555536, -0.02984467582638244, 0.04069767678185857, -0.024662005548841685, -0.023184538115936622, 0.027233155042494336, 0.06183009849437174, -0.0280588711401142, 0.012293108011226135, -0.035642693657003496, -0.039031339767752915, -0.005568971743611285, -0.0364430522301949, 0.02187387732817286, -0.030100198963419825, 0.04621726578090631, 0.06080427654969721, 0.027397452850602244, -0.013317349045300537, -0.022587886679660146, -0.03627075247348323, -0.053686067428555605, 0.06074099112768582, -0.06586120714225493, -0.007553580343166568, -0.04944937031951452, -0.00059677280838012, 0.026952899706442168, -0.015800140056410016, 0.010584046116814905, -0.012002363333562575, -0.05562718399376843, -0.029431434732576624, 0.012531845314249035], [-0.004722218910708402, -0.0016347173477896757, 0.06981488250149166, -0.026942340243219565, -0.05160713484983129, 0.010334925047205411, -0.02440592518726375, 0.023376807696820736, 0.02470822459207443, -0.026193266713817737, -0.06449188893862567, 0.0740267474023822, -0.004377679356490505, -0.06862511911149051, -0.031683638740532295, -0.0029712966870224355, -0.0003043929934118951, -0.03545129671794955, -0.015290618447584363, 0.07316039829698298, -0.023584453880894928, -0.021066202529240897, 0.031461147387128297, 0.00010821318322290958, 0.0058037669665573595, 0.003544740842064386, -0.014513835625466398, 0.006900101879065563, -0.004327354661089219, 0.0564440828674674, 0.03155806645394661, -0.00024312521038012555, 0.10122447897155155, 0.05242561867170645, 0.019552424716175364, -0.06361628313454849, -0.02422992303829811, -0.07539436738900872, -0.0015606000411463557, -0.06349550747534019, -0.05180699468059782, 0.035428222331960475, -0.07208040528229062, -0.06195081488862908, 0.020163325201145128, -0.012993827676498471, -0.019114618113622448, 0.011966760016813174, -0.038550488372413386, 0.015657611201182], [-0.0095786565759904, 0.015827160336894033, -0.028640020772028353, 0.02597609330337884, -0.03698672244179689, -0.007143613589299144, 0.07275001387037003, 0.021066675244150918, -0.02839889711926293, 0.015187120633820245, -0.08091390421032947, -0.015103320658887242, 0.006475850413204625, 0.012989217815576095, -0.08401259790876052, 0.026691554191738083, -0.027924911660546073, -0.10822862981871169, -0.02690468682122032, 0.028798281017295972, 0.006374462246263835, 0.021248066708523205, -0.046365494417819605, 0.029690795361262484, 0.013310574162032284, 0.0012493575329488931, -0.050191085731592505, 0.00625647832249505, -0.008390787399083275, -0.024465956655367445, 0.04551996355413696, 0.06251106337925544, 0.004366007742873701, 0.05922681207699585, -0.022080899277749148, 0.05333813036780974, 0.01396850631852947, 0.02098046900793117, 0.007132595744543703, 0.01441346729077311, -0.023758074900002323, -0.009896439510508441, -0.03084275489143656, -0.05521550385893036, -0.01552458216815828, 0.02233296611629205, -0.002138221275855391, 0.030350840242759927, -0.008684289477296034, -0.04820762223095524], [-0.008800088185012067, -0.02123598246407754, 0.012406714753695529, -0.03817988633093453, 0.008285367813754736, 0.020394039349011118, -0.045894335236198125, 0.029690127429666365, 0.01569916926873283, 0.03014005591603818, -0.04927696522280447, 0.08184188497320453, -0.0024794931161327746, -0.029188547783790056, 0.045344558494199924, 0.02505717004359436, -0.027882672480829904, -0.034120225285077646, -0.03845802186971648, 0.03266916631766099, 0.013160426543726464, -0.05099104951867652, -0.0332226012553882, 0.015086361480317702, 0.013342373200379929, -0.0546391428894371, 0.018979502928139394, 0.04762655270216674, 0.04370578991517849, 0.010957428487600873, 0.04231497770893189, -0.028658762540195042, -0.0335765567209633, -0.027548093633737763, 0.007400713234350678, 0.006273235671973125, 0.04343154038934231, -0.05424682749436409, -0.1298142097042443, -0.05255335586743469, -0.0065918738404615726, -0.005548812342513941, 0.04081301800155257, -0.005804320841604097, 0.007213816757963865, 0.01446224135388118, -0.022001034541514846, 0.00423537012675792, -0.04756397808190135, 0.0158716190898916], [-0.038315028723405885, 0.06769286499584512, -0.008023030186258192, 0.08663497538772609, 0.018874258366413165, 0.04214989321016162, 0.04832801325367827, -0.03318483833905332, -0.02316570365146925, 0.029154967367044368, 0.06689773881662754, -0.019601751633330312, -0.0134340355808741, 0.0018576136118002857, 0.005766725998556491, -0.017657213359337506, 0.012696065191938699, -0.003714129647717479, 0.001511362582413692, -0.07261109383724339, -0.042404675456243046, 0.01734739980345285, -0.03442050647260723, 0.04824368084890545, -0.006427349601581557, 0.02226879928693683, 0.015861916888677535, 0.03771480249693777, -0.042623383065936576, 0.05270632135894332, -0.02587598863447239, 0.040522479145651324, 0.023420450957766775, 0.02561627662697185, 0.024537322549164665, 0.013716537703346611, 0.031096981877400665, 0.04523003862031219, 0.014406182340160055, 0.005929878721945898, -0.05109924188876779, 0.0022435904345944812, -0.008318181941566295, 0.009298859798311139, 0.01568626790010299, 0.026388874174063482, 0.008505638658339124, -0.0015367303583613198, 0.044187363116387025, -0.009643445296957423], [0.00019271722850131053, 0.021293783989776292, -0.03585288320975275, 0.006624000319237518, -0.007523583695401091, 0.019255510186319626, 0.013430091514287082, 0.015152505478693545, -0.002189970229946944, -0.0335018759008042, -0.00691660183807844, 0.013791485227519525, 0.0015400759648740382, 0.005856334415587098, 0.047668471084234505, -0.04236832678285128, -0.006922825242048422, -0.040673489468340575, -0.039945356348044525, -0.0222081289818258, 0.028988680407988906, -0.09947918429193622, -0.019335941143185816, 0.06441529337747934, 0.05650837303522099, -0.050568259972688615, 0.04084975149116882, 0.02890261427568871, 0.004631984246781282, 0.03270583293252055, 0.02974633670630276, 0.057756103443604774, -0.048053903421041884, -0.01475038256126064, -0.07936354591822371, -0.017092912592074776, -0.027379499833734222, -0.07106622768684553, -0.03631290560524473, 0.014413713202523338, -0.052281652755285846, 0.04234958021470092, 0.058206640492537244, -0.03228957699952866, 0.008844043639651843, -0.006868003561677494, -0.010207152373823955, 0.03501542826015867, 0.006652200184381036, -0.03505547758099283], [0.0365250184412848, -0.031394842418696355, -0.014993542864309392, -0.02781257497486264, 0.005318341420005292, -0.04216051532890656, -0.031146703211936164, -0.011578213513170343, -0.07715906498043325, -0.019034870235971342, -0.028245918979277623, 0.0036934889270386667, -0.04238278643997227, 0.0018530806006323806, -0.005998083169119256, 0.002492068010925409, 0.03380822683609637, -0.011424751298664578, 0.013205027259477782, -0.011658202542718214, 0.007136735337658381, 0.0010407165036335883, 0.006644565446174227, 0.007820198046073654, -0.06548695044806921, 0.029473944308772947, -0.009832578345279007, 0.03566393178846015, 0.0315004852374328, -0.011399214391638438, 0.030817208079243767, -0.020466734649171304, 0.025912977193059798, -0.013332016062048663, -0.01388019588174876, 0.02790772499187446, 0.04911266762728726, 0.0216249004112552, 0.026054428067259827, 0.03101273725815549, 0.010942119910453, 0.041633737972153105, 0.038445080478019915, -0.003854032927029495, 0.0005914750124694508, 0.06677625418363113, 0.02659375158133621, 0.06996488211056964, 0.04319280084589701, -0.02886773953375873], [-0.026005206249987863, 0.005269049733669663, 0.02435694725868887, -0.03424653218423783, 0.013083526242433889, -0.0357533213790489, 0.02938474337236528, 0.04518039395594379, 0.01090631109629767, 0.02457611662431195, -0.01841459088054113, 0.04650179362761975, 0.000954278463676175, 0.00885389130954515, 0.009042280073432538, 0.036850774057425054, 0.018261741503277203, 0.07667702400716452, 0.006129469222999971, -0.012010513754832124, -0.04333480671681482, -0.01686183868254109, 0.049044750881983165, -0.006877522499279176, 0.001408458289082401, -0.007638592733917543, 0.06268397153835277, -0.03238414103111873, 0.048032578388816013, 0.07065843855982398, 0.04667598528200207, 0.06564881980246888, 0.023580752166468825, -0.0025602461554127673, -0.023139231875712624, 0.044439670304282676, 0.088592508085665, -0.018555122868968908, 0.005695314093235607, -0.02927726830880713, -0.009354705051115455, 0.02232225555193468, -0.04518903278076735, 0.045046643017427286, 0.034801396152314944, 0.012706719720397122, 0.02356225146068267, -0.029379105581379145, 0.010517005146276666, -0.03806001910133737], [-0.005766211334226105, 0.0054253165323737435, -0.03642866854172304, -0.0038553970629179174, -0.005348435779979553, 0.058723988880113355, 0.022458110951267176, 0.05020240180167816, 0.04875467426034167, -0.032011668995781666, -0.15748950096039255, 0.03374075938362599, -0.03641342378866898, -0.08749234684755226, -0.0030632027605227647, -0.011993329017494286, 0.01597259198600563, 0.013741860116672413, -0.03040416566313951, -0.009187676619806465, -0.019796129574707427, -0.008049618948269206, -0.05230808088672785, -0.03968532160206167, -0.03657602291881879, -0.0004903719511519854, 0.050252084654378686, 0.006073084786478343, -0.020374856389480285, 0.02409273260283093, -0.02267668480941269, 0.027340141367988725, -0.008481765341112276, 0.028125514746996625, -0.006450777417528199, -0.028910563264540945, 0.0023662507847321858, -0.01657266483141667, -0.008294489622169023, 0.02587080571892313, -0.0019291795662221222, -0.0022255859451472742, 0.013096073428620843, -0.025945634412227976, 0.03898613667028618, -0.018833862111689668, -0.050160059484356874, -0.021376855182498666, 0.041774236004476786, 0.05040928161137438], [0.03972742473012233, -0.08160609984466045, -0.03235716750468284, -0.03132326219181629, -0.020505505260171673, -0.024286019039529542, 0.022105289663904872, 0.005628393805760337, -0.015318949058448713, 0.030193311089030513, 0.0826319606755347, -0.013462794715136787, 0.028156158295312598, -0.004142468171371635, 0.03492940142636591, -0.008260035687722534, -0.009433977282099179, -0.04297085929265459, -0.0466412639342823, 0.046067792908817615, -0.06370040547038447, 0.0005480707443647534, -0.03885146304613335, 0.027593663268565157, 0.002017217197789611, -0.028563689129358086, 0.005972553061209398, -0.054459360269745134, -0.044869417262533365, 0.014854397958464874, 0.06327331509700994, 0.022869631145258026, 0.013851954963585449, -0.05685638628596716, -0.019262381770614668, -0.028524781430644026, -0.014873274377978337, -0.028575538379410813, -0.01907243085509325, -0.01659562032960538, -0.03871553151979185, 0.035386391720490996, -0.06025672371621797, -0.02323821214932553, -0.032613281012877374, -0.005163264615488787, -0.003995634559984028, 0.026532077114500542, -0.0008959085021028557, 0.03317216933262689], [0.06843623489222794, -0.02541993558705233, 0.00438285924801458, 0.010878321504213397, 0.0009156495976231022, -7.812897669476353e-05, -0.03600822069257606, -0.01364067316505804, -0.0017390839400300776, 0.06241634932086383, -0.03309064108101168, -0.016985757613591262, 0.04912710631789174, 0.009747581569977938, -0.04573867984305871, -0.013516005967659483, 0.011308399989478591, 0.019283234363350645, 0.06885719917816217, -0.041594867774502955, -0.0113957533664997, -0.0041875852979753716, -0.016041968651409576, -0.0302383954154203, 0.005418654458781189, 0.05198035351850697, 0.04176044006929938, -0.04229441381076087, 0.005954075810563696, -0.011877103263907977, -0.07900548959731442, -0.024331719790633363, 0.05621366886598442, 0.004634864514162691, -0.0005961400272205543, 0.018316126785757093, -0.012089956066414347, -0.017860386885353925, 0.009286362703642866, 0.031012125475708252, -0.09398759130712672, 0.052503363725908234, -0.037989671306772645, -0.012208052330630272, 0.05469893298741857, 0.019830783971259713, -0.016696988542551316, 0.03596424434532014, 0.02731085245663727, 0.06467898680086342], [0.004223723154315461, -0.02376103459472365, 0.02398609350090998, 0.05531214410063826, 0.007986042645035534, 0.008072770372030542, -0.06789666895991531, -0.00940563275219856, 0.0693754711501485, 0.006803090957525339, -0.0275200994418922, -0.01666203375822453, 0.01974610685018541, -0.01946948603476167, 0.029122663843395874, -0.04434324903190021, 0.023508643042215838, 0.016465916637646807, 0.01716447873613166, -0.008284241127574333, 0.06498731226924657, 0.020742436123765074, 0.017950130311411232, -0.04608990880849278, 0.0212177684380098, -0.03373166293997683, 0.018193750134758577, 0.013491206415985509, 0.029767442916878852, -0.036867055090026093, -0.050153258053756596, 0.0011344672442985845, 0.01974907948449554, 0.03283660005874806, -0.00520759181791827, -0.007483266848755752, -0.03314670741554788, -0.038867139735573486, 0.06751461023371101, -0.01601693440551397, -0.021565857148776738, 0.016883253947143954, 0.018913939326678147, 0.007877922405184356, -0.007319129110997722, 0.0009350945198093889, 0.04126084447407171, -0.028210147744534647, 0.0007071023016821409, 0.038714736184232046], [0.022036121337432192, -0.05739483535539103, 0.009535021427820803, -0.03356074073880042, 0.008261765716400934, 0.03904958568384809, -0.018470821251633376, -0.0033832482662062686, -0.032593338580992684, -0.012893573607441138, -0.016231174022437782, 0.013659221364008302, -0.049786255586628345, 0.028076628565356736, -0.06329154494192414, 